0.13217711 -0.6142128 -1.142063 -0.27888483 0.10782519 -0.3800829 -0.7452097 -0.04821964 0.060689494 0.044139754 0.11650312 -0.4801957 -1.3454828 -0.060656507 0.036179192 -0.011852271 -0.16479471 -0.034657847 -0.37688968 0.29012525 -0.17791745 0.121206984 -0.26157057 0.024593886 0.46265632 -0.5785494 0.019204833 0.068378724 -0.22423717 -0.32318097 -0.27705497 0.62896615 -1.6642456 0.022509316 -0.0149442535 -0.7621866 -0.45172337 -1.345031 -0.049442988 -0.18124197 0.2570362 -0.5325722 0.3299548 0.0062281336 -0.03394666 -0.6656085 -1.0718931 0.23730853 -0.17123514 -0.072896086 -1.4497656 -0.41375506 -0.065079205 -0.57799137 -0.3309675 -0.3243151 0.2293287 -0.5341334 -0.7576895 0.9714945 0.4979206 -0.011428716 -0.078605786 -0.15396456 -0.9285527 -1.3032 -0.117253326 -0.46047792 -0.043625556 -0.93227863 -1.3029232 0.055114407 -0.31077886 -1.2327161 -0.059995465 -0.021209054 -0.25215334 -1.3791643 -0.976077 -0.08202799 -1.1881518 -0.038339183 -1.2355188 -0.50030506 -0.27222523 0.11552636 0.14257075 -0.06506149 -0.6066805 -1.1937884 -0.4859892 0.17309368 -0.831448 0.75800455 -0.55509424 -0.2447566 0.07554053 -0.5139312 0.06962273 -1.3771244 -0.39895305 -0.11057598 -0.6566316 -0.032425538 -0.060935598 -0.14045237 0.06311305 -0.03586252 -0.9262681 -0.07004123 0.06462773 -0.004833844 0.010636698 0.065041706 -0.54614824 -0.5143815 -0.9463212 -0.013489728 -0.25987655 0.034829777 0.14368382 0.082059346 -0.19448747 -0.14021748 0.18187553 -0.95159554 -0.80216986 -0.04159175 -0.019307207 -0.3698307 0.08575527 -0.71257144 -1.3518603 0.0031209106 -0.50295645 0.23490657 -0.5177468 -0.03331334 -0.3986509 -0.6545524 0.39717758 -1.121871 -0.021262132 -0.6227741 0.031776324 -0.9301658 0.074879095 -0.04051184 -0.83927786 0.36627305 -0.9020643 -0.1191713 -0.06871761 0.06428201 0.46963716 -0.25307557 0.3252516 0.0030929868 0.01739722 -1.1024766 -1.235223 -0.047247585 -1.5320044 -0.029047417 0.17145942 0.37835133 0.050842464 -0.7291924 -0.31711614 0.16414717 0.03140794 -0.01736836 -0.63475275 -1.1314092 -0.38761863 0.15576608 -1.5180626 -1.0777987 0.010959089 0.5633803 -0.5980481 -0.35168648 0.20256115 -0.53426915 0.19723414 0.08712711 0.013012531 -0.042468492 0.014997997 -0.6922204 -0.12521408 -0.61513454 0.32348692 -1.4628718 -0.80600595 -1.3511044 -0.2004915 -0.33063656 -1.2868273 -1.4948763 0.12117229 -1.1140794 -1.607066 -0.014266676 -0.6753374 -0.64469683 -0.27211085 0.04862393 -0.3447424 -0.126847 0.35356957 -0.16227193 -0.29502037 -0.0074125226 -0.7995635 -0.61491066 0.15228254 -0.1927526 -0.16228688 0.2655601 -0.26884675 0.018484823 -0.03872919 0.14656395 0.56551886 0.41209832 -1.1013006 -0.39874223 0.050812587 -0.94375056 -0.05537928 -0.35034457 -1.3307472 -0.56950873 0.05716135 -0.44480896 0.01912598 -1.0092149 -0.17507601 0.021614669 -0.22684467 0.063572854 0.007207211 0.0051922468 -0.6109218 -0.7591113 0.07387813 0.06383467 -0.49415237 -1.1662716 0.033092167 0.06356547 -0.70621014 -1.2013617 -0.8628678 -0.40285873
0.1018925 0.017306121 0.14998129 -0.15097573 0.13479486 -0.38722968 -0.37712133 0.16290134 0.102561995 0.17936157 0.06714071 0.29137743 0.22655667 0.19529678 -0.0038344448 0.02361302 -0.30977365 -0.5727112 0.016692854 0.0650472 -0.2903397 0.22016291 -0.026108744 0.22826612 0.1446237 0.16327427 -0.03673951 -0.10061107 0.019019416 -0.071741655 -0.11278511 0.37294352 -0.07060469 0.017763827 0.165002 0.09886124 -0.03205128 0.06564786 0.13933067 -0.24806103 0.26045704 0.12154273 0.1332646 -0.05805776 -0.003012707 0.1316971 0.07020765 0.1526263 0.1542195 -0.13532168 -0.08800403 0.15807119 0.13424644 0.05561498 -0.014566255 -0.03963027 -0.25978002 -0.447667 -0.070204824 0.4248807 0.021806022 -0.022218311 0.27456564 -0.44898093 0.19232315 0.07240605 -0.10600901 -0.2670032 -0.033145595 0.050235983 0.20560789 0.18963335 0.093974896 -0.12759702 -0.16774607 0.047415257 -0.2522894 -0.0163972 -0.06962624 -0.018204762 -0.17269635 -0.124892764 0.009792072 0.41457394 0.060229544 0.19298753 0.08143029 -0.58999115 0.21275565 0.12058497 -0.14355306 -0.15209275 0.05025711 0.009818066 0.02735227 -0.23218033 -0.078882776 -0.19114427 0.076376535 -0.09151424 -0.16654128 -0.39666715 0.026187833 0.06731289 0.027713228 0.033986747 0.05249053 0.037449904 -0.06781523 0.08470661 0.21753298 -0.20145075 -0.00023470348 0.30229554 0.2869867 0.12909879 -0.8924353 0.026461804 -0.10222505 -0.16671158 0.20535758 -0.092861146 0.26153895 0.012887641 0.057418562 0.21500425 0.50528353 -0.16101633 0.06108233 -0.09541171 0.07613944 0.16967987 0.07609278 0.09535057 -0.04537291 0.14802137 -0.26779723 0.26766935 -0.41367298 -0.018179536 0.26444426 0.22922218 0.009913891 0.16765197 -0.049370926 0.16427808 -0.04734194 0.00028009107 0.12821437 0.29842246 -0.06525013 -0.25618708 -0.039299287 0.04695815 0.03680718 -0.15913093 -0.0049068835 -0.1338154 0.06593064 -0.26238114 0.15924409 0.0980519 0.17150004 -0.017786173 -0.022327844 0.17700174 0.030550223 -0.05470693 -0.21023963 0.3003972 0.19614303 -0.05438518 0.40298596 0.09975369 -0.5990787 0.4074557 0.008174295 0.37836903 -0.04367565 0.16951172 0.05929219 0.040116675 -0.026854903 0.22427128 0.06453498 0.11455529 -0.20145077 0.087576605 -0.009893435 -0.005871357 -0.28156433 0.2956829 0.14666599 0.03811816 0.059444383 -0.0049423664 -0.015897788 0.12728988 0.012769157 0.08306864 -0.13579783 0.02709492 0.09287847 0.21007147 0.035344124 0.113484 -0.5927939 0.088461906 0.08999308 -0.17775893 -0.41539466 0.09099411 -0.5350723 0.021727247 -0.122439705 0.06452075 -0.04469351 0.1643894 0.11759854 -0.1321202 -0.027450742 -0.01321979 0.10241302 0.014068547 -0.021964459 0.073045254 0.23457518 0.058654383 -0.023948297 0.16175388 -0.2343226 -0.11877637 -0.18367714 0.032256614 0.011967009 -0.05491452 0.09487635 0.024457328 -0.13218792 0.180546 -0.008303852 0.17088589 -0.0039622667 -0.4776155 0.04128364 0.07787945 0.028832104 -0.41033867 0.06405121 0.032779213 0.044332717 -0.012472863 0.0060377046 -0.012834717 -0.0470998 -0.45808443
-2.9926705 1.0219561 -2.0863044 0.24540742 -0.81760836 0.59501 -0.5972979 0.26861346 -2.2846472 0.08784282 -1.3543726 1.1877841 -0.096550606 -0.57654035 0.0826993 -2.5893633 0.9616632 0.3252059 0.5184028 0.06287859 0.5434948 0.27823043 0.009766184 -0.2804453 -1.4185282 -1.2162344 0.032367773 0.55619454 -0.5491424 -0.001904262 0.1649038 0.39878085 -0.36049464 -0.12908773 0.16932133 0.10100632 0.16121848 -0.27324867 -0.9749545 0.08430652 -0.7862455 -0.041575525 0.48369455 -0.018826736 -0.4193801 0.2868808 0.1859801 -1.9148433 -0.7274678 0.11426208 0.12557036 -0.5064869 -0.013747605 -0.0028920067 -0.44018772 0.40275642 -0.68745184 -0.40065345 -0.57747376 0.5824247 0.054264154 0.12898311 0.71439797 -0.39310896 0.04047023 0.21046932 -0.009069911 0.10795197 -0.24208593 -0.00090340676 -0.6484706 0.57752216 -0.62182754 0.64036644 -0.11238088 0.15831435 0.08821571 0.14228858 -0.6329635 0.0741891 0.7421947 -0.012062338 -0.110866666 0.8803868 -0.95598745 -1.0497698 -0.814278 -0.49185646 0.29069814 0.019806057 -0.83895177 0.0067561427 0.14315301 0.019988459 -0.059908725 -0.51335496 0.012720032 -2.0105722 -0.13219054 -0.79631984 -0.33193386 -0.09944283 -0.83269376 -0.18138124 -0.9830458 0.10287753 0.07002605 -0.2411888 0.26317412 -0.17889296 0.06153284 0.00431794 -0.28548324 -1.7965963 0.609658 0.124543294 -2.7827334 -0.17421407 0.050917506 -0.14677632 -1.4510119 -0.006735531 0.5995585 -0.013435321 -2.4154606 -0.40028673 -0.34016004 0.59836906 -0.4000565 -0.10776329 -0.52861744 -0.053160295 -0.2111259 -1.1954292 -0.4028173 -0.48532647 -0.25550362 1.3242303 0.41763207 -0.29774457 -0.79708236 0.30162394 -0.09731989 -0.10735942 -2.184569 0.38587546 -0.08165699 0.08061996 0.800765 0.08881883 -0.09080864 0.10576279 0.4712811 -0.924201 0.19760384 0.22880524 0.40879157 -0.510918 -1.4089534 -0.25368568 -0.09354158 -0.21230422 0.1315097 -0.07165776 0.066748194 0.10074858 -0.022995705 0.02807737 -0.07717585 0.13346371 -0.5002781 -0.09218378 -0.26540726 -0.11766007 0.0439649 0.46277326 -0.38558537 -1.3756576 -0.079877764 1.0727643 -0.1193803 -0.103348605 0.13958968 0.05538304 0.036713026 -0.5814026 0.021119328 -0.50163203 0.00091496395 0.037531756 -0.07854724 -1.0283022 -0.44389465 0.10790076 -0.5609777 0.12877376 -0.13110067 -2.716657 0.06262557 0.08795884 -0.17714924 -0.1789691 0.34579912 -0.33484417 -0.078127705 0.07941235 -0.0021595093 -0.34575695 0.10992969 0.011787197 -0.53588045 -0.15428731 0.28397632 0.01593777 -0.037641164 0.08673508 -0.108550414 -1.2222569 -0.2571917 -0.32451865 0.20302272 -0.121786006 -0.3637807 -0.09099576 0.38931537 0.104695864 0.25637847 -0.37431285 0.06999245 -0.26290828 -0.14655967 -0.31440994 0.65700144 0.2371914 -0.07474991 -0.4010448 -1.2071432 0.008642711 -0.08248977 0.3552115 -0.4794796 -0.86346096 0.12673044 0.3809942 -0.55461925 -1.4740144 -0.55044144 0.2804355 -1.9918448 1.1291698 0.01575134 0.74940175 -0.67329484 0.026596626 0.0462455 1.0294008
-0.16475469 -0.8119665 -1.3624101 0.2878883 -0.10469725 -0.08607221 -0.7046326 0.23599204 -0.043765895 0.11649724 0.15293549 -1.0592387 -0.4329898 0.36365217 -0.09377889 -0.06986214 -0.4119131 -0.41701275 0.25763196 0.06439601 -0.6042893 -1.0736421 -1.5109792 0.31075746 0.07978643 -0.5915084 0.1425675 0.11609187 -0.28430852 -0.033424933 -0.38203922 0.08030902 -0.3421165 0.004513864 0.09926914 0.0054955087 -1.8427483 0.09722316 0.28656167 -0.25399196 -0.49196848 -0.70925653 0.28997234 -0.09714516 0.08208931 -0.51560503 -1.6598921 0.017730564 -0.0240978 0.582688 -0.2017741 -0.75619 0.06335452 -0.14425062 -0.04962849 0.08618737 -0.04284578 -0.4503305 -0.49173042 0.009327173 0.004841633 -0.9084511 0.1228994 -0.5958875 -0.6342482 -0.37335125 -0.023360437 -0.12139142 0.15345243 -0.7175992 -0.6036677 0.34710133 -0.0036483882 -0.93635523 -0.2600083 -0.07908643 -1.4315025 -0.41546884 -0.34878284 -0.58827233 -0.3290205 -0.14615424 -1.398684 -1.0764747 0.23339479 0.17572683 -0.0036037536 -0.7922397 -1.0347732 -0.5838768 0.08601548 -0.028383624 -0.709424 0.22936474 0.010630088 0.15770222 0.040120136 -0.2515453 0.14910309 -0.09115896 -0.3377906 -0.2331927 -0.36859652 0.089420855 -0.11796165 0.13882421 -0.102682695 -0.9926546 -0.9420519 0.014826766 0.19327119 -0.06489789 0.0054361476 -0.07603325 -0.9109033 0.0811919 -1.0245682 -0.067215405 0.12963612 -0.31958473 -0.74554265 -0.13762198 -0.028292393 -0.058748875 -0.06433077 -0.9949392 -0.46863782 -0.3438638 -0.0069044502 -0.061316587 -0.41288507 -0.54172415 -1.3463857 -0.31739342 -0.03693014 0.124558575 -1.6672684 0.22071064 -0.036362235 0.08447041 -0.5960421 -0.9277109 -0.0063979356 -0.52677566 -0.057038274 -0.37117937 0.24593262 -0.4128909 -1.2676052 0.4993141 -1.2582186 -0.37483647 -0.2241283 -0.08497275 -0.10252165 -0.12101201 -1.370167 0.40135574 -0.26785025 1.0588928 -0.33957615 -0.22583708 -0.3124885 -0.039446257 0.04601099 -0.76016104 -0.7294783 -0.412271 -0.17616424 -0.77201 0.21795829 0.012216075 -0.75721556 -0.017957175 -0.2286821 0.011426228 -0.51352346 0.17270894 -0.058804136 -0.22429745 0.16107443 -0.4368377 -0.3187115 -1.0652633 0.23061632 0.20001985 -0.18971485 0.29844144 0.058418524 0.13359278 -0.13025323 -0.29309842 -0.011110905 -0.34332532 -0.9745431 -0.061280604 -0.3603998 -0.27230912 -0.27240336 -0.26252225 0.19458653 -1.3055989 -0.8015685 -0.3219425 -0.30969915 -1.6548665 -0.55109507 0.011997036 -0.090610564 -0.07039802 1.069652 -0.28815013 -0.26948264 0.035863448 0.036869388 -0.40110028 0.14316766 -0.22805236 0.17709272 0.33390203 -0.09270336 0.09497991 0.076448984 0.07765044 -0.050686188 0.41467538 -0.15054974 -1.1170375 -0.055603683 -0.2514296 -0.6362624 -0.13845031 0.064835794 -0.77961636 0.19143887 -0.5474699 0.08603747 -0.36729786 -0.040307138 -0.67854095 -0.55385953 0.12786914 0.07444298 -0.5035905 -0.061943687 0.16354617 -0.29346752 -0.20339163 -0.47907856 -1.002078 -0.0031529716 0.09999521 0.27895087 -0.07948544 -0.011746266 -0.31188878
0.15850551 -0.015739534 0.11617142 -0.17708957 -0.030087337 0.02355015 -0.5485095 0.061960306 0.058693163 -0.097481444 0.31041777 -0.02755336 0.10294931 -0.54933107 0.16133521 0.01020892 -0.2107405 -0.589428 0.5184102 0.046800736 -0.32191238 0.017323243 0.16925919 -0.021706928 0.15873723 0.10477045 0.11771424 -0.032446694 0.044803277 -0.11436686 -0.9665286 0.3541679 -0.14755653 0.056844596 0.0030090075 0.0075331097 0.09956967 0.12080275 0.05132332 -0.17580992 0.25727266 0.2913724 0.21045503 -0.07245583 -0.03650491 0.026959933 0.21541975 -0.079802014 -0.06648539 -0.5012455 -0.22274524 -0.1754027 -0.077660635 0.12384658 0.053832695 -0.3467771 -1.3112102 -1.5642965 0.39923772 0.68857986 -0.19937263 -0.56314474 -0.29912296 -0.26508865 0.13795346 0.38276002 0.030720625 0.0015445031 0.20556542 -0.09466557 0.18715115 0.04308529 -0.45127785 0.8757765 0.07118681 0.06918989 -0.66440696 -0.093897544 0.061395317 -0.014129302 -0.44749784 -0.05621291 0.15770224 -0.16198708 0.21798976 0.06808848 -0.06590919 -0.35648566 0.29176933 0.56644773 0.3937377 -0.04439419 -0.124390095 -0.3823029 0.06939969 -0.29969943 -0.008619463 0.1350907 -0.058660332 -0.15149945 -0.03182578 -0.0831657 0.118079774 -0.09074447 0.29283863 -0.07647133 0.16562562 -0.26519543 -0.15462552 0.009874928 0.029336754 -0.04963292 -0.037995882 -0.06307142 0.113993175 0.16875327 -0.7964336 -0.031456843 0.15071008 -1.2330827 -0.17018409 0.045349125 0.28265077 0.093266085 0.13195089 -0.29922125 -0.066490196 -0.36096844 -0.00025462842 -0.57866085 0.12362025 -0.4086313 0.037514422 0.09227823 -0.45148444 0.020890048 -1.5531776 0.46177587 -0.26583377 0.24004094 0.3121873 -0.15067266 -0.061133478 -0.087756924 0.04267576 0.1226475 0.12481261 -0.04748369 0.34100273 0.09564296 0.20065698 0.23313932 0.052135613 0.14949855 -0.21509668 -0.11744682 0.21522056 0.20449097 0.15135893 -0.94798553 0.08073626 -0.023274885 0.17401594 -0.0214447 0.1552812 -0.1328941 -0.050516892 0.010728268 -0.052530985 0.3833418 0.04080513 0.09873597 -0.26122656 0.084336296 -0.042227622 0.45579973 0.3734334 0.15486367 0.118983656 0.28507322 -0.047440432 -0.05678775 -0.008331582 0.007351144 -0.1436602 -0.12524375 -0.14747187 0.1257916 0.0044975113 0.10047709 -0.08513525 0.23207258 0.10481227 -0.1147496 0.22308433 0.07443033 -0.30304894 0.08261466 -0.04362804 0.10487817 1.1482805 0.24506548 0.116018474 -0.104638994 -0.03362507 -0.04199831 -0.6203311 -0.047200266 0.04933636 -0.100825615 -1.139188 0.098695084 -0.10809572 0.03692722 -1.2064255 -0.041564975 0.1557292 0.227247 -0.3474609 0.3562483 -0.098445594 0.058013994 0.032859474 -0.147767 0.14123884 -0.5711049 0.3495291 -0.22095229 0.009245006 0.062339097 -0.89239526 -0.579071 -0.47559056 0.102783844 0.49750438 -0.92247444 -0.0076520764 0.06304785 -0.13544397 0.19817887 0.050218903 0.13169928 -0.3147415 -0.54098064 0.18115991 -0.3099253 0.06340359 0.2201787 0.117526375 0.11647905 -0.025000395 0.26788595 0.058003865 -0.07304262 -0.09213432 -0.15156025
0.2991808 0.12810458 -0.051702462 -0.13276994 0.04252452 0.21671583 2.5944703 0.14653775 0.014042462 0.10269035 0.28555328 0.033510868 0.22651114 0.16841994 0.050716035 -0.116971016 -0.3756482 -1.0343342 -0.08077444 0.12061562 -0.34689 -0.4559918 -1.33833 0.20236704 -1.7073839 0.09998886 0.0878505 0.11421003 0.17124395 -0.23664814 -0.25497425 -0.557782 1.2729373 -0.24525923 -0.24227545 0.13979732 -0.053147078 0.12504382 0.19101769 -0.37899515 0.2826062 0.38016316 -1.4465967 -0.011047946 -0.01294735 0.21462604 0.1063337 0.001339231 0.09520679 -0.24799329 0.053014975 0.1874739 0.010255983 0.049762115 -0.008303459 -0.6617406 0.38570926 0.43577102 0.17901109 -0.9102695 -0.20664172 -0.05905746 0.19078636 -0.7653172 0.14626288 -0.18852328 -0.007302211 -0.030420516 0.05544437 0.05536404 0.16795366 0.078362174 -0.15797538 0.34265733 0.2304782 -0.14807984 0.11778649 0.010623913 -0.026623452 -0.100889996 -0.06829268 -0.0122319115 -0.3324569 0.1736545 -0.0050027077 0.21977724 0.13693652 0.047644187 0.28644353 0.010629168 -0.62206435 -0.033071917 0.042863935 -0.08492539 0.053969875 -0.17139861 0.008481908 -0.1951669 -0.022802345 0.5845297 -0.16361079 0.86291695 0.05860714 -0.12341144 0.09971318 0.14726277 -0.18644646 0.05525003 -0.3540081 0.04408421 0.12534471 -0.13165446 -0.011743026 0.06643219 -0.6364179 0.2422283 -2.826285 -0.0005770221 0.003191815 -0.16745616 -0.0017521436 -0.020933859 0.18005161 -0.33698487 0.11875787 0.29150122 0.5979763 -0.32464653 -0.1829265 -0.17425917 0.060356386 0.08042581 -0.51028466 0.13238859 -0.29094708 -0.058221355 0.0046085604 0.22925057 -0.16443047 0.039172888 -0.84425694 0.1880777 -0.013541616 -0.024911111 -0.07151994 -0.12802778 0.06407019 0.15662794 0.48346758 0.40462154 -1.4289786 0.088070855 0.08187068 0.039947025 -1.8956122 -0.2201084 0.40939367 -0.05415848 0.32731974 -0.39082053 -0.8993792 0.07824024 -0.17178021 0.055401318 -0.37089702 -0.08102995 0.06495971 0.10020614 0.23477052 0.26864547 0.19668198 -0.03042531 0.0786204 0.036587626 -0.26410955 -1.5786744 -0.039309498 0.45996192 -0.06361086 -0.37388667 0.08161639 0.039500676 -0.17345096 0.07639757 0.07544526 0.0026240451 -0.038054306 0.21811993 0.16008937 0.14987177 -0.10486249 0.023893816 0.23061736 0.03328444 0.059272166 0.13069294 1.1879414 -0.090072684 0.25303203 0.02987921 0.20111898 -1.0224546 0.11872933 -0.52847457 0.112538606 -0.5039399 0.110340565 0.21261334 0.04327716 -0.070518576 0.0815587 0.30152103 0.058606263 -0.15837488 -0.14405148 -0.20044966 -0.15878224 0.077581964 0.023883287 0.49183518 -1.2360039 -0.15504721 0.06965091 0.046994597 -0.047731154 -0.15455303 -0.35427368 0.12190663 -0.03144998 0.064181365 -0.8229704 -0.77271163 -0.34296492 -0.12707521 0.68734515 -0.81196684 -0.06026392 0.025580462 -0.078460835 -1.0824183 0.0054731444 0.17801054 -0.15008156 3.4965944 0.19655102 0.9302141 0.06782288 -0.23005968 0.16893668 0.20653112 0.0005511898 0.08246091 0.03114686 0.06629683 0.044332214 -0.29846457
-0.14861189 -0.1276181 -0.09705547 -0.6585977 0.1246771 -0.23351002 -1.1596026 -0.04359871 0.22397365 0.05986882 -0.029515693 0.36653343 -0.0034635398 0.30642775 0.10505735 0.01783276 -0.81640965 -1.372392 0.20030986 0.041638706 -0.989499 0.10884946 -0.057821475 0.13094005 0.118881956 -0.06944873 0.027942045 0.021253362 0.32836416 -0.32417792 -0.5072034 0.8779376 -0.086075135 -0.060232516 0.17446312 -0.10300657 -0.11272152 0.05922121 0.09563652 -0.6810375 -0.11232234 0.1433725 0.18997565 -0.109451756 0.1648873 0.04668614 0.09106202 0.13731824 -0.0138937915 -0.3300899 0.10026699 0.029705169 0.0013573974 0.055246025 -0.09219442 -0.8847361 -1.2540526 -1.5137517 0.055186804 0.82475674 -0.272184 -0.42268622 0.19040309 -1.2060262 0.0068666385 0.09734824 -0.090310805 -0.12850295 -0.048613485 0.15035467 0.07385465 0.24832171 -0.22387204 0.7827549 -0.24073355 0.12121469 0.08503077 0.28395417 0.05347447 -0.059309997 -0.4964653 -0.27219984 -0.09958627 -0.3077928 -0.074645065 0.13202246 0.21369098 -0.989142 0.35470378 0.23733091 -0.1562105 0.012138981 -0.18294966 -0.3689367 -0.0078121135 -0.33521384 -0.0024002916 -0.7115509 -0.069270864 -0.5607196 -0.34343237 -1.4834431 -0.12600698 0.19040932 -0.043559317 0.12989274 0.27683312 0.24134964 -0.15277646 0.035433404 0.27027187 -0.33125794 0.07602198 -0.07749848 0.22756019 0.07207269 -1.0452636 0.028577436 0.19081146 -0.8898888 -0.09728383 -0.08000065 -0.028352516 -0.18085133 0.11456532 0.24204068 0.64310783 -0.4086551 -0.024075039 -0.39049825 0.10861761 0.24012399 -0.23740055 0.14438753 -0.8066228 -0.06396716 -1.0657716 0.4634855 -0.9987855 -0.108536795 -0.15489507 0.18407638 0.026931386 -0.12163697 -0.023444545 0.046020456 0.003806033 0.13218175 0.18907668 0.581619 -0.06376936 -0.12600099 0.37811634 -0.095684156 -0.032183528 -0.6650773 0.032296367 -0.090630226 0.26924017 -0.5703313 0.008720524 0.44522306 0.049984545 0.05323217 -0.04752205 0.08747078 0.12083623 0.08236352 -0.5688669 0.13258001 0.047631405 -0.032105833 0.57408255 0.004543102 -0.80687195 0.5273379 0.14737254 0.14161494 -0.06697778 -0.5714253 -0.12163272 0.031052317 -0.20438635 0.13010983 0.08834958 -0.11651013 -0.13774352 0.03871867 0.043190394 0.09042039 -0.32862517 -0.11560471 0.4542263 0.24737033 0.082273595 0.09300373 0.06324089 -0.24526328 0.12298042 -0.082264505 0.75763357 -0.15497348 0.015122525 0.49651784 -0.03127145 0.051477287 -1.0133873 0.086659096 -0.047525853 -0.2845611 -0.83233166 0.14449361 -0.42278117 -0.07565131 -0.56396437 0.14641131 0.10222214 0.24526729 -0.06406511 0.4804832 -0.2364637 -0.015408257 0.14659058 0.15303853 0.018025722 -0.34505004 0.07320064 0.21170747 0.019237963 0.07989324 -0.8249469 -0.4710238 -0.6391812 0.06374524 0.57406074 -0.9849569 -0.04539392 -0.006612681 -0.43312743 0.101621404 0.219565 0.010868633 -0.06700279 -0.6941285 0.6433484 -0.7094377 0.01143212 -1.4134833 0.107281566 0.13375467 0.11071088 -0.020459564 -0.15238497 0.04938299 -0.041357726 -0.5738691
-0.052913297 -0.060474243 -0.18333384 0.20679313 -0.16462179 -0.11436155 -0.7340462 -0.12552583 -0.09905615 0.024856612 0.09450864 -0.30466145 -0.08557739 0.14521936 -0.016607422 0.0045544184 -0.16224661 -0.22034848 0.053043883 -0.044658612 0.3916677 -0.021877162 -0.1221226 0.084070764 -0.22728252 -0.13039501 0.09776905 0.15120499 -0.3512569 0.11257392 0.13214958 0.31282315 0.13739592 0.039338488 -0.024550108 -0.002947255 -0.990345 -0.0288396 0.016032992 -0.14980948 -0.46274668 -0.56080776 -0.2527802 -0.032634098 0.13854574 -0.25363848 -0.4569856 0.018565364 0.07887704 0.33214256 -0.06679276 -0.019007882 -0.10427459 -0.009302731 0.04517442 -0.010059108 0.14269708 -0.19934551 -0.13785155 -0.18548866 -0.040004272 0.06473442 -0.24488392 -0.1363232 -0.022187231 -0.3582677 0.019617528 0.025233919 -0.07145717 -0.15893097 -0.37259746 0.034517772 0.035571203 0.18669151 -0.002842678 -0.1645958 0.098455615 0.014364968 -0.035275612 -0.3342977 -0.12918761 -0.0067301285 -0.481481 -1.3086578 0.21397853 -0.0028030311 -0.18528853 -0.34781283 -0.75062734 -0.059908617 -0.17179993 0.0027522738 -0.3648298 0.060679153 -0.059746705 -0.014441894 -0.03716507 0.12311694 0.101459496 0.4013388 -0.030247007 -0.24632025 -0.06858172 0.023807416 -0.1466919 0.041218996 0.050117858 -0.41266754 0.0446967 0.061627373 0.027974768 -0.07276702 0.0042446423 0.06672979 -0.38571757 -0.038480483 -0.3056203 -0.01942603 0.0075990427 -0.012105007 -0.39934424 -0.05286617 -0.11180444 0.057780586 -0.07241251 0.0032770177 -0.811975 0.2693613 0.04661475 0.040264234 -0.16471042 -0.15871282 -0.55820256 -0.17431597 -0.11509262 0.014622379 -0.33634448 -0.41543546 -0.1466588 -0.058066033 -0.7526645 -0.17056476 0.02766094 -0.16624004 0.0008100959 -0.6612697 0.1243713 -0.24323668 -0.4862486 0.2636299 -0.5946268 -0.21761903 -0.19475298 -0.05481423 -0.06593578 0.23176263 -0.35110193 0.2867326 -0.3069934 0.12407302 -0.018949721 -0.16023675 -0.26692176 -0.052883238 0.114728734 -0.04768309 -0.21232834 0.0077551403 -0.14268188 -0.8508932 -0.036445506 -0.0026513285 -0.19906382 0.0064002946 -0.21778049 -0.22421762 -0.038003683 -0.004503712 0.15058072 -0.5842495 0.06303348 -0.022895355 -0.2159846 -0.3757426 -0.1226156 0.07826258 -0.012596559 0.050179232 0.09079639 -0.09596594 -0.041307237 -0.018211171 0.2027491 -0.17692798 -0.2535392 -0.045975327 0.14154854 -0.01040391 -0.1215884 0.012363974 0.027777992 -1.1610745 -0.124991804 -0.40598547 -0.004598592 -0.19113858 -0.24592632 -0.08476804 0.018112933 -0.0671212 0.4006333 -0.119154416 -0.108987555 0.0341256 0.15403053 -0.11216202 0.14547358 -0.08238213 0.08455292 -0.38901675 0.23816063 0.12201232 0.045376677 0.071764186 -0.009179154 -0.072764345 -0.37356207 -0.23053536 0.04902142 -0.0801903 0.60243154 0.34263933 0.04471577 -0.19942789 -0.28321266 -0.13382672 0.12843072 0.03390591 -0.004806357 -0.1549716 -0.18213293 0.053279012 0.25749916 -0.5457882 -0.32383963 -0.33811283 -0.06439043 -0.16461235 -0.21305372 -0.1264687 -0.0018685157 0.066629425 0.16333264 -0.02724846 0.052054692 -0.10831578
0.04765465 -0.048158012 0.12622045 -0.14128329 -0.05369513 -0.31597117 -0.8097968 0.16573128 0.13029546 0.035172276 0.046581004 0.0392607 -0.003266249 0.22943425 -0.02175214 -0.06421597 -0.29302245 -0.38668305 0.052190103 0.021189304 -0.4511564 0.10770599 0.010869049 0.15278836 0.06831749 0.076592 -0.007328871 -0.030846722 0.1275476 -0.058375835 -0.44705772 0.5103947 -0.052088656 0.032765064 0.09565736 -0.049356744 0.21537912 0.1824585 0.12007986 -0.4656508 0.30460736 0.3780544 0.12707387 -0.07584276 -0.051265277 0.118452884 0.013171805 -0.060438734 0.05429628 -0.5171005 -0.033656675 0.21383198 0.038732585 -0.03514075 0.010049569 -0.19950932 -0.7777367 -1.2292608 0.17917144 0.3900162 0.13828279 -0.28209385 0.08782163 -0.76643604 -0.10849976 -0.020271126 -0.06958289 0.009508369 0.1786911 0.045585275 0.10564679 0.0047420515 0.106618315 0.17187792 -0.105274156 -0.015145916 -0.40378243 0.07498978 0.06272313 -0.037172943 -0.36732578 -0.08682035 0.08734397 0.40372974 -0.03717013 0.09612428 0.19804665 -0.49406147 0.43567201 0.20341372 0.041683782 0.10928319 0.13472006 -0.14703089 0.123729795 -0.21864344 0.028500807 0.14290307 0.035425942 -0.2347479 -0.33007443 -1.0055189 -0.058682427 0.03874866 0.010176256 0.033385813 0.102243 0.022539085 -0.40990975 0.04004423 0.11810133 -0.17814143 0.011668773 0.081954435 -0.027220288 0.10928452 -1.4250553 -0.014281607 0.10366113 -0.7451538 -0.06885924 0.012000236 0.22764818 0.01997771 -0.06098265 0.16920675 0.50376284 -0.3188597 0.031854145 -0.21293184 0.12835102 0.16419016 -0.0027705282 0.13558203 -0.0710807 -0.036682833 -1.2526268 0.49767497 -0.4011444 -0.05076966 0.3205676 0.082189396 -0.047372546 0.034811728 -0.01690961 0.16669923 0.010201922 0.1688171 0.26661023 0.39622897 0.32625008 -0.048736338 0.113568544 -0.016268602 -0.07853379 -0.18615003 0.02596239 -0.08707251 0.2651898 -0.45510375 0.079634 0.3754346 0.048815377 -0.116400294 0.04838814 0.020612238 0.06431278 0.07441475 -0.2419551 0.27140287 0.11181042 -0.008183203 0.019765742 -0.06326758 -0.6065281 0.47059932 0.18079019 0.4634423 0.1046935 0.16753249 0.08918196 0.101450376 0.027778052 0.005999891 0.102381155 0.03937426 -0.26601574 0.1351662 -0.0017106088 0.10856943 -0.17925914 0.35517544 0.13506469 0.12861758 0.025246132 -0.0005252196 0.0039308663 0.0501757 0.10863838 0.04033334 0.20320848 0.047468785 -0.19991438 0.085608736 0.0309239 -0.014531708 -0.59556156 0.17427054 -0.05248425 -0.2863677 -0.8466727 0.029569564 -0.35302964 -0.043421168 -0.083020456 0.014013018 0.02570746 0.064817786 -0.052692976 0.50806403 -0.013286039 -0.050641056 0.027514543 0.020157339 0.09468827 -0.22667794 0.028920818 0.13423137 -0.038183082 0.115669094 -0.32982594 -0.26698318 -0.429449 0.0032930814 0.37790516 -0.7628259 0.02358862 0.040146682 -0.058381498 0.006166124 0.0034972103 0.15557595 -0.014634965 -0.4872066 -0.031109687 -0.067048416 0.041401368 -0.3033759 0.0090658115 0.13274126 0.014831863 0.114780106 0.12596595 0.023680119 0.0540418 -0.2485799
-0.23953691 0.107040405 0.02691602 -0.07544976 0.08762285 0.29077703 -1.5104624 -0.009354469 -0.11084966 0.35110703 0.11296234 0.17834233 0.36828768 0.32545495 0.08029779 -0.041705675 -0.060686246 -0.26325175 0.35640195 0.13548505 -0.20921998 0.11197054 0.07123803 0.43081135 -0.0296107 0.06507936 -0.058605403 -0.12905794 0.042714823 0.04434041 -1.8586528 -1.2552545 -0.22481343 -0.015075961 0.42261696 0.13337103 -0.439895 0.06137541 0.46431917 -1.9067125 0.29199743 0.076394886 0.081509724 -0.93237257 -0.23984122 0.11115404 -0.15849923 0.016254691 0.3213601 -0.3227396 -0.3268061 -0.31374633 0.089326784 0.048912097 0.07228012 -0.12666741 -0.93501204 -2.0600564 0.39705816 1.0600209 -0.22628303 -1.5439781 -0.13565709 -1.5770801 0.6103333 0.6340156 0.041311845 -0.44581085 -0.24916156 -0.100484245 0.005920135 0.18713729 -0.1796801 0.8015155 -1.3292813 -0.09981926 -2.0729835 0.032475647 0.04253511 0.1329615 -0.4558441 -0.6911569 -0.03534938 0.4889024 -0.0064077927 0.19404054 -0.13285293 0.09971131 0.2688816 -0.45615926 0.3221882 -0.024438916 0.8317462 -0.14636391 0.016117271 -0.23782885 -0.09316146 -0.36118144 -0.2739812 -0.14829484 -1.396789 -2.1179156 0.19832914 -0.023027563 -0.10214905 0.09985767 0.2919159 0.1707412 -1.0592082 0.07036388 0.37227398 -1.3136002 -0.058856215 -0.72958267 0.022039209 0.033581942 -0.9238178 -0.038529605 0.2569562 -1.7426182 0.33473817 -0.02639793 -0.2379188 0.30233482 -0.18153886 -0.8842369 0.51435757 -0.21415986 0.11149626 -1.5621183 -0.33212554 -0.019441674 -0.008051726 -0.01904317 0.08113699 -0.37229356 -1.8582432 0.47072503 -0.0021899897 -0.034697216 0.008474018 0.09039617 -0.11037101 0.075865634 0.0052219476 -0.15277301 0.14675196 -0.07438267 0.22331508 -0.10862016 0.2979867 -0.44939458 -0.36734018 -0.09445493 0.3351303 -0.067912385 -0.3186717 0.22583191 0.23319297 -2.3775303 0.3296868 0.0651348 0.38687554 0.066080585 -0.052106455 0.20666756 0.10160366 0.20001423 0.17396544 -0.035309583 -0.2267743 0.099542044 -0.74004453 0.28838626 0.046749197 0.63595 -0.2539837 -0.15414606 0.104613826 0.33277076 0.07242583 0.063279055 0.46056858 0.50496477 0.47222197 -0.2448038 -1.0687201 -0.21556301 -0.0031624082 -0.042070195 -1.0392859 -0.017406521 0.15317301 -0.18740465 0.058290295 0.12125265 -0.7385612 0.047245055 -0.24014014 0.08342594 0.32412222 -0.19434732 0.16640484 0.076538764 0.068053335 -0.1404075 -0.1581599 0.46406528 0.13516678 -0.79201543 -0.35886472 0.044567484 -0.0445959 -0.052621134 -0.50607586 -0.15845686 -0.1871597 0.036254007 -0.020702776 -0.07510308 0.36682338 -0.024681687 -0.12901798 -0.047679782 0.12074961 -0.15250903 0.5941485 -0.23335248 0.0024130798 0.026674148 -1.191467 -0.37054744 -0.9390821 -0.021959344 0.6434854 -1.1207113 -0.021972194 0.15814549 -0.0047424044 0.0033448532 -0.08600827 0.059814963 0.30025953 -0.45458573 0.13926561 0.11680098 0.006205664 0.07727898 0.035020486 0.43853214 0.11107691 0.36775294 0.18181 0.04194511 0.11451158 -0.2521101
0.3028395 0.16341588 0.033486996 -0.020445418 -0.023290278 0.31857586 -0.52431655 -0.043907803 -0.015993932 0.19737886 0.069782056 -0.07243427 0.12306767 0.39513308 -0.0003202864 -0.0762375 -0.10420291 -0.43944925 0.25109994 -0.005569096 -0.255369 0.075727515 -0.07818394 0.3340452 0.23978388 0.1940432 0.020288438 0.02435041 -0.027516516 -0.04152422 -0.5665227 0.21757005 0.058516856 0.07324832 0.25863984 0.06987071 0.08276671 0.044355404 0.26576352 0.01484314 0.26624528 0.09861704 0.11236547 -0.2268284 0.03130229 -0.020887941 0.0033829196 0.046947315 0.0557705 -0.21051244 0.008320188 0.031222582 0.0661728 0.01133322 -0.14232402 -0.083083875 -0.14915368 -1.2930275 0.28148168 0.34424046 0.054309804 -0.52568644 0.01626508 -0.3566828 -0.010039501 0.16779381 0.12220036 0.13592197 0.012461385 0.055222057 0.25760892 0.08739199 -0.03696917 0.026288563 -0.12186418 -0.046896365 -0.6249043 0.0078047966 -0.01933256 0.034874182 -0.25366765 -0.24774699 0.14925891 0.58074445 -0.076624185 0.08964858 0.08118191 -0.113167286 0.28613394 -0.032115784 0.24096228 -0.016963517 0.35498643 -0.15041716 -0.085557826 -0.11676667 0.0015620933 -0.5599872 0.10748023 -0.1045796 -0.20298691 -0.3632918 0.043183945 0.10726252 0.0565791 0.08774574 0.18152072 -0.02544069 -0.36235318 -0.014846734 0.07046969 -0.100625895 -0.039953582 0.060014598 -0.22465874 -0.07218991 -0.69744766 -0.08499605 0.014773668 -0.9054777 0.15433502 -0.018154873 0.21736756 0.20695563 0.024201559 -0.3289598 0.27939737 -0.23673509 0.08091951 -0.41594425 0.07345649 0.00800142 0.023038859 0.21254641 0.032784365 -0.094554216 -0.9618568 0.2611328 -0.06492002 -0.106934234 0.52887857 0.11635139 0.014046673 0.12400251 0.113103524 0.1349885 0.113013975 0.07479803 0.319536 0.084394924 0.13433105 0.12844613 -0.037373 -0.13217704 -0.018489845 -0.10253175 0.21949266 0.0028666942 0.32334626 -0.45589352 -0.124564186 -0.104750365 0.17146477 -0.117734 -0.016664281 0.08324824 0.16789521 0.030365571 -0.42865154 0.40831706 0.14395086 0.07144763 -0.45346805 -0.04383404 -0.12738204 0.42436302 0.047210902 -0.058813788 0.0464088 0.23178223 0.073809385 -0.06455465 0.17004652 0.2757497 0.0778905 0.1317769 -0.5193795 0.08977923 0.07079489 0.09170795 -0.40701386 0.22928931 -0.020784892 -0.18626517 0.13221823 -0.04756961 0.034625847 -0.00095574936 0.1682798 -0.05911628 0.28437278 0.040792882 -0.13363172 -0.13436204 0.006767356 -0.09905924 -0.56546885 -0.012813079 0.011014869 -0.15548214 -0.60390085 -0.032555886 -0.028866017 -0.025700303 -0.101017356 -0.012436177 0.045377716 0.1274896 0.08712769 0.31270158 -0.01280207 0.046308786 -0.046697125 0.08644392 0.015874233 -0.2620576 0.23611197 0.023122294 0.019897316 0.012985299 -0.1439753 -0.22974406 -0.31932002 0.11702438 -0.029004348 -0.4141972 0.15985486 -0.035403337 -0.15766107 0.27560616 -0.18112494 0.09014149 0.12824602 -0.34148547 -0.0034711096 0.2708304 -0.038410112 -0.0011127432 -0.037364915 0.033337668 0.04865715 0.26905972 0.020627258 -0.00057500397 -0.0073512425 -0.1220185
0.17706478 -0.05067511 0.07100819 0.18721317 0.33207852 -1.1691769 -0.7447682 -0.25387228 -0.05723735 0.20373255 0.20269941 0.053067066 -0.16789302 0.13939402 -0.062144767 -0.022603672 0.1881337 -0.029463716 -0.16007124 0.004587517 -0.015531757 0.33916774 -0.12342402 0.5060883 0.00023980078 0.04770171 -0.06889411 -0.020159591 0.47492468 0.119137876 -0.23835127 -1.2898692 0.4355999 -0.036590427 0.15561168 -0.177298 -0.05595556 0.020344846 0.59227484 -1.4219813 0.13445477 0.17846292 0.2788743 0.10911639 0.084029414 0.38244897 -0.29438916 0.08448418 0.352073 -0.42982164 -0.004584243 -0.23387471 0.32522595 0.17460385 -0.13296576 -0.02887523 -1.5338745 -1.753794 4.0896455e-05 1.0119728 -0.58450764 -0.6165414 -0.20253238 -1.3645879 0.10980715 0.42525592 -1.4023722 -0.87507135 -0.14070053 0.017838042 0.28252494 -0.18186063 0.030453486 0.65414053 -1.735776 -0.14435416 -0.31442186 0.023677759 0.05939012 0.08721646 -0.06416117 0.11862597 -0.051165666 0.59902185 -0.021733502 0.29291853 -0.12659712 0.14553565 -0.065713115 -0.49462175 -0.051636335 -0.01454609 0.5584183 0.40891355 -0.026987558 -0.64696485 -1.1697129 -0.08547657 0.0027477532 -0.48908114 -0.49354097 -2.0877323 0.2275745 -0.12735589 -0.19601521 0.05459724 0.09739642 0.39876175 -1.2880917 -0.05399039 0.09346822 -0.665401 0.029874012 -0.06676467 -0.5024237 -0.1828151 -1.423873 -0.0006498393 -0.31912923 -1.3255051 0.690072 -1.925208 -0.5680872 0.017888548 -0.09792031 -0.36299175 0.4209293 -0.25672433 -0.11464073 0.089357615 -0.076098844 0.5446997 -0.0600816 -0.23258895 -2.0984921 -0.10249031 -1.5773525 0.6557894 0.2646363 0.06700111 -0.046021413 0.3702654 -0.0012771564 0.39379948 -0.08799146 0.115885146 0.16027294 0.21149588 -0.22490415 -0.25290638 0.024459386 -0.43282264 -0.34644476 -0.019550748 0.21509975 0.003436089 0.07849809 -0.4497135 0.16508429 -2.5436697 0.26745725 0.47084257 0.49490112 0.06798838 -0.21246308 0.22660954 -0.18187009 0.34230274 0.27587432 0.10445388 0.12747322 -0.032956567 -0.015891142 0.16056444 -0.6835984 0.7137476 -0.24037425 -0.18741696 -0.16471216 -0.00037040355 0.052153863 -0.11635605 0.43245348 0.17068356 0.1970199 -0.25857064 0.25217092 0.43604237 -0.06450101 -0.17161953 0.043902885 -0.5952882 0.13343373 0.52404696 -0.12229319 -0.09773652 0.015980516 0.19694674 -0.08609678 0.004166855 -0.18012618 -0.16097903 -0.4138809 0.021081109 0.021246264 -0.058282148 0.19638214 0.4765279 0.056642346 -0.9716576 -0.6588749 -0.19524762 -0.6713462 -0.051081713 -0.49605152 -0.0719289 0.047368925 0.027254088 -0.0028769367 0.8046084 -0.2779486 0.13148552 -0.029185485 -0.048406202 -0.1584279 -0.42624652 0.38772568 0.12029194 0.044607565 -0.27752134 -1.1927037 -0.30745134 0.0049749585 0.28142282 0.6974872 -0.23272988 0.025425894 0.16953097 0.023707364 -0.08522926 -0.1441319 -0.009478307 0.32436267 0.097897425 0.6440859 -1.4745724 0.05171929 -0.09063693 0.08236353 0.14949568 -0.02325961 -0.1950587 0.115779944 0.19640377 0.12319779 -0.0011791865
0.37717843 0.59522945 -0.021572296 -0.21683371 -0.0072026593 0.2741906 -1.0554723 0.31359065 0.06088401 -0.0019253116 -1.1588264 0.20939939 -0.009989671 -0.45994234 -0.00924008 -0.93329656 0.24182269 -0.47367856 0.37385237 0.21850967 -0.3030855 0.26667196 0.15512984 0.097667836 -1.3696961 -0.113350205 -0.2959457 0.4198795 -0.1284853 0.08243043 -0.1549691 -0.34748277 -0.036865547 0.15812825 0.8975568 0.14907615 0.084293865 -0.058297954 -0.16369464 -0.69524086 0.12396633 0.37262017 0.09048569 0.01584766 -1.2604473 0.05689245 -0.22431962 0.14638531 -0.4612186 -0.04091365 -0.033642057 -0.21131302 0.114604615 -0.03221961 -0.013847183 0.4558606 -0.24537893 -0.0825366 0.04645923 0.28841677 0.29146075 0.0018018455 -0.31138864 1.0454673 -0.1684466 0.281549 -0.11026619 -0.06034805 0.29982197 0.08347554 -0.38164642 0.20904534 0.15276003 0.07740465 -0.23770198 0.13384676 0.009435283 -0.63291794 -0.026823545 0.49162844 0.31073135 0.052091096 0.25349078 0.326902 -0.0199151 -0.073122844 -0.10959057 -0.5024936 0.3658265 -0.74296236 -1.1512971 0.2607347 0.033682425 0.10373625 -0.006922807 -0.27695826 -0.027058726 -0.24849989 -0.85825914 -0.7415793 0.34761804 -0.09892369 -0.11088053 -0.35041192 0.12119071 0.019141274 -0.0048373854 -0.07165381 -0.055666383 0.04472768 0.14501998 -0.0052648806 -1.4551579 -1.0981592 0.5523325 0.12334798 -0.7157854 -1.7145451 -0.07014998 -0.015135347 0.21042798 0.038420945 -1.2066677 0.046516623 0.19574033 -0.51329017 -0.13633467 -0.24162242 -0.8987458 -0.23411386 -0.10435262 -0.14392507 0.36006486 -0.19097717 -0.21296906 0.3986591 0.013095724 1.2541841 -0.3616126 0.047448076 -0.7588591 -0.3913133 -1.2898923 0.08331207 -1.2721529 0.036035817 -0.2118597 0.27805972 -0.35238433 -0.20539366 -0.13693953 0.38062617 -0.13216653 -0.12746978 0.17642674 -0.13262542 0.31261307 -0.005348308 0.15228593 0.18955863 0.120107286 0.4554655 0.25013965 0.024377521 0.16442762 0.14763647 -0.04280626 0.014988562 0.5049094 -0.31192803 -0.9051099 0.09297495 0.13406788 -0.032130472 -0.14891566 -0.13832137 -0.748654 -0.5926767 0.17134012 0.45984823 -0.22183491 -0.06574063 -0.013720397 0.08245151 0.12731147 -1.2945352 0.08454153 -0.6671247 -0.31047916 0.13820422 0.051834777 0.02548046 0.056939382 -0.3722998 -0.071125574 -0.08262333 -0.3303519 0.13227034 0.11672333 0.013037582 -0.1994153 0.049341574 0.30406106 -0.22946878 -0.14712657 0.14946346 -0.4168899 0.4118311 -0.04099845 -0.06415133 1.2388798 0.078618124 -0.14775959 0.18533099 0.2560659 -0.23402649 -0.092070475 0.21471198 -0.020056041 -0.66773564 0.12636201 0.010691633 0.16736844 -0.26566604 0.6363263 0.13625342 0.432033 -0.50700605 0.06550019 0.057945 -0.22807848 -0.115618676 0.38805914 0.39279953 0.04810312 -0.07940538 -1.2023661 -0.14771649 -0.07002563 0.22406822 -0.2622054 -1.1889005 0.26810974 0.08204325 0.39485645 -0.3257864 -0.36441994 -0.10204644 0.23103505 -0.15541801 -0.13084508 -0.11996868 -0.17375404 0.086578615 0.11918022 0.09243854
0.45900643 -0.032974076 -0.011986247 0.011336905 0.061414473 -0.04190682 -0.43240938 0.19281188 0.07497937 0.13643752 0.10704464 0.05296672 0.030781206 -0.00723233 -0.05984103 0.040722772 -0.14286236 -0.4167081 0.13916467 0.12858476 -0.016925799 0.31414995 0.10163036 -0.017424066 0.23976621 0.12165722 0.03750837 -0.017406022 0.0747022 -0.06653264 -0.18515906 0.40889543 0.07639915 0.037780434 0.21794868 0.039022386 0.21007319 -0.13777895 -0.060323387 -0.04316799 0.48963094 0.14137118 0.17606083 -0.005650686 0.13295238 0.17518081 0.18008114 0.014359896 0.015674092 -0.12833665 0.028068056 0.081101134 0.1665167 -0.042495802 -0.028648475 -0.06391232 -0.34354925 -0.554553 0.26801047 0.4130873 0.07744257 -0.042879794 0.048480723 -0.26228783 0.07948473 0.21144207 -0.08107644 -0.10656647 0.1689196 0.092460595 0.1621353 0.10500069 0.06437852 0.25348532 -0.029052991 0.05007446 -0.027320774 -0.007231896 -0.082301274 0.0255654 -0.059521187 -0.021558817 0.0839395 0.48436314 -0.014715936 0.08221862 0.1866586 -0.25620303 0.2405167 0.04224363 0.29966047 0.0335493 0.11019784 -0.19145744 0.10455839 -0.1439868 -0.024709193 -0.020060014 0.14490192 0.16651854 0.15693296 -0.22838819 0.025516184 0.0063815014 0.2176006 0.019380743 0.015059207 0.04286256 0.199055 -0.042948995 -0.008445011 -0.06669558 -0.006723895 0.1273739 0.25116593 0.097875066 -0.9229891 0.048244055 0.05931203 -0.34095308 0.027875852 -0.01641874 0.49836063 0.018939476 0.20080116 0.1965116 0.1596144 -0.09819123 0.015715092 -0.031722706 0.10291576 -0.05328858 0.12971899 0.19080435 -0.09954723 0.19794112 -0.26648155 0.4780798 -0.08005129 -0.012399632 0.6060602 0.11073334 0.04447652 0.009413347 0.018042637 0.21015528 -0.07997725 0.07209255 0.27147266 0.19705889 -0.070546016 0.28410217 0.2900012 0.051214237 -0.047227263 0.00097141485 0.34191063 -0.07847395 0.35705975 -0.24201049 -0.0028608819 -0.023086758 0.03674469 0.086816356 0.11333139 0.021427037 0.00586383 -0.018458843 0.14064112 0.2633529 0.09726204 0.062716134 -0.012064394 0.055306043 -0.096636206 0.4458796 0.06803494 0.14709917 -0.059243906 0.5280713 0.032458015 0.020568686 -0.030184025 0.025330763 0.07727048 0.1562983 -0.046084616 0.07859095 0.06285129 -0.020252334 0.050694916 0.08497571 -0.06923004 -0.008243605 0.19348925 -0.027419759 0.031501103 0.033261273 -0.08361769 0.004535559 0.035595898 0.10589338 -0.06025578 0.13177209 0.046628974 0.07712546 -0.36519727 0.104872234 -0.051519804 -0.10185691 -0.6171634 0.10007074 0.016664462 0.06817208 0.06784741 0.09987826 0.10171857 0.044745557 0.03351239 0.09128209 -0.31333303 0.019641155 0.02820555 -0.015742818 -0.0072817705 -0.21384335 0.10966851 0.30065003 0.019364147 0.15211168 -0.20501854 -0.3570505 0.017802497 0.13900873 0.19090305 -0.61262894 0.2027252 0.048104767 -0.049925257 0.04079317 0.009594974 0.07148772 -0.1980788 -0.21110176 -0.013345823 -0.1624911 0.0032503991 -0.2994196 0.24338236 -0.07610678 -0.0055897785 -0.073132835 0.05177276 -0.01817877 -0.033252504 -0.09982621
0.46961316 0.018423539 0.058355246 -0.010470913 -0.021416489 -0.039832264 -0.30951974 0.15650502 0.010985914 0.093324706 0.19352421 0.013721716 -0.02287116 0.008113448 0.024228942 0.049326494 -0.11945258 -0.3724002 0.078336 0.007678549 -0.07107183 0.16594584 0.10623948 0.09809111 0.34393463 0.0839157 0.018062178 0.005226883 0.07423715 -0.051603183 -0.07158714 0.45419842 0.058532212 0.061811376 0.13245496 0.10607957 0.17937812 -0.024945095 -0.03979956 -0.01590279 0.45681256 0.1430164 0.14811158 0.0040199957 0.08890755 0.21777919 -0.008429967 0.022338754 -0.1136353 -0.103899956 0.08986028 0.14959167 0.14626403 -0.06322147 -0.02701313 -0.11250162 -0.36892864 -0.6793063 0.2293031 0.39586866 -0.1454426 -0.11228481 0.2749893 -0.29068154 -0.055144873 0.047020026 -0.032852516 -0.013541436 0.1123621 0.18098362 0.20590015 0.13141122 0.13787852 0.19468987 0.005633664 0.11800178 -0.06032407 0.02700337 0.009978204 -0.0937044 0.023297582 0.013971489 0.17789064 0.45654353 -0.013303489 0.17544952 0.27505273 -0.3254892 0.16746497 0.06941917 0.34615386 0.036431063 0.1187802 -0.05210116 0.028759908 -0.0011011403 -0.06195074 -0.06762228 0.12076764 0.016729701 0.10958776 -0.20574348 -0.02095105 0.077652656 0.34431544 -0.008106885 -0.0052326694 0.1629193 0.029498268 0.014156274 -0.0073608877 -0.084885344 0.088486776 0.06649199 0.28071898 0.114911936 -0.86490905 0.06935973 -0.094481036 -0.12156014 0.21842702 -0.025713012 0.44921586 0.03799164 0.20365202 0.2196685 0.34868968 -0.13033907 0.06976082 -0.078776605 0.0806978 0.09699977 -0.014934115 0.1869465 -0.15256718 0.26780802 -0.3246847 0.3610263 -0.16156489 -0.034487218 0.61943406 0.0873932 0.060254265 0.045845103 -0.02767878 0.013254954 0.023835056 0.16957626 0.34340838 0.10547277 -0.034786254 0.30107418 0.21116613 -0.012319704 -0.039596446 -0.01621511 0.21880874 -0.14383635 0.33589372 -0.25928983 -0.093945265 0.11304098 0.031085862 0.02080682 0.022335684 0.124149896 0.12440201 -0.029689392 0.033443224 0.37626684 0.05461692 -0.009486634 0.14691105 -0.026658261 -0.07522329 0.5309552 0.040575903 0.11266203 -0.06544634 0.52951455 0.06601614 0.08378139 0.029544722 0.20029463 0.025432717 0.15199111 -0.031064218 0.108521424 0.03178093 0.009520495 -0.1002313 0.11346421 0.001933051 0.07191356 0.06857876 -0.007461743 0.10681421 0.109361485 0.12596044 0.041361816 -0.020978019 0.14465718 0.034147695 0.11842924 -0.0016094827 0.18392935 -0.48082528 -0.10224059 -0.033263877 -0.09184934 -0.7054433 0.031176282 -0.011273324 0.10557875 0.014310623 0.018629108 0.13621123 0.03584465 0.096105896 0.50678915 -0.22128166 0.034013826 0.012711266 0.022152215 -0.051314946 -0.11208879 0.09178914 0.058178924 0.0072987275 0.12834053 -0.15456225 -0.24537425 -0.08798043 0.1743011 0.30853346 -0.29806933 0.18384732 0.050767995 -0.03565928 0.24881272 0.07005073 -0.021294773 -0.015825612 -0.27348253 0.12748544 -0.19925131 0.017185869 -0.30304942 0.15040113 -0.007397338 -0.013664332 -0.01412866 -0.019909961 0.05813218 0.036706023 -0.058335025
0.3557952 0.07225947 0.08599572 -0.7163234 0.15823984 -0.07995282 -1.4110576 0.21534543 0.19215944 0.16069014 0.09068562 0.15442312 0.3000495 0.09503648 0.027010093 -0.121130064 -0.42093593 -1.8224982 -0.04836491 0.155001 -0.5192204 0.21200134 -0.060207494 0.3347865 0.54455537 0.23675385 -0.020140372 -0.32176745 0.37133166 -0.36645705 -1.1468282 -0.24218881 -0.07886601 -0.1912279 -0.09236111 0.07004032 -0.06887273 0.040093936 0.17084235 1.4902699 0.6814864 0.4100287 0.40226632 0.004231308 0.10950802 0.2927099 0.14099443 0.011753794 0.091888346 -0.08852508 -0.013130352 0.07668173 0.08345087 0.009740615 -0.16929664 0.09617964 1.6462692 -2.1161997 0.31404734 0.97694534 -0.16922486 -0.18572254 0.23690288 -1.5642838 0.24149154 0.26485336 -0.09962778 0.14761917 0.005810926 0.16408552 0.2589704 -0.07789353 -0.07793134 -0.003208451 -0.10368856 -0.008357814 -0.75420374 0.005493792 0.0075281523 0.16920646 -0.09074808 -0.024327721 0.064917244 0.281476 -0.25599673 0.1735724 0.31497103 -1.236285 0.40523243 0.014749341 0.36986 -0.15095983 0.23440492 -0.21693844 0.062740356 -0.38586202 -0.019321078 -0.3266285 -0.015826663 -0.18208362 0.328456 -1.3159224 0.030430717 -0.0066640964 0.12419865 0.07131812 0.026355285 0.14888513 -0.5336402 -0.03224942 0.2981702 0.759815 -0.039421387 -0.015324101 0.27128753 0.07726818 -0.9314762 -0.048554312 -0.1580834 -0.38838437 0.13250415 0.018262248 0.3243817 -0.16706005 0.029506776 0.2645463 0.79137987 -0.53619176 -0.114746906 -0.45574555 0.06936818 0.15057461 0.07375403 0.07217403 -0.406347 -0.4774971 -0.22183205 -0.032793764 -1.4276612 0.08348353 0.7773126 0.26209256 -0.075889684 0.06522467 -0.096112125 0.35274994 -0.071915194 0.080500275 0.28165674 0.41392305 0.03512439 0.43936446 0.15490764 0.031290684 -0.13264747 -0.47384718 0.29443815 0.31470433 0.433435 0.5348909 -0.024563255 -0.07155666 0.16006838 0.021207385 -0.13881196 0.14694096 0.16503277 0.0421768 0.043026395 0.66842335 0.1768856 -0.03512798 0.14238642 0.0029984945 0.092110015 0.9972143 0.08681026 0.26930153 0.052295674 -0.12294764 0.0493408 -0.02199912 0.137421 0.21038845 0.23256922 0.20446222 -0.17579116 0.10553473 0.019378684 0.07445353 0.4305943 0.091404736 0.1454305 0.23010689 0.15993679 -0.0071064755 -0.08478102 0.016846176 0.14353298 0.042703506 0.27948728 0.23020996 0.19039579 -0.005094468 0.07124547 0.015478407 -1.753039 0.59863675 0.01677688 0.39684117 0.036140703 -0.0674636 -0.050401706 -0.12656033 -0.12832692 -0.03174266 -0.02448855 0.13339923 -0.058342822 0.87223816 -0.6291407 -0.4124141 0.08866133 -6.44768e-05 0.020439196 -0.3868389 0.36150742 0.206049 -0.06832568 0.1363224 -0.12743509 -0.17569742 0.27465987 0.24856949 0.37806755 0.7158323 0.047476143 -0.08341419 -0.21534616 0.095945895 0.17035988 0.027130766 -0.039994266 -3.805628 0.4724265 2.465772 0.06666985 2.5042224 0.31732282 0.028249307 0.038100176 -0.07090044 -0.040897213 0.043079495 0.012288736 -0.6700926
0.51938444 0.07122238 0.043975342 0.12699199 0.19776303 -0.6549076 -0.8842107 0.052934624 0.19212012 0.2986036 0.11879907 -0.036983974 -0.0695432 -0.0032459062 -0.11820185 0.04335974 -0.13986073 -0.34681767 0.13815212 -0.08016883 -0.021931421 0.2068342 -0.048690535 0.08986271 0.12468465 0.12440042 0.054733757 -0.087586686 0.10925304 -0.09216991 -0.85250914 0.39725703 -0.029221235 0.059939593 0.11375326 0.011184635 0.17262377 0.17606682 -0.0746102 -0.28641042 0.36585185 0.23379214 0.30440208 -0.017055053 -0.033269513 0.09160944 -0.008835644 0.0040703425 0.07170461 -0.009577464 -0.04578485 -0.48803437 0.11628599 -0.005077194 0.046955984 -0.38070047 -0.18899967 -1.5663302 0.15783975 0.79618007 0.033569004 -0.6929459 -0.07968784 -0.68716884 -0.5890728 0.3503964 -0.29498607 -0.4922232 0.0011097942 -0.118889764 0.3297626 -0.08881777 0.17652269 0.10671917 -0.21437418 -0.22267193 -0.79760426 -0.18456914 0.2663607 0.07362178 0.21950154 0.12549105 0.106013075 0.39421976 0.10552551 -0.00466637 0.008187433 0.23977491 0.34420264 0.118668 0.5152367 -0.019504491 0.11602738 -0.5756869 0.004888069 -0.15870927 -0.04252492 0.08487247 0.033631988 0.1839466 0.18462837 -0.041278243 0.11091767 -0.052138284 0.12902282 0.03269883 -0.13777193 0.11852366 -0.24323316 0.0960361 0.04773908 -0.09924037 -0.034409054 0.3136302 -0.6653135 0.06919082 -1.2744942 0.052675497 0.053683914 -1.2144645 -0.11763402 -0.13448443 0.13265964 0.07690009 0.079705484 0.0972987 0.41067746 -0.09046592 -0.10440823 -0.0846498 0.32630414 -0.29105154 0.27165654 0.12949032 -0.0008288335 0.0030558978 -1.6698226 0.6198205 0.05673205 0.18764672 0.50684637 -0.12929296 0.081007145 0.071398035 -0.01875504 0.19462241 -0.12675397 0.027791796 0.4236155 0.3494381 0.0056631705 0.019002777 0.18301255 0.076696225 -0.2578483 0.014421916 0.54823554 -0.513115 0.21276104 -0.23896888 0.046463408 -0.030226383 0.14364481 0.08720914 -0.0010359103 0.00059311173 0.11217308 -0.09789477 0.28150916 0.23901935 0.08921451 -0.006028654 -0.23765382 -0.008135819 -0.12878944 0.54311174 -0.173825 -0.14804615 -0.15344171 -0.07670827 -0.2627568 -0.33172098 0.2431068 0.083828 0.093118034 0.07952535 -0.1404872 0.03470132 0.014447587 -0.018099267 0.06525742 0.21691759 -0.17693238 -0.10885181 0.20035683 -0.054852936 0.010133792 0.079457045 -0.19040392 -0.05419524 0.42962086 0.16503902 -0.21530369 -0.53657806 -0.104225196 0.065366305 -0.26014346 0.0468325 0.0051283166 -0.101257175 -0.18208642 -0.046862356 -0.1034338 0.07220571 0.12179545 -0.40629098 0.114728816 -0.06825728 0.10610487 -0.07541893 -0.31677315 0.028298562 0.08158675 -0.06332457 -0.018996246 -0.8266333 0.2851359 0.13803263 0.01217355 -0.08948891 -0.44761086 -0.5012949 -0.29658237 0.2878215 0.086166665 -1.1021891 -0.10963605 -0.20486285 0.031148598 0.038648624 0.013082783 0.036836557 -0.11185827 -0.12433177 -0.28868017 0.09488612 -0.011641561 -0.36833408 0.05899568 -0.34496894 0.0010385951 -0.16857271 0.23184903 -0.11181329 -0.09621479 -0.069722876
0.093032315 -0.9494468 -1.1183296 -0.6118168 -0.47115558 -0.05677149 0.010241738 -0.755889 0.112196706 -0.111401804 -0.16022494 -1.0206838 -1.0738087 -1.3362968 0.17175996 0.017687889 -0.20836419 0.051700365 -0.33279556 -0.56234735 -0.22451924 0.51517385 0.12104037 0.117446385 0.40949163 -0.4348716 0.050660618 -0.14500578 -1.034738 -0.11028941 -0.18022132 1.3496052 -0.64598423 0.10636977 0.6202891 -1.0248078 -0.49349898 -1.8884901 0.31257662 -0.34001067 0.8361025 -0.6799542 0.1892521 0.011603453 0.004203073 -0.95917964 -0.79009515 -0.39682186 -0.048331924 -0.02254306 0.03665664 -0.5372842 -0.69462514 -0.48556995 -0.2974587 -0.1548327 0.16566177 -0.17102772 -0.19679546 0.798473 0.4061424 0.01355911 0.05333595 -0.8674934 -0.47779855 0.0429329 -0.12459081 -0.32532823 -0.116404794 -0.4894544 -0.7966359 -0.7161898 -0.016591914 -1.7493235 -0.55132294 0.19231276 0.12887116 -1.094299 -1.2239046 -0.71898353 -0.8726628 0.055377956 -1.1025097 -0.5489155 -0.110878974 0.111191206 -0.17195575 -0.4693028 -1.5083499 -1.1822448 -0.31476253 0.3374992 -0.87311316 -0.06222855 -0.14174145 -0.60319763 -0.06623953 -0.20213988 -0.08520956 -1.8145336 -0.87457824 0.19367313 -0.2111318 0.0663828 -0.81406134 -0.022736311 0.31739584 -0.3854758 -0.41792914 -0.045313764 0.027158916 -0.07281244 0.024194371 0.12625712 -2.5136623 -1.3167231 -0.49487844 0.12898208 -0.08402852 -0.44998184 -0.52261585 0.046876557 -0.504389 0.06926495 -1.1724305 -1.1660709 -0.66712564 -0.20958078 0.06593055 0.23126781 0.19325277 0.26870492 -0.8302321 0.15870005 -1.152292 -0.08799115 -0.13301393 0.03577866 -0.5662487 -0.87805974 -0.057675973 -0.8977418 0.018219158 0.61601573 0.05038212 -0.8768352 -0.3911351 -0.3560994 -1.13717 0.03911752 -0.94450164 -1.6077678 0.12325006 -0.03833793 -0.040836994 -0.430557 0.63516176 0.5714486 0.7263306 -0.71741194 -0.19394025 -1.2576509 -0.21438257 -1.2402728 0.07838485 0.07584896 -0.033192135 -1.2604527 -1.4308959 0.7505631 -0.6429637 -0.049318444 -1.2212358 -1.4513916 -0.8775097 0.22759527 -0.5412082 -1.0811851 -0.09149468 0.05288484 -1.3847709 -0.41834912 -0.4223372 -0.24139942 0.17826568 0.061420456 0.033129327 -0.44277734 0.19722179 -1.8399576 0.07547246 -1.4630718 0.91410595 -0.16511247 -1.0291129 -0.5593975 -1.0924731 -0.18229885 -0.86821467 0.13540043 0.40472022 -1.1175191 -0.9816462 -1.2327952 -1.5963609 -0.06849821 -0.12079991 -1.4853785 -1.2242373 -0.084774494 -0.16860569 -1.510373 -1.1075134 0.07510979 -0.12306983 -1.2384858 0.39868897 -1.5312732 -0.04017325 -0.117358685 -0.4779453 0.12821308 0.07992756 -0.15144248 0.36612222 0.44009775 0.3526971 -0.59738666 0.127964 -1.7176061 0.037154086 -0.10138863 -0.5499026 -0.08700679 -1.5717379 -0.3054487 -0.08741796 -1.390349 -0.036176328 0.028384004 0.2302114 -0.16385008 -0.042752236 -0.12910141 -1.4345062 -0.21335828 -1.5080026 0.3608551 -0.4396443 -0.5252653 -0.035560694 -0.29764315 -0.13227625 -1.4250968 -1.5886136 -0.41354537
0.46932578 0.016846335 0.05047298 0.017931214 0.16147628 -0.42732194 -0.42087898 0.18109383 0.1790797 0.1950021 0.16209725 -0.010298822 0.10714153 -0.15331905 0.030803869 0.088914104 -0.17944743 -0.25317997 0.20386383 -0.014360586 0.021827959 0.21638682 0.07181357 0.14430681 0.3127642 -0.0016329474 0.022170303 -0.002939672 0.23722477 -0.024233302 -0.31157598 0.23271042 0.10402862 0.1269127 0.18196727 0.059424035 0.3183958 0.049460374 -0.019894384 -0.008991765 0.33852518 0.30147833 0.35593212 -0.008379004 0.12828645 0.27097562 0.10837057 -0.029712092 0.010941772 -0.043230716 0.059207324 -0.09150798 0.10196719 -0.13716464 0.043662883 -0.083793424 -0.2661068 -0.92510897 0.27502277 0.44129616 -0.09713732 -0.1779607 0.17479998 -0.21290857 -0.022155512 0.1579573 -0.019976111 -0.070430435 0.10388559 -0.040396195 0.07782286 0.087064445 0.17315128 0.27978724 -0.053166747 -0.009947207 -0.0862871 0.014465802 0.029686691 0.090680994 0.03103786 -0.0049091885 0.0058191866 0.4042036 -0.050477948 0.16180383 0.14697884 -0.10965211 0.5829589 0.010979826 0.38547537 0.064453825 0.09646711 -0.091370486 0.064529784 -0.09270035 -0.016212983 -0.1341632 0.047252968 0.17735204 0.141711 -0.09790336 0.03305792 0.06435397 0.3245715 0.023281356 -0.06934232 0.07014027 0.053587615 0.041802425 -0.0772237 -0.015982958 0.025173604 0.14724796 0.42514053 0.12769221 -1.3267661 0.0048080534 0.008049961 -0.28096977 0.12712213 -0.07511669 0.4259315 0.062668 0.14640175 0.17384157 -0.014183001 -0.11812901 0.056929227 -0.13905233 0.08323277 -0.06942672 0.064575635 0.055368263 -0.20471492 0.20412947 -0.38158524 0.34857324 -0.10417987 0.007794631 0.5441847 0.038250268 0.027864693 0.17152137 -0.062207166 0.054234896 0.014594031 0.14468391 0.27380994 0.23101282 -0.03671077 0.08661209 -0.09805548 0.0940269 -0.063841075 -0.04745484 0.31816733 -0.3729801 0.29804206 -0.304773 0.024998428 0.12750235 0.08195298 0.08104406 0.034152195 0.1182272 -0.048963543 0.11520667 0.14741246 0.37774134 0.056235667 0.06781736 0.08915956 -0.0011704306 -0.18325612 0.5634443 0.077215716 0.12845019 -0.109425664 0.65742207 0.020331651 -0.04197165 0.072084166 -0.014520676 0.12394109 0.09626317 -0.06379001 0.19802922 0.05068825 0.10617994 -0.09367677 0.16062067 0.038380526 0.03606576 0.09492562 -0.035088688 0.025981452 0.17566651 0.16700228 0.07855971 -0.18965381 0.15789185 -0.013498059 0.22407643 -0.06585197 0.100373305 -0.22880906 0.19733177 0.07203015 -0.009157322 -0.6420096 0.08505629 -0.02488004 0.07289159 -0.019771453 0.11292854 0.06136039 0.046094403 0.03188152 0.026161553 -0.1911909 0.09290169 0.074281394 0.029581616 -0.0520443 -0.19730149 0.08623888 0.090746254 0.04281645 0.09379037 -0.13068283 -0.35256916 -0.109798424 0.24108535 0.116999075 -0.39847943 0.19350684 0.008729891 0.005003024 0.17370111 0.049156092 0.0077658114 -0.017952194 -0.06649203 0.06101061 -0.27553007 -0.02976784 -0.4808392 0.20478873 -0.05310719 -0.059901103 0.0037429035 -0.01604228 -0.020086162 -0.041704044 -0.17023271
0.282569 0.029539788 0.060285944 -0.46771237 0.08026516 -0.53564686 -0.5538327 0.12903053 0.1532861 0.15662128 0.20770563 0.107052766 0.20830625 0.123079665 0.053374786 0.02662308 -0.62959427 -0.5206024 0.11834078 0.10216905 -0.8768087 0.21675028 0.03651307 0.25499126 0.2919853 0.24334086 0.07182502 0.18559758 0.54430294 -0.36958322 -0.44828764 0.19824205 0.027352076 0.0035343815 0.3239662 0.074752815 0.099785514 0.08296023 0.2557717 0.86549044 0.29219547 0.49975798 0.34190258 -0.05798236 0.08752999 0.2670478 0.23554303 0.040190972 0.056979917 -0.9902667 0.015036742 0.043672647 0.07619549 0.049367286 -0.25126553 -0.39121154 0.004963183 -1.9472368 0.30967158 1.2889141 -0.26733816 -0.5658741 0.31407246 0.20788224 0.48423296 0.23663434 0.037668344 0.00067301304 0.22965759 0.108072594 0.33002853 0.12584816 -0.021900179 0.90689105 -0.11387197 0.08285072 -0.27065206 0.14636858 0.08487808 0.09571748 -0.48644298 0.009271192 0.046195585 0.5385854 -0.2946915 0.1991493 0.11609884 -0.8933298 0.9066621 0.2052732 0.089752875 0.067355104 0.26448488 -0.54811645 0.036743104 -0.28909233 -0.0028585466 -0.44073525 0.08214556 -0.19680445 -0.70962983 -0.017652482 0.112918116 0.07950731 0.27865496 0.10217385 0.26711988 0.14934187 -0.37336555 0.01827754 0.17465827 -0.48181546 0.064245954 0.07527958 0.13714007 0.102882996 -2.9247055 0.027810093 0.07243839 -0.45305657 0.09096486 0.5975753 0.30901092 -0.09918303 0.15789461 0.3561519 0.58467716 -0.5773651 0.034893367 -0.069871925 0.25387618 0.29994413 0.008002506 0.23401304 -0.7260328 0.16319032 -0.5346042 0.9917313 2.0839107 0.07582305 0.4139706 0.3027682 0.029308405 0.12105084 -0.011360199 0.18606475 0.044008754 0.2611818 0.5245097 0.9255583 0.040925555 0.32849592 0.16150622 0.07713906 0.053306527 -0.53038865 0.33266684 -0.3837232 0.42228395 -0.065196835 0.034047246 1.091394 0.23267843 0.06819828 0.10061769 0.15299346 0.11924821 -0.006636315 -0.100769676 0.30777988 0.16328911 0.0012017048 0.17293642 0.005293537 -0.68907577 1.1111068 0.18317652 0.27200508 -0.08245888 0.26828772 0.051269714 -0.02831379 0.11791196 0.26121163 0.1688268 0.21572018 0.4886534 0.18962538 0.039643362 0.07789552 0.41908714 0.21162228 -0.23040618 0.296213 0.19381717 -0.002466915 -0.030803937 0.032028843 0.1759342 0.07668695 0.38877285 0.031160694 -0.026378334 0.5255319 0.04407678 0.08090946 -0.23287863 0.030781439 0.045019176 -0.6018321 0.40599597 0.14740026 -0.5752014 0.0051180855 -0.5821743 0.16371661 0.11817563 0.24585122 -0.03949121 0.7664842 -0.40260348 0.033232436 0.06737529 0.038457036 0.033304438 -0.33721274 0.34277895 0.309773 0.026140532 0.20774148 -0.59449977 -0.17947596 -0.18633568 0.2854016 0.7756522 -1.8931292 0.11690894 0.0262148 -0.35150653 0.13043618 0.17769869 0.10005171 -0.50484324 -0.25385633 0.21770783 -0.70988464 0.17786346 -1.1151174 0.24683914 0.24235377 0.03197455 -0.049984463 -0.060789388 0.041263547 0.050255284 -0.47411668
-0.15916435 -0.81333023 -0.37369862 0.03705022 0.003117994 0.041687917 -1.0791289 0.13308528 -0.1729857 0.1293312 0.14421204 -0.5129039 0.034789454 -0.117722735 -0.056277674 0.0329083 -0.34220845 -0.2484278 0.08564037 -0.27025133 -0.0013564838 -0.31727415 -0.4970829 0.1991075 0.30941218 -0.3558273 0.16598259 0.23646232 -0.57543796 -0.079327084 -0.026136477 0.353453 -0.5364479 0.101172 0.19501245 -0.07231253 -1.7898123 -0.2949565 0.07703909 0.011067496 -0.4873627 -0.5665379 0.12533392 -0.058313485 0.08062117 -0.3949878 -0.7629413 0.004823919 0.094575934 0.06434726 -0.04115475 0.101901814 -0.1234333 -0.32279265 0.02927266 -0.13407919 0.21795677 -0.63223034 -0.5087737 0.10628578 -0.050910812 -0.15530004 -0.061052103 -0.11734706 -0.20303978 -0.09916889 -0.024672162 -0.08780977 0.058312997 -0.078305535 -0.46238056 0.041666128 0.0049442756 -0.3373802 -0.027539609 0.013051715 -0.09926723 -0.28055286 -0.32850853 -0.33457533 -0.23474658 -0.009528006 -0.70039904 -2.0176418 -0.030752428 0.1502448 -0.15146054 0.16346705 -1.0130146 -0.055618007 -0.30737403 0.092100136 -0.46320945 -0.14603414 -0.20996772 0.031515967 0.018612178 -0.097948164 0.10699716 -0.28222662 -0.096235216 -0.25420552 -0.37207368 0.034935493 -0.1714254 -0.0035919482 0.1525064 -0.7160174 -0.30498782 -0.044398077 0.002974349 -0.029516347 0.008973397 0.16925016 -0.29094362 -0.25723928 0.9032263 0.0015198801 0.1286792 -0.09780109 -0.31001198 0.0072681718 -0.4403591 0.1825416 0.019262416 0.1499702 -1.2474407 0.2821999 0.1411147 -0.19637538 -0.06386089 -0.2187502 -0.93904763 -0.34145617 -0.29655084 0.31395975 -0.20225424 -0.40476853 -0.11813574 -0.077112354 -0.7482129 -0.37371808 -0.0074152164 -0.33909303 0.015490042 -0.62863415 0.08604797 -0.068251945 -0.89192975 0.38489404 -0.77123773 -0.24924538 -0.10384485 -0.046343356 0.28286257 0.19282983 -0.72432333 0.20235966 -0.4667692 -0.28839433 -0.24448523 0.15184478 -0.1463834 -0.056351136 0.10918316 -0.09800839 -0.06811786 -0.19257307 -0.06535614 -0.7844345 0.06696714 0.019439247 -0.6656641 -0.2588476 -0.23843668 0.42807287 0.0005173855 -0.23602921 0.16057563 -0.20221981 0.0419856 0.025698528 -0.07628903 -0.13601255 0.117591165 0.20393245 -0.055021286 -0.037624475 0.046958383 -0.30146715 -0.01830911 -0.08426542 0.15458316 -0.17690523 -0.2934092 -0.24360669 -0.43363774 -0.025882194 -0.19386494 -0.1483391 -0.072254576 -1.0347506 -0.22563702 0.13243894 -0.31774762 -0.8404053 -0.49158353 -0.044839565 -0.30657133 -0.06467324 0.87292004 -0.30439034 -0.16443606 0.09780756 0.010128328 0.2422953 0.09527606 -0.16032751 0.10407534 -0.30709827 0.23264933 0.12159246 0.104479596 0.0027982052 0.17888635 -0.09796078 0.05141587 -0.22666098 0.009383347 0.016951203 -0.4216892 0.05633542 0.53666914 -0.31158054 -0.28418943 -0.21292421 0.14550477 -0.13964416 -0.049293697 -0.22408295 -0.19008024 0.08111894 0.30468804 -0.47665393 -0.2833465 -0.10047852 -0.2524591 0.23691256 -0.5162775 -0.65551996 0.022053787 0.0038710453 0.10765433 -0.08562864 -0.25321048 -0.6037027
0.36837444 -1.5079743 -1.5104353 0.15815449 -0.29291812 0.7415052 -0.54197013 0.17451335 0.27754605 -0.0032511605 0.1435772 -0.90374285 -0.20566952 0.98257935 -0.031937554 -0.0018914354 -0.3953865 -0.93400455 0.14802103 0.0805082 -0.21236007 0.028317388 -0.04600347 0.117963836 0.42429355 -0.31939638 -0.0063700513 -0.11922053 -1.0420378 -0.24621095 0.05198314 -0.23276092 -0.60644454 -0.03961499 0.30490056 0.020955933 -1.2905328 0.05271798 0.095600285 -1.3669703 0.25526989 -0.02343821 -0.15863214 -0.060014717 0.07042935 -0.6560618 -1.1658962 -0.103561535 0.398938 1.3431973 -0.26040956 -0.3700006 -0.71009654 -0.06949351 0.1404748 -0.14882685 -0.4978218 -0.33622536 0.76043737 0.8500673 -0.010288076 0.01903037 0.11910022 -2.0042465 -0.72993857 -0.6585494 -0.036247097 0.026313413 0.26311055 -0.20310645 -0.992983 -0.6844954 0.4761075 -1.0097289 -0.12918629 -3.0936368 0.21356411 -0.35068485 -0.37616187 -0.6547897 -0.5713666 -0.076865 -0.9501951 -1.2063818 0.40114528 0.1322031 -0.8464138 -0.5872171 -1.1416014 -1.8953036 -1.2948445 0.048120137 -0.68277806 0.02511447 0.12374485 -0.16739695 -0.08795034 -0.04814435 -0.04638637 -0.5228117 -0.77750653 -0.06866248 -0.2724624 0.031980738 -0.07122763 0.0855024 -0.112046145 -0.7750997 -0.24084243 0.052431054 0.17298257 -0.10307216 0.06305016 0.1498224 -0.988679 -0.0025146534 -0.6723418 -0.0018990014 -0.739731 -0.3460282 -0.06941453 0.0032466329 0.1190662 -0.12737568 -0.42545432 -0.9567756 -0.6413043 -0.70945543 0.055131424 -0.34722757 -0.26072457 -0.6825754 -1.4126359 -0.025776343 -0.62616545 0.20009507 -0.28853163 1.0541703 -0.26107353 -0.12733944 -0.5934715 -0.99191624 0.031174686 -1.3112471 -0.029132973 -1.211596 0.3084137 -2.021117 -0.9407987 0.012418058 -0.9370377 -2.095553 0.16870825 -1.6173646 -0.44480368 -0.16139904 0.14970316 -0.36279553 0.5143602 -0.51143974 -1.1731838 -0.623913 -0.30007076 -0.07972459 -0.13147016 0.1541289 -0.62682325 -0.6476614 -0.43265796 0.32422283 -0.1490197 -0.017194984 -0.39375365 -0.0562579 -0.38811508 0.021278005 -1.4992039 0.047685903 -0.35685688 -0.7167744 -0.19518423 -0.12553096 -0.6070463 -0.6771069 0.09311269 0.0024431655 -0.022217454 0.27881894 0.011301209 -0.06868487 -0.27448022 -1.1538686 0.07621422 -0.359244 -0.73847073 -0.01746882 0.0426267 -0.06496539 -0.2874202 -0.07419872 0.34725544 -1.4903656 -1.2392457 -1.8584317 -0.13195975 -0.59809864 -0.7665713 -1.2054168 0.07922339 -0.018324161 0.8674153 -0.097359344 -0.676389 -0.13382822 -0.13377412 -1.2619537 0.06985972 -0.42808768 0.39800894 -0.12404226 -0.021601044 0.034081172 0.06528599 0.03119091 -0.08012059 -0.19317113 -0.77021486 -0.9113041 0.012825203 -1.2390685 0.43558955 -0.21816438 -0.17854364 -0.2012633 -0.20565324 -0.2918889 -0.00015269208 -0.037084147 -0.037968673 -0.12334513 -0.92341125 0.23136123 -0.22483608 0.1497245 -0.007501829 -0.52574414 -0.2523861 -0.8169689 -0.59287655 -0.92759204 -0.2172393 0.25318018 0.5798089 -0.27405056 0.13258974 -0.27683413
-0.020997038 0.09843771 0.20743825 -0.08756897 -0.023426544 -0.57055783 -1.1443075 0.06790195 0.06652113 0.013237885 -0.05850028 0.5861447 -0.0752804 0.109829985 0.054663494 0.035967465 -0.33510017 -0.8976429 0.104518645 0.024647037 -0.35711512 0.15761603 0.04165082 0.057514068 0.16075575 0.11815895 -0.063186705 -0.15115516 0.21351713 -0.1297517 -0.242132 0.93855935 -0.08569021 -0.023506436 0.012362446 0.027256759 0.11071081 -0.099489 0.077429034 -1.4643979 0.19973405 0.32812554 0.21862327 -0.029833976 0.008501576 0.09725294 0.05771588 -0.045489956 0.027558045 -0.12413745 0.06910221 0.33836883 0.17569916 0.056975365 -0.18147397 -0.592225 -1.3148855 -1.2996187 0.025976349 0.98963225 -0.19315559 -0.20630167 0.20041004 -1.2307984 0.24858348 0.21896109 -0.3095459 -0.42528224 -0.0739063 0.26378557 0.15656152 -0.09907503 0.1561867 0.4487594 -0.57761186 0.05890119 -0.09095198 0.15396728 0.09457311 -0.12962188 -0.5670085 -0.061031852 0.033871733 0.017086037 -0.31893387 -0.02610227 0.09042054 -0.3867451 0.3547443 0.23168367 -0.20837983 -0.008705402 0.11641214 -0.12224654 -0.07532505 -0.33137274 -0.08744284 -0.3610406 -0.120649315 -0.23976372 -0.7771551 -2.5093389 0.10071486 -0.013641164 0.087365314 0.058969237 0.06535436 0.24666494 -0.4154152 -0.027815152 0.23056656 -0.53236705 0.04072845 0.12707488 0.11612625 -0.08701644 -1.7346345 0.017904645 0.05858327 -1.0265633 0.17384855 -0.2082945 -0.09403494 -0.10946292 0.08298688 0.26862824 1.1110786 -0.43465614 -0.14881973 -0.15237594 0.05513073 0.5779241 0.09295197 0.20024216 -0.4358198 -0.13330112 -1.0327913 0.6038501 -0.42465952 -0.09409852 0.017041847 0.3414015 -0.00023697711 0.14450605 -8.477736e-05 0.060352575 -0.12716067 0.26281485 0.3393357 -0.22110432 0.063293435 0.61731756 0.42634505 -0.03191112 -0.02276965 -0.21722363 0.07946698 -0.124126546 0.1966917 -1.35686 0.03930608 0.60980433 0.07624931 0.059504796 -0.1237201 0.07607199 0.20392919 0.0458986 0.049179558 0.16344702 0.21103871 -0.009836126 0.9154287 0.028879292 -0.9874492 0.6492392 0.12644073 0.7802129 0.025920939 -0.13591701 0.040384 0.2211116 -0.08491736 0.15342066 0.047707282 -0.060806267 -0.1610622 -0.10194047 -0.0025918437 0.046288352 -0.27023807 -0.07449166 0.25342998 0.37149665 -0.027153155 0.0067641432 0.14311732 -0.03361551 -0.05698769 0.02622458 0.3147878 0.045292623 -0.023544053 0.22163987 0.18606888 0.13777184 -0.6845156 0.17594133 -0.00058055914 -0.6488872 -0.98154324 -0.04870857 -0.8551398 -0.100830376 -0.0033183445 0.16525288 -0.17994386 0.2953163 0.07451135 0.8050493 -0.33423766 -0.16258392 -0.037377488 0.08155181 0.16308382 -0.33368492 0.0044704387 0.37272424 -0.010496842 0.09888103 -0.6905041 -0.4967992 -0.53305846 0.022375906 0.5223059 -1.062821 0.075020485 0.063745216 -0.30685487 -0.044202894 0.19175424 0.12615679 -0.3566982 -0.4319059 0.39875904 -0.44913745 0.123467475 -0.4168356 0.3878183 0.067148335 0.10858337 -0.25718737 -0.12034762 -0.027430315 0.07930234 -0.30413935
0.22588485 -0.14309077 -0.018872557 -0.17144464 0.07172177 0.051238455 0.18257566 0.16850187 -0.0074888356 0.09658097 -0.68862814 -0.9688306 -0.85610354 -0.41492945 -0.8147051 -1.1232517 0.18855898 -0.23238891 -0.84349364 0.0019653444 -1.5578864 -0.046638712 -0.07895584 0.1691458 -0.083439 0.18974519 -0.6136911 -0.015576108 0.0039060193 0.19884935 -0.8186635 0.42428985 -0.10319129 0.16342795 1.0380278 -0.2472204 -0.013856171 -0.45547372 0.07525298 -0.38340288 0.020455096 0.20776494 -0.11596568 -0.117359556 -1.6820743 0.3834663 -0.18341602 0.035740692 -0.07356329 -0.082732484 -0.12101165 0.28428733 0.03652507 -0.34037507 -0.019825015 0.058587346 0.1634356 -0.57369214 0.08446561 -0.02874117 0.16466586 -0.12381299 -0.93765575 -0.017921109 -0.7235402 -0.023652757 0.17397198 -0.11521304 0.36373255 -0.034525104 0.006846598 0.27704537 0.18609329 -0.36060634 -0.04558436 0.032589797 0.4819671 -0.8945258 0.064517744 -0.067752145 -0.31193155 -0.21522875 -0.0127248615 0.5197405 -0.11530916 0.12990136 -0.099615335 1.1858414 0.17005554 -0.14852668 -0.06428449 0.24391168 0.15471847 0.06968387 -0.35099348 -0.025226867 0.050075054 -0.051390164 0.06216271 0.010711974 0.5659073 -0.1515978 -0.17426498 -0.8458566 0.078767136 -1.0502738 0.09790142 -0.06521161 -1.6856034 -2.25153 -0.11618689 0.065761834 -0.77963865 -0.7287092 -0.8578379 -0.28013563 -0.9316713 -1.6919492 -0.2732473 -0.25796664 0.27421096 0.091026485 -0.8680238 -1.3641688 0.05009045 0.4171794 -0.9066521 -0.4951608 -2.3125868 -0.22930892 -0.04800615 0.7692683 -0.14521638 -0.25708583 0.05912394 0.86349416 -0.23053725 1.0092214 -0.7376102 0.04362668 0.031046467 0.17970878 -0.9834772 -0.12395419 -1.0634276 -0.11503154 -0.3496195 0.22738647 -0.39207178 0.55902874 0.037478205 0.2645372 -1.2312127 0.12306095 -0.09330622 -0.18107356 -0.249716 -0.091503225 0.14696375 0.12027187 -0.12453041 0.39038646 -0.12649672 0.09779316 0.22888047 -0.46095896 -0.29017583 -0.10389815 0.118404835 0.24478215 -0.40975767 -0.5568851 0.2790382 0.021453043 -0.1051244 -0.02056568 -0.41839868 -0.13821384 0.026718963 0.18815342 -0.09209552 0.032671325 0.07816787 -0.84262586 -0.023185454 -0.9139253 -0.15114015 -0.43809235 -0.75590074 -0.18377423 -0.100213714 0.020214383 0.26686078 0.12184614 -0.13885777 -0.026276307 0.02204191 0.14978956 -0.6939205 -0.7420197 -0.936037 0.022408472 -0.7197023 -0.27097145 -0.6146915 -0.012096093 0.22527985 0.12989584 -0.7545855 -0.007383819 -0.7019198 -0.06923272 0.07286317 0.15922779 0.117372654 -0.42547384 0.33653763 0.095608495 0.091239624 -0.60173696 -0.06708828 0.19572328 0.2837178 -1.3069453 0.27998045 0.12458176 -0.07956889 -0.15826051 -0.5655924 0.08971184 0.010468635 -0.31858745 0.5179914 -0.11191128 -0.017984288 0.08249068 -0.08921851 -0.053432066 0.23619063 -0.14559068 -0.37909064 -0.5908352 0.46019515 -0.06321031 -0.26324493 -0.04688098 0.12610827 0.11750924 0.10734064 -1.1475103 -1.1697463 -0.9986197 0.2352671 -0.06140694 -0.5494241 0.5986904
0.33557555 0.067193344 0.049680095 -0.052035246 0.11377055 -0.05556951 -0.45746842 0.08784376 0.07197278 0.12543418 -0.02245022 -0.2531456 0.14551216 0.104730286 0.11813197 0.024770342 -0.21361402 -0.4963751 0.11462411 0.07655933 -0.21691069 0.1584864 0.08249009 0.22751483 0.23064096 0.12129597 0.07664281 0.0292608 0.13991028 -0.0024446368 -0.23844326 0.37971446 0.010315404 0.0016735033 0.45098802 -0.08754681 0.15517819 0.03772672 0.18011533 0.02883718 0.38732705 0.2224795 0.21826144 -0.09755859 0.018191649 0.2188015 0.24113834 0.14017056 0.056026544 -0.09090162 0.057113603 0.13075595 0.08830192 0.089701116 -0.038403716 -0.081047855 -0.26946253 -0.6427432 0.2003398 0.19307745 0.02092415 -0.1654497 0.026846735 -0.21106832 0.14340284 0.14525516 0.099309355 0.008665817 -0.020046113 0.033100266 0.11193249 0.07011485 0.105001375 -0.08255332 -0.063324854 0.18419023 -0.4066709 -0.04974335 -0.07741951 -0.03661739 -0.23235542 -0.13117863 0.16341831 0.50525194 -0.07712077 0.16666004 0.2056786 -0.2987331 0.41889468 0.08891012 0.05079614 0.081000656 0.07237211 -0.05962906 0.12903412 -0.22384116 0.02125694 -0.09577366 0.08212518 -0.14848006 -0.049345966 -0.11833376 -0.06385031 -0.05951302 0.1122755 0.08793885 0.012886926 0.17330068 0.023788175 0.017812679 0.13654812 -0.02917349 0.036865484 0.09799936 0.25870016 0.12136997 -1.091627 -0.10433662 0.0890975 -0.30217332 0.18215767 -0.03239279 0.36717218 0.1711784 0.1753674 -0.07943562 0.20009497 -0.26218057 0.1445535 -0.24518357 0.0026831387 0.017539935 0.05339013 0.11994263 -0.012710095 0.034797035 -0.55221343 0.2880864 -0.20125875 -0.047834564 0.4184225 0.0647868 -0.07760482 0.1505777 -0.05253749 0.112364694 0.041194584 0.08175115 0.23497213 0.05593977 -0.04074102 0.22100233 -0.13539654 -0.032805346 0.08812966 -0.06513823 0.18411626 0.022576634 0.4317967 -0.32549804 0.025991898 -0.044824652 0.12772244 0.0036004018 0.115606375 0.12922463 -0.088599525 0.01270225 0.0626325 0.2956324 0.03339887 0.09288219 -0.09512837 0.035084855 -0.15739417 0.44644055 0.05859391 0.012562731 0.041234113 0.3446264 -0.02341528 0.038911253 0.15982716 0.08638545 0.10146941 0.1880626 -0.3302174 0.24605012 0.11475012 0.05815028 -0.25588313 0.2132195 0.14622292 -0.20453362 0.025292575 0.01677067 -0.07211051 0.1009602 -0.00983231 0.027909357 -0.41409844 0.08397935 0.07422149 0.023286682 0.016302481 -0.0004794451 -0.5491787 0.16799106 0.18008722 0.037104283 -0.4569518 0.011506321 -0.08284241 0.10355162 -0.14276005 -0.08520114 0.061151527 0.08027997 -0.0008047765 0.04411846 -0.060014818 0.14776474 0.046312336 -0.0068295947 0.045180384 -0.011500366 0.087021165 -0.028218249 0.07744832 0.015279112 -0.29753095 -0.22964615 -0.28681752 0.25011393 0.041481886 -0.21521118 0.18514632 -0.049452532 -0.1476043 0.05106647 0.072605476 0.030281337 0.06408514 -0.3128144 0.10743965 -0.07838106 -0.020610292 -0.031998158 0.03688 0.04814992 0.023631882 0.22767779 0.036278978 -0.011826259 0.0535889 -0.13197953
0.3928724 0.016663803 0.16225521 -0.58217293 0.21731763 -0.7416538 1.2472452 0.21943808 0.25938207 0.17477305 0.30588013 0.3092261 0.63936085 0.19617468 0.030435245 0.06873138 -0.99291176 -1.3132223 -0.27979547 0.17600203 -0.94822955 0.2524636 0.10164816 0.34905884 0.37245026 0.24092157 0.042987406 0.012752951 0.954761 -0.51909554 -0.5068047 0.73617357 0.038763583 0.14706466 0.62627536 0.09703372 0.05847564 0.1689534 0.36338603 -2.002985 0.510562 0.53552455 0.4617833 1.1786326 0.12552615 0.26790202 0.28231934 0.112026714 -0.06265103 -0.7963811 -0.033805124 -0.10738458 0.14867151 0.12492761 -0.28679305 -0.80802083 0.29866114 -0.5321135 0.32512283 2.290072 -0.37190765 -1.3114642 0.3100204 0.21458046 0.58709884 0.2975875 -0.20226309 -0.37494835 0.2662278 0.19440643 0.47664613 0.26689434 0.0028032681 1.7865632 0.9762163 0.3007981 -1.0239172 0.1372713 0.15473397 0.10281732 -0.99408454 -0.37982246 0.13292554 0.80990046 -0.32969105 0.23256327 0.29925692 -0.82658803 0.8528177 0.13103591 -0.12358994 0.09815542 0.41987595 -0.27303496 0.08109605 -0.7037774 1.0264162 -0.6073331 0.16668245 -0.41890383 -0.94763273 -2.1818683 0.35466 0.07169134 0.43232232 0.1680799 0.44140127 0.32120875 -0.63539076 0.083039515 0.29073045 0.053112846 0.0874872 0.41787955 0.19940677 0.22511967 0.20419984 0.08233653 0.08162003 -1.6071244 0.16686401 -0.40134275 0.4330479 0.0754306 0.36922783 0.6760222 1.1350893 -0.6309683 0.08722545 -0.28662437 0.471089 0.3477998 0.101578675 0.21095994 -0.34820998 0.46761045 -1.1670601 1.2502699 1.5779713 0.14655092 0.5612088 0.24013789 0.09397748 0.2625002 0.029688183 0.18959008 0.0013993789 0.5223629 0.7500627 1.5955018 0.110605255 0.02858622 0.23689751 0.023087475 0.09818381 -0.9021095 0.41699693 -0.4815069 0.47247502 0.3994969 0.1366524 0.903903 0.33501408 0.041503437 0.14518398 0.13239673 0.18701132 0.045154426 -0.008289051 0.54773295 0.2652381 0.00033821954 0.64611703 0.09116492 -0.37592867 1.5315776 0.2012013 0.7739214 -0.29165715 0.36996517 0.16663702 -0.17993294 0.11829245 0.28996825 0.21099555 0.19541322 -0.15200432 0.4394961 0.0777153 0.13614409 -0.882271 0.21053833 0.40014774 0.24396892 0.27219635 0.014926191 -0.0033205822 0.15610121 0.31735232 0.0011068702 0.62939346 0.1172096 0.13938816 0.57454175 0.10368025 0.14273107 -2.2968113 0.36051548 0.055507503 0.83086115 -0.49898854 0.18778901 -0.74077785 0.12854937 -0.56681556 0.28307635 0.28903463 0.43384147 0.030874638 1.136095 -0.14606057 0.10583938 0.11869836 0.07884614 0.15188247 1.0608939 0.4089492 0.3084716 0.115257494 0.21147208 -1.1293844 -0.33309242 -0.8146602 0.334496 1.3586555 -2.1408696 0.1995538 0.08471502 -0.60632193 0.20586798 0.22591487 0.15534802 -0.1549156 -0.54876786 0.51866525 1.638438 0.16534153 3.075075 0.30625093 0.10842601 0.06309567 -0.09663527 -0.09384048 0.086438656 0.044862986 -0.9889395
-0.8986338 -0.28084373 0.016442038 -0.12810549 -0.0010756489 0.33885056 0.30169314 -0.11820921 0.015875138 -0.26448506 0.3133672 -0.24568647 -0.077165455 -0.096401915 0.018415514 0.010948142 0.5039999 0.72697604 -0.07043339 -0.21641065 0.12111744 0.014597182 -0.16094704 0.08815995 -0.094380066 -0.19521624 -0.14615993 0.25058404 -0.4922596 -0.17023036 0.24202979 0.21337484 -0.54300684 0.16918916 -0.039199214 -0.13808978 -1.1142756 -0.31707838 0.10221968 -0.064093694 -1.2813786 -0.16976649 -0.0033767403 -0.16456825 0.104966454 0.0045812093 0.08405802 -0.0049807187 0.054612294 -0.0920699 -0.2562315 -0.24324813 -0.11449843 -0.1882923 0.069008626 0.010800387 -0.13714854 -0.05390891 -0.11136762 -0.08353391 -0.0961845 0.09904489 -0.20942071 0.4068027 -0.09176253 -0.046231188 -0.06928695 0.26249143 0.008307521 -0.034710478 -0.27893606 0.0046271877 0.13415645 -0.14555618 -0.25713325 0.0022947907 -0.086502396 -0.21067494 -0.023202553 -0.27903876 0.03988009 -0.1372628 -0.43762252 -1.4091874 -0.053133126 0.15122293 0.005623843 0.08525493 -0.14599067 -0.2538631 -0.4275982 -0.032360096 -0.23800682 -0.036400873 -0.115301 0.015628546 0.18779095 0.03844633 0.10205093 -0.124065325 -0.14155161 0.10219276 0.026892453 0.15501972 -0.36604595 0.019921955 0.12421337 -0.45120293 -0.1551211 0.06213637 -0.031148992 -0.083045825 0.13869187 -0.06767039 0.09682335 -0.062154245 0.159951 0.09815228 0.035585396 0.062648274 -0.18370807 0.07321573 0.0388181 0.08172116 -0.31245863 0.110268414 -0.77601576 -0.08262248 0.25930703 0.10902409 -0.08339236 -0.07857174 -0.56509423 -0.24469902 -0.54731125 0.2245572 -0.043030526 -0.013498046 0.31331939 -0.0016987675 -0.8647064 -0.039294578 0.12881748 -0.22033577 0.10290045 -0.20239122 0.04780676 -0.081658415 -0.019683853 0.42224756 -0.5043319 -0.105807506 0.15685453 0.08524081 0.14314835 0.05671018 -0.81382656 -0.15514499 -1.1289755 -0.10926755 0.04902162 0.09840774 -0.2309582 0.09155401 -0.086309396 -0.3342356 -0.30744207 -0.04949899 -0.1451251 -0.9341206 0.10089991 -0.04679308 -0.35794768 -0.0876169 0.7584559 0.05777292 -0.053474464 -0.18462406 0.13346891 -0.24795619 0.06407582 -0.16547856 -0.17131664 -0.25195825 -0.027360814 0.16740134 0.08935327 -0.047677252 0.035439886 -0.2542462 -0.01571328 -0.0915033 -0.15460156 0.018048538 0.0015247841 -0.09705228 -0.28383482 -0.16062623 -0.10919021 -0.2727085 -0.30886036 -0.47304508 0.05628202 0.3294328 -0.43284035 -0.1580291 0.48365355 0.05889934 -0.18775058 -0.08540111 0.7331701 -0.11857242 0.14669178 0.09610678 0.07728785 0.21816276 0.20983088 -0.17765462 0.047740363 -0.101606704 -0.044225775 0.09370767 0.05138686 -0.10903124 -0.011333821 -0.11970212 -0.20751692 -0.07000851 0.05257676 -0.14123912 -0.092724495 0.03450322 0.5921713 -0.4568947 -0.21777102 -0.055331286 0.31691656 -0.07832921 -0.04904639 -0.15835871 -0.32514524 0.15775771 0.09803641 0.9109171 0.1794473 -0.19297728 0.05871456 0.108922094 -0.30952373 -0.24625482 -0.29587817 -0.017866727 0.037066016 -0.11538535 -0.2315757 0.6176998
0.3787565 -0.12393331 -0.089968786 -0.35418415 0.16556263 -0.5012695 -1.9598372 0.120064534 0.20326157 0.12804903 -0.3378042 -0.43730208 -0.3096558 -0.42311123 -1.0538813 -1.1703969 -0.4019599 -1.7869319 -0.23558557 0.014797595 -1.4067883 -0.010851153 0.019266443 0.082209826 -0.018278556 0.41659713 -1.4526542 -0.09492789 -0.1950134 -0.07061327 -0.2656381 0.7666052 -0.44009367 0.17104602 0.9060796 -0.1081675 -0.06439872 -0.23339559 0.21707164 -1.8262302 0.69711846 0.6143384 -0.24864812 -0.05592098 -1.8523203 0.54115766 -0.38492998 0.04949411 0.017815987 -0.4248346 -0.6607599 0.39427185 0.0018686821 -0.15978813 0.031231951 0.1016555 -0.030488042 -0.30475396 0.53688836 -0.025357014 0.2107672 0.07620298 -1.8332292 -1.4723724 0.21003012 -0.31530538 -0.22803582 0.108003825 0.042299975 0.111489505 -0.021800091 -0.10958609 -0.015000089 -0.51565206 -0.2928469 -0.12618902 -0.006114417 -0.6702795 0.033881765 -0.19446437 -0.08236524 -0.14830269 0.021017585 1.0426731 -0.19809636 0.14967959 -0.09894536 -0.7846407 0.4904204 -0.6593365 0.031430338 0.26516873 0.16412961 0.049166698 -0.2047427 0.0073434445 -0.041942623 -0.123994306 -1.4569385 0.11337819 0.29991862 0.039523307 0.0067908294 -1.2896947 0.32898584 -1.7357574 -0.2500406 0.25840127 -0.52324855 -2.299284 -0.3066644 -0.36180985 -0.71869546 -0.25130212 -0.1675782 0.028229045 -3.1654816 -1.3159928 -0.4896448 -0.049059015 0.2094337 0.017052991 -1.0411258 -1.0594063 0.14878957 1.6498948 -0.22314528 -0.34764278 -1.2791256 -0.12948675 0.27378678 0.8573135 0.034750536 0.21821526 0.041787002 -0.085200824 -0.07866213 1.7811984 -1.5475826 0.07076596 -0.0037536323 0.31448033 -1.493393 0.08694063 -1.7275187 0.031620555 -0.7786766 0.371814 -0.33727637 -0.20593701 -0.015110021 0.50088316 -1.0529361 0.14429389 -1.6380728 0.117616646 -0.031738665 0.3748491 0.38968748 -0.06367503 0.038687162 0.869415 -0.11463209 0.121081114 0.3699936 -0.12917323 -0.18419522 0.13554336 0.21555085 0.30792522 -0.5511697 -0.7184587 0.2390585 0.04193816 -0.43535957 -0.16594456 -0.6345172 0.13577804 0.07630347 0.5626137 -0.17165898 0.14451186 -0.07315277 -0.94372606 -0.09272418 -1.4331571 -0.30030787 -0.2683759 -1.4365871 0.2056123 -0.4627002 0.23505265 0.2793676 0.19561931 -0.08008521 0.066202134 -0.08270166 -0.058934413 -0.7737649 -1.177356 0.034911383 -0.012474762 -0.13756157 -0.28086752 -1.4595695 -0.002945375 -1.0985062 0.42537272 -1.5574049 -0.381776 -0.9360547 0.3975158 -0.77656263 0.055548772 0.025631815 -0.3501864 0.5324892 0.20831595 0.083451636 -0.2615168 -0.32472077 0.24094112 1.2206204 -2.466116 0.42926666 0.090381764 0.06319633 0.19968534 -1.9325876 0.22526914 -0.024826828 -1.0891997 -1.2021257 -0.07404339 0.16397344 0.041234214 -0.45123363 0.04630418 0.10349899 -0.110704 -0.082659744 -0.6259904 -0.3948798 -0.7798762 0.571759 -0.12247503 0.33473673 -0.4823255 0.16605179 -1.2733725 -1.0270258 -1.5577433 -0.021615801 0.042917844 -1.2927967 -0.35878658
0.16380198 -0.07616151 -0.20220488 -0.6280679 -0.10640705 -0.45964763 -0.6497867 0.054354414 0.05599736 -0.1502619 0.02451083 0.01968414 0.0944144 -0.24241725 0.06190302 -0.0056585404 -0.398116 -0.7675149 0.29139462 0.068299435 -0.8942268 -0.088275254 0.03952059 0.06766466 0.23474963 0.089969516 0.101589076 0.24369691 0.31301373 -0.23323043 -0.24195813 0.7764886 0.11004339 0.06855668 0.25590193 -0.022923918 -0.049526844 0.00957912 -0.051803578 -0.40582234 -0.049280487 0.18977663 0.20918892 -0.026640335 -0.013495032 0.15385929 0.20399508 0.036499277 -0.08018455 -0.46835753 -0.008630884 0.008291583 -0.009241992 -0.041261837 -0.17664413 -0.1392155 -0.5997993 -1.333991 -0.03333703 0.27369854 -0.04213749 -0.11027253 -0.000548473 -0.5998487 -0.24224341 -0.2262427 0.04215139 0.07087297 0.07054599 -0.087122776 0.12863377 0.18769133 -0.21455511 -0.05381488 -0.15182774 -0.014763064 -0.41061184 0.1541982 0.036676776 0.0261837 -0.30026525 -0.12301008 -0.08842327 -0.13040957 -0.31392154 0.0737451 0.37627152 -1.5113204 0.2549491 0.3868434 -0.084342234 -0.06154327 -0.11662668 -0.07067379 0.0069138613 -0.25718963 -0.020335617 -0.3243082 0.075656295 -0.27758166 -0.17311186 -0.1391238 -0.06153292 0.12403766 0.12035367 0.15088923 0.17839652 0.10250816 -0.14066695 -0.0029788236 0.14305869 -0.025010629 0.026844678 -0.19064462 -0.6601605 0.11747988 -0.8844932 -0.005086213 0.10696261 -0.84794307 -0.21483043 0.014809994 0.23691882 -0.014128193 0.26977277 0.010813009 0.1397465 -0.42489937 0.07960664 -0.15279824 0.097927704 -0.024016395 -0.2506663 0.15374702 -0.28639722 0.08202055 -1.025262 0.32704523 -1.1446066 0.07526537 -0.19166036 -0.10721081 -0.011982498 -0.075975716 -0.02260718 0.071078375 -0.0031487516 0.1601053 0.22705959 0.61691004 -0.028472627 0.24973801 -0.019079583 0.0066292114 0.015811145 -0.6888332 0.1171337 -0.12818395 0.08134616 -0.62942475 0.0875212 0.6058673 -0.040055428 0.029862948 0.14938997 0.09723081 0.10126042 0.09849936 0.02275918 0.15455525 0.02955216 -0.07235926 1.0251787 -0.044880684 -0.368794 0.18466726 0.26326162 -0.004996242 -0.19268256 -0.096029356 -0.066908896 -0.13333283 0.028462285 0.0580707 -0.027566824 0.02457261 -0.11308788 0.22211532 -0.012274348 -0.018626649 -0.19106485 0.3993098 0.21349816 0.066876635 0.1536019 0.14589028 0.16119434 -0.09622173 0.073082514 -0.03299503 0.18935777 -0.08289928 0.15890343 0.08553388 -0.06823561 0.05669929 -0.47257334 0.29057658 0.0043308465 -0.06202019 -0.400895 0.16629966 -0.33884493 -0.008865369 -0.3615714 0.1816234 0.13402084 0.16089247 -0.15901469 0.23715419 0.00796538 0.062498707 0.012470492 -0.085149296 -0.020865155 -0.23734638 0.048687726 0.17730494 0.115599744 0.17721125 -0.5781507 -0.17083263 -0.33753324 0.009805426 0.21359767 -0.4307306 -0.11083195 0.035563234 -0.23281908 0.10939879 0.13291258 -0.061748926 0.11265262 -0.85011053 0.20197761 -0.34410533 -0.020923335 -1.472243 0.14298464 0.22826357 -0.003685408 0.006850804 -0.16067956 0.03414455 0.0133790765 -0.5173023
0.16662148 -1.3327363 -1.4454745 0.6173072 -0.19853237 -0.10466459 -1.6759384 0.33576527 -0.0363982 -0.06558071 0.08250884 -0.4823181 -0.33973455 0.63490725 -2.2569258 -0.017832635 -0.42668405 -1.1708361 0.061634973 -0.5565604 -0.9472556 -0.05643918 0.12367059 0.013339555 0.36215505 -0.49428445 0.17547397 -0.089300714 -1.1530628 -0.23842607 -0.11874979 0.49729496 -0.9317454 0.21537383 0.2676355 0.13520193 -0.80263084 -0.39602888 -0.00028756843 -1.3592689 0.21483947 -0.6961969 0.5706929 0.011556834 0.08749819 -0.53148055 -1.6392905 -0.14985128 0.23662968 1.3472921 -0.035639282 0.48434687 -0.33633286 -0.123860925 -0.3084782 -0.30998307 -1.4589553 -2.4170475 -0.32716745 1.2001133 -0.02862852 0.2708433 0.31057653 -1.6263179 -2.7092133 -1.1378623 0.1294022 -0.7783783 0.29903474 0.005203243 -0.38388547 -0.6654853 0.09853657 -2.6231055 -0.3542372 0.11177694 -0.6524513 -1.1990635 -0.7889536 -0.949501 -0.672143 0.03976721 -1.633598 -0.7371992 -0.35188228 0.040306885 -0.09514118 -1.04752 -0.77194583 -1.7872387 -1.5524461 0.30744743 -1.2234777 -0.016064709 -1.056507 0.016433671 -0.048175953 -0.91686594 0.044092864 0.105268545 0.3420543 -0.022665637 -0.99795747 0.03229488 0.33427715 -0.017529668 0.007152353 -0.5261521 -0.27688864 0.051076047 -0.07630168 0.045577556 0.024433358 -0.2143172 -2.6312776 0.2109066 -2.0211911 0.0466358 0.008297417 0.36420003 -0.4804714 0.15853201 0.2634679 0.029997783 0.29347312 -1.7421112 0.024702398 -0.1552133 -0.06124273 -0.8086001 0.3258353 -2.2247846 -1.6835071 0.4479866 -0.67105275 0.093901865 -1.0019157 0.13351715 -0.566894 -0.6462419 0.21369499 -1.5447327 0.022406083 -1.3548406 -0.0013427045 -2.6384463 0.096823655 -0.48127407 -0.9956127 0.04238113 -0.9989317 -0.7489399 0.25040066 -0.05807472 -0.3331821 -0.5683905 0.5421578 0.78030896 0.40992242 0.5958694 -3.399255 1.051999 0.04280877 -0.3271367 0.045785222 -0.1949944 0.21721765 -0.19562772 -1.1003232 -0.044827968 0.19584711 0.036129188 -1.531697 -0.10351353 -0.53280467 1.0434097 -1.183551 1.2544043 0.27221516 1.1459248 0.025982361 -0.6143445 -0.837993 -0.52901155 0.090656005 0.06644012 -0.044486642 -0.115045175 -0.13192087 0.051804483 -0.100852154 -0.34837165 0.3070444 -1.5611092 -0.8937501 -1.5330818 -1.1367939 -0.11453191 0.2268236 -0.13921998 -0.102044605 -1.9265733 -1.4837832 -1.1842778 -0.7137665 -1.2269529 -1.2499061 0.3639 -0.55829257 0.20570406 -1.295077 -0.01307237 -1.2124648 0.05765233 -0.6549666 -0.23130156 0.038223416 -0.1274395 -0.16679892 0.75231206 -0.22333053 0.0669077 0.050967865 0.14659032 0.1185138 0.75559163 -0.9031141 -0.2116182 -0.023988176 -1.1853982 0.7093861 -0.80117637 -0.110567786 -0.3175965 0.035547964 -0.20849948 0.030390762 -0.7686803 -0.03842557 0.47869965 -1.3055356 0.45200118 -0.07463457 0.1437017 0.56801116 -0.019107793 -1.436021 -1.7900921 -0.42178452 -1.3907337 -0.017147625 0.5154596 -0.4183993 -0.62376237 -0.92580324 -0.27514675
0.36909598 -0.03260088 0.095596075 -0.03840698 0.22559667 -0.17626916 0.022047997 0.15254864 0.02775831 0.20891072 0.17044689 -0.105926335 -0.031899642 0.05159249 -0.0763263 -0.04532218 -0.17059104 -0.06205208 0.051892303 0.13320392 -0.21464643 -0.040425446 -0.011178209 0.17940931 0.33867306 0.20713164 0.01569326 0.04443782 0.15344642 -0.07563617 0.15461893 0.58185923 0.10153198 0.010008444 0.15885165 0.101610124 0.040596876 -0.0042820256 0.066644594 -0.24329503 0.40413183 0.14095695 0.27112153 -0.09531001 -0.11289842 0.09828746 0.117112204 0.1723186 0.0576208 -0.15099853 -0.101248056 0.19876859 0.24614826 0.12290558 -0.1686288 0.023375845 -0.51557106 -0.63433015 0.16197614 0.49281704 0.046798117 0.10018717 0.4074607 -0.57564735 -0.317137 0.044740677 -0.22139 -0.4816647 0.06998629 0.05739369 0.15494226 0.028531924 0.09731784 0.03035103 -0.24227762 -0.04035101 0.17806971 -0.04020264 0.10853481 -0.18352 -0.2339522 -0.0027652362 0.07429329 0.7037161 -0.03415237 0.05616224 0.18322834 0.0020627426 0.41340467 0.04441144 0.32327697 0.051785816 0.19073623 0.13297133 0.07830276 0.007181645 -0.1044001 0.090365335 0.16008176 0.0077922 -0.12609313 -0.6140518 0.19157209 -0.009818944 0.11129269 0.05494568 0.08922163 0.13778722 -0.22128707 0.00773332 0.0409351 -0.08568453 0.004920925 0.02462635 -0.12833244 0.11077456 -1.3862996 -0.063230276 -0.061844688 -0.19020392 0.38925958 -0.2242338 0.39388397 0.045494586 0.15089367 -0.06324754 0.5494497 -0.1575556 0.024432262 0.015377361 0.041947667 0.055541493 0.18754828 0.07137212 -0.32590744 0.18580765 -0.2385099 0.39244834 -0.06244457 0.16266698 0.8291895 -0.10047984 -0.014451854 0.24933165 -0.041488312 0.15918937 0.09147563 0.20489173 0.29195958 0.09141317 -0.0012942486 -0.048122663 0.24222375 0.09147284 0.04964788 -0.0901846 0.1864234 0.020511944 0.2830547 -0.5086628 -0.08083603 0.10144207 0.026414167 0.14323713 0.06642646 0.017271535 -0.07670545 0.100163266 0.020865127 0.26087454 0.17808785 0.0054405294 0.0689969 0.06574618 -0.5197124 0.47685435 -0.0034330378 0.1707034 -0.113046065 0.56965315 0.17619707 0.1425651 0.032563128 -0.06047093 0.11515418 0.26002926 0.01608517 0.22737454 0.0048955665 0.013186039 -0.020874718 -0.01833307 0.006490784 0.053525593 0.049714155 0.06396324 -0.036772937 0.04512242 0.06283537 0.018644005 0.06365341 0.11689579 -0.1444731 0.3202662 0.05805607 -0.15131195 -0.17100315 0.24373166 0.040046223 -0.173321 -0.41910154 0.0038124032 -0.6674229 0.110088564 0.007843125 0.036210217 0.13110287 -0.019471869 0.041221745 0.35873774 -0.2627138 0.044697266 0.026554799 0.015235908 0.08154794 0.08367104 0.059914913 0.011527058 -0.014465809 0.11628265 -0.13796145 -0.13485456 -0.050931316 0.21685123 0.22231996 -0.36653325 0.09608471 0.020977136 -0.027332732 0.18415213 -0.021721544 0.09938186 -0.10085613 -0.26688877 0.025519442 -0.35518613 0.01997479 -0.124661446 0.116131075 0.056291953 0.04617382 -0.14799662 0.040930547 0.044462714 0.11803384 -0.21208997
-0.11306235 -1.0848157 -1.2473037 -0.4405744 -0.096224904 -0.31177333 -0.33656824 -0.060058977 -0.27920324 0.10488562 0.14346977 -0.6061947 -0.60890275 0.68839455 -0.15982626 -0.020637073 -0.042726804 -0.1799504 0.23763211 -0.046868816 -0.25786722 -0.28706405 -0.36357215 0.1770927 -0.034528922 -0.7082363 0.1744402 0.03864482 -0.33014503 -0.109330826 -0.1477527 0.2801646 -0.63332444 0.017930822 0.7020313 -0.2554628 -0.76861215 -0.12706622 0.18118607 -0.20214178 -0.1573942 -0.6256365 -0.12749213 -0.00048797097 -0.026145611 -0.5438355 -1.0554345 -0.07148648 0.014115481 0.10083052 -0.1678064 -0.50459677 -0.06652134 -0.39872178 -0.051702995 -0.34090412 0.9280421 -0.37583253 -0.417602 0.003112782 0.13095005 0.22677568 0.058176607 -0.26992303 -0.5773785 -0.42427742 -0.17039554 -0.12960823 0.20120539 -0.2890555 -1.1331319 0.25055155 0.050757334 -0.6879591 -0.0834563 0.0702454 0.11102224 -0.34519538 -0.68582654 -0.6377731 -0.30777165 -0.008951796 -0.9077876 -0.7294715 -0.034673285 0.18999961 -0.37357593 -0.2974915 -0.82966214 -0.7736008 -0.5563255 0.10125718 -0.9440379 0.32255077 -0.08189794 -0.6218199 -0.044097845 -0.07708305 0.066379786 -0.5594172 -0.6881357 -0.32277134 -0.5738246 0.05006963 -0.12511456 0.106597535 0.017912589 -0.5792836 -0.6191068 -0.054566562 0.18386357 -0.056710117 0.006792562 -0.015156347 -0.95187235 -0.14607263 -0.57879287 -0.039473504 0.099827655 -0.39444196 -0.39150435 -0.09136453 -0.3594596 0.07488055 -0.2281201 -1.2019836 -0.9011297 0.04342239 -0.0315134 -0.43493533 -0.2730712 -0.5988057 -1.0204977 -0.5031938 -1.186887 0.44623673 -0.67329407 -0.17974725 0.006836044 -0.23390055 -0.3312187 -1.076805 -0.040478244 -0.6283453 -0.03958713 -0.93969446 0.14284813 -0.3105932 -1.0575573 0.37246782 -0.96855384 -0.36602777 -0.09897741 -0.06567915 0.2577135 -0.5495957 -0.30134475 -0.25978318 -0.19323084 0.4462078 -0.47850826 0.0036556213 -0.49827594 -0.27665642 0.040207185 0.065851144 -0.3058383 -0.53946275 -0.15831707 -0.39168444 -0.023403514 0.031484876 -0.9472486 -0.43283838 -0.4487187 -0.16893393 -0.76308054 -0.44867173 0.27584705 0.22330904 -0.4044917 -0.5802594 -0.1958291 -0.4514242 0.2180167 0.15649854 -0.10198198 -0.066045284 -0.0026363486 -0.31979045 -0.059767228 -0.40291524 -0.002738788 -0.20284015 -0.82011753 -0.65838706 -0.45577335 -0.24621522 -0.75719094 -0.14338744 0.26790184 -1.2866707 -0.8885551 0.09468866 -0.12040031 -0.6352844 -0.29340538 -0.22788855 -0.23039839 -0.11117334 1.5388745 -0.4360813 -0.216276 0.046715654 -0.10899732 -0.16222253 -0.01138083 -0.2640165 0.08003896 0.10645714 -0.22301991 -0.03948926 0.112415865 0.05490401 0.30412164 -0.66552055 -0.17391333 -1.0098628 -0.045744967 -0.4756369 -0.49048632 0.03789307 -0.13751054 -0.105667 -0.2965776 -0.81321746 0.056717154 -0.62133217 -0.12983267 -0.26712215 -0.29502133 0.06928116 -0.06478579 0.00640543 -0.20338796 -0.26893908 -0.5651181 -0.18170008 -0.7302402 -0.9987258 0.06243076 0.51982504 0.037341814 -0.106456526 -0.21795666 -0.06877651
0.03391507 -0.043506056 -0.14159283 -0.32798 -0.16015849 -0.25118506 -0.4820425 -0.057799716 -0.026648136 -0.05872744 -0.15435235 -0.41050592 -0.015583545 0.545005 -0.11721039 -0.09273082 -0.2999408 -0.34555048 0.34872097 0.13434464 -0.96792513 -0.012122733 -0.0107500935 -0.105948806 -0.096524395 0.028310103 0.012994932 0.22128743 0.1027745 -0.3465009 -0.76800406 0.44934997 -0.3915475 0.11684101 0.38374093 0.016381001 -0.34847945 0.1786956 0.16738859 -0.25280136 0.18450755 -0.4692304 0.024370737 -0.15802912 0.0076076076 -0.055819403 0.12786287 -0.5552264 -0.41249663 -0.5024197 -0.11614597 -0.3707112 -0.19649087 0.032194857 -0.9856056 -0.753944 -0.6329512 -1.3650255 0.3410914 0.45356992 -0.16340795 -0.78947866 0.12177971 -0.14774744 0.18293266 0.06241033 0.21325034 0.08672357 0.055126145 0.04399952 0.14755177 -0.17435552 -0.6335217 0.19470236 -0.064289644 0.23296542 -1.2798431 -0.1939057 -0.01627094 0.12571685 -0.3981688 -0.39020193 -0.09849419 -0.44556394 -1.1639956 -0.021629391 -0.021407485 -0.6761791 -0.015579208 -0.13308562 0.0046482678 0.2555703 -0.08972681 -0.5527539 0.03779755 -0.1915655 0.13987735 -2.36118 -0.0047024214 -0.27520037 -0.37525222 -0.26534286 -0.0007828378 0.12919718 0.03706151 0.17818736 0.22543518 0.079724416 -0.17060338 0.102504164 0.15978262 0.02708956 -0.016876487 -0.07351057 0.25659007 0.08620949 -0.73127556 0.0023946562 0.05900479 -0.9879902 -0.20842654 0.04960739 -0.045670904 0.07523002 -0.05907789 -0.57708657 -0.18429905 -0.6637184 0.057670414 -0.95253116 0.006540847 0.09001368 -0.105742835 0.06324777 -0.01045416 0.20456636 -0.9114084 0.07544203 -0.11883938 -0.18107495 0.07919953 0.23080714 -0.03092684 -0.045471396 -0.053866994 0.073894255 0.19270957 0.20108485 0.21157138 0.77349854 0.019917414 -0.64052707 -0.25119418 -0.26706952 0.35708013 -0.6765259 -0.029481003 -0.25886688 0.34625852 -0.91205466 -0.2542917 0.16893958 -0.075363524 -0.0179248 0.16290621 0.03314311 -0.23431017 -0.04876735 -0.79525614 -0.018439906 0.12048761 0.058315184 -0.9556707 -0.017478626 0.011281175 0.3101494 -0.12708712 0.18904647 -0.15842092 -0.3288648 -0.04419896 -0.44119757 -0.181495 -0.204797 0.09851773 0.002019244 -0.24104317 0.20343445 -0.01880525 0.0045082397 -0.3032838 0.14965111 0.14977115 -0.08363071 0.04440252 -0.08292723 -0.21183386 0.27328044 0.08945641 -0.102487974 -0.37072578 -0.02461051 0.30631834 0.050219595 0.017653257 0.116760775 -0.3203587 0.34858373 0.103950314 0.13135454 -1.0225252 -0.041170776 -0.056031752 0.14356267 -0.8612819 0.098136015 0.18280527 0.23123269 -0.09496943 -0.6223379 0.08930539 0.17205316 0.12038398 0.20991424 0.112883545 -0.60039 0.14745584 -0.06541824 0.09226638 0.34875044 -0.5360122 -0.45678312 -0.60698336 0.0015970621 0.21731727 -0.7122541 0.11139517 -0.16150269 -0.89186937 0.021756943 0.1741258 -0.2982193 0.048514802 -0.57192576 -0.33890748 -0.099343844 -0.2390131 -1.4212661 0.32479063 0.25313613 0.10318944 0.4033615 -0.8106785 0.14551537 0.018673846 -0.51043516
