0.007348803 -0.14194812 -0.005101988 0.2842071 -0.023197299 0.10994679 0.0009145357 -0.1003581 -0.16367772 0.10893186 -0.4168836 0.032606073 0.03705946 -0.007085369 -0.2935764 0.011824109 -0.14709018 -0.120290466 0.01874186 0.19588445 -0.0024544208
0.09989392 0.26401782 0.047530536 0.15715115 -0.010661912 -0.15369534 0.0074663814 0.2664166 0.21848318 -0.610052 0.02029141 -0.31722718 -0.51102704 -0.018822605 0.14357643 0.34986967 -0.14710891 -0.061681315 0.086283565 -0.3262971 0.0017742097
0.011749865 -0.58356035 -0.0012844965 0.40108004 -0.0031642315 -0.17275813 0.0003379065 -0.055696923 -0.20828052 0.042731144 0.119148105 0.01385051 0.013067532 -0.0005093601 -0.65138894 -0.4228123 -0.04201233 0.5005733 -0.010962209 -0.38878444 -0.0020217523
-0.2076159 -0.14129081 0.025419453 0.64103556 0.0001054207 0.056334663 0.003998742 0.27838337 -1.258166 0.047018982 0.08054245 0.03799107 -0.028909232 -0.0066541117 0.5967794 0.6160791 -0.09992204 -0.46375385 -0.06499181 0.10390388 0.008788071
-0.009247491 0.27867636 -0.016698457 -0.093578205 -0.01050922 -0.054140005 0.00051276555 -0.3555494 -0.5635285 0.42771858 -0.24704482 0.01858898 -0.027952295 0.0023202903 -0.1746025 0.052209865 -0.31498945 -0.21378748 0.007076833 -0.08617495 0.0020089564
0.011723205 -0.46719253 0.0027733298 -0.07969028 -0.016097825 -0.12961195 0.0030143352 -0.010676846 -0.14838722 0.03989782 0.03932311 0.036472674 0.048926145 -0.010003703 0.30688137 -0.69666797 -1.0669942 -0.752575 0.07505518 -0.20598304 0.009528781
0.003920475 -0.040306825 0.013780092 0.35424957 0.08894457 -0.38722074 0.01375228 -0.004168805 0.07185791 -0.016863009 0.43320215 -0.048636455 1.0623502 -0.025947168 -0.010292177 -0.0039135595 0.0008154527 -0.82912093 1.1832765 0.6375006 -0.0018300943
-0.0012699438 0.23051843 0.0028438526 0.25580084 0.0009652118 0.059427667 -0.0001865158 -0.013532429 0.16789916 0.005673257 -0.21860684 0.011089074 0.014999646 0.00030522907 0.49391744 0.30337077 0.14581734 0.03175537 0.0037437794 0.07814595 0.0019293188
-4.9734797e-05 -0.44579935 0.0017772558 0.19108729 0.004272141 -0.045885358 0.0010042288 -0.025401767 -0.23508967 0.0029638554 0.0493855 0.032331053 -0.014238698 0.00012788379 -0.558759 -0.30637854 -0.009020783 0.36352786 0.004654493 -0.07794473 0.0012517081
0.013283172 -0.032012656 -0.016389547 0.09561425 0.006633588 -0.07152797 0.0014931271 -0.021492628 -0.41976863 0.04786764 -0.36628574 -0.04983116 -0.03113407 -0.0007579641 -0.4753889 0.12980568 0.037845302 0.15277609 0.018419972 -0.10586971 -0.0028487698
0.07677239 0.12029013 0.08339294 0.13924052 0.045124527 -0.10280687 0.0010223677 0.055195227 0.2732291 -0.2382559 -0.39598098 -0.095584765 -0.21020845 0.0013499986 0.22557029 0.49212143 -0.3032438 -0.22288658 0.09815722 -0.12591547 0.004857527
-0.05237558 -0.05135038 0.017873723 0.005140086 0.111821204 -0.2405615 0.0059585236 0.54541767 0.22383966 -0.4594941 0.008185314 0.17668135 0.31610397 -0.016876496 0.012186491 -0.016359095 -0.29673347 0.0047070747 0.382686 -0.04502901 -0.0020414898
0.03615121 -0.10478674 -0.07425712 -0.0437517 0.014077052 -0.08894061 -0.00064534764 0.16342928 0.03929816 -0.25838533 -0.06612069 -0.014714065 -0.023717385 0.0016329447 0.23419358 0.24949032 0.36044866 -0.08614749 0.040920004 -0.17023554 0.00079303543
0.029082635 -0.42262563 0.1905807 0.21972205 0.015084001 -0.27621263 0.008382553 -0.24452269 0.32223204 -0.048661105 0.1509472 -0.55260193 0.61948735 -0.02065672 -0.1767997 0.29482883 0.070594914 -0.267182 0.11398121 0.080768645 -0.001289958
-0.014395405 -0.09041338 0.049279835 -0.110536985 0.0007651787 0.030594 0.008209674 -0.33504024 0.29404783 0.022440488 0.1761852 0.33867356 -0.28541824 -0.014843998 0.34269664 -0.058455538 0.5707569 0.08116184 0.050509542 -0.1626667 -0.009366065
-0.055437542 -0.018634584 0.12404621 0.259061 0.0075452137 -0.13699526 -0.005232374 -0.057861693 0.18756515 -0.31998566 -0.42628598 0.018392717 -0.072298005 0.0063936654 -0.44354007 0.8239433 0.070067786 0.3372977 -0.021491257 -0.19909531 -0.0013720756
-0.34661388 -0.22588575 -0.18009247 0.25836095 0.016369792 -0.06779022 0.0035867512 0.68970245 -0.5108924 0.5020099 -0.20423508 -0.022937248 -0.031117553 -0.010016097 0.5009333 0.13117099 -0.14198147 -0.1279061 -0.01763643 -0.10105303 0.0012997835
-0.24211049 -0.049826346 0.078925036 0.35397193 -0.003526514 -0.09759005 0.00024217508 0.75343394 -0.3924259 0.18112092 -0.34186456 -0.0019397762 -0.051517554 0.00012484675 0.5929655 0.078733206 -0.21575674 -0.45570293 0.014801771 -0.139498 0.00041885383
-0.032065455 0.118146114 -0.087161146 0.18231627 0.0047999253 -0.102161385 0.0050691175 0.05936625 -0.08880566 0.10675236 0.19328183 -0.013514875 -0.049758196 -0.00981774 -0.1748026 0.019589402 1.1517178 -0.55046946 0.011344741 -0.10146204 -0.003209263
-0.045373067 0.22336681 0.0062814634 0.09752723 8.587475e-05 -0.009058524 -0.006705534 0.42021182 0.13368006 -0.39351106 0.14740698 0.07969692 -0.027220068 0.013882413 0.34917378 0.20101123 0.29771549 0.018033326 -0.023840562 -0.028106853 0.002119799
-0.372132 -0.28472742 -0.029948434 0.49543568 0.001646729 -0.040786806 0.0013351032 0.4440959 -0.8155011 0.085615255 0.32960737 0.010419459 -0.031355757 0.0017942898 0.671532 0.4089659 -0.021932192 -0.44421417 -0.012251943 -0.08484926 -0.0014327548
-0.023796411 0.18079685 0.0043798545 0.25561008 -0.00067160686 0.016964039 -0.00066981686 -0.026582537 0.19279782 0.036992073 -0.45163342 -0.010466468 0.015750187 -0.001327744 0.31736243 -0.015758121 0.24381557 -0.15216668 0.03987581 0.042102646 0.0007357927
-0.006526636 0.45600292 0.021087447 0.36228195 -0.00046095386 -0.04364705 -0.0017575579 -0.021606557 0.24800593 -0.02575105 -0.371207 0.02828702 0.03221448 -0.001239481 0.54558384 -0.5690189 0.14653607 0.38025188 -0.0046412405 -0.116983585 0.0013755142
-0.00937386 -0.2517085 -0.016679248 0.3200507 0.008115679 0.049694855 0.0025117632 -0.001082223 -0.24540062 0.05714635 -0.13663742 -0.027465729 0.08885218 -0.006735686 -0.39873552 0.36328322 -0.010304195 -0.32416043 -0.018188745 -0.058949564 0.006185205
-0.029227694 -0.054293256 0.0038056008 0.20405076 0.022772152 -0.059188057 0.00013582852 0.09353402 0.45377037 -0.096001565 -0.26205748 -0.0021546774 -0.009831799 -0.003227664 0.30189633 0.24029063 -0.11175531 0.1359933 0.0006259052 -0.16797087 -0.0014305477
0.041550558 0.26435727 -0.00056873815 0.070088476 0.011609377 0.03790919 0.0024224687 -0.44596303 -0.51144165 0.32175478 -0.16886206 -0.04611037 0.0063270414 -0.004632049 -0.10498107 0.061350793 -0.18906648 -0.13434514 -0.22415525 0.024981461 0.0013677179
0.019509915 0.079874754 0.022886684 0.25025544 -0.005128149 0.09456789 0.0013498629 0.01329672 0.15666212 -0.34836063 -0.08192156 0.31972736 0.07384535 0.0014487258 0.10052771 0.07244567 -0.10790274 -0.28979418 0.066384815 0.3866315 -0.007429359
0.065288454 0.0091302525 0.102030165 0.05184079 0.004769325 -0.11301317 -0.0043514757 -0.49970856 -0.0026127177 -0.5688627 -0.25666758 -0.028682092 -0.02670174 0.0088635925 0.12873493 -0.061863318 0.032068282 -0.19990803 0.025424428 -0.16996835 0.00393671
-0.011510997 0.28663635 5.5414763e-05 0.09480804 -0.0018759586 -0.028624076 -0.0012780117 0.21891989 -0.24377388 -0.23183924 -0.1433239 0.0034959274 0.020183155 0.0027175164 -0.1737504 0.4118201 -0.17123027 -0.2570199 -0.10863222 -0.13403644 -0.0027033582
-0.17485581 0.1194849 0.0020613968 0.25147858 0.0049622473 -0.11009187 -0.0023613716 0.5103023 -0.75520045 0.22357602 -0.5449367 0.011448228 -0.00025621973 0.0099831205 0.33992898 0.09090779 -0.29353866 -0.22134227 0.015816197 -0.15299109 0.0025810883
-0.2217558 0.25678942 -0.017973911 -0.13168895 -0.009985283 -0.012720893 -0.0015042473 0.30997983 0.28169695 -0.11130731 0.2622177 0.016025467 -0.0099239135 -0.003613577 -0.0069115413 -0.43500227 0.6572898 -0.5873831 -0.087985076 -0.17720291 -0.00058030564
0.005071358 -0.017153358 -0.045059327 0.16022092 0.0063499324 -0.5632109 -0.003146357 -0.015173355 0.047680974 0.0926963 -0.3553662 -0.0065951347 0.3493007 0.0049827737 -0.009606974 -0.002696917 0.0024944805 -1.1106306 -0.42892078 -0.54698527 0.00046402056
-0.03323255 0.37177733 0.004144657 0.7206095 -0.0025333716 0.08199979 0.0036094035 0.008107302 0.15826964 0.025807988 0.20842938 0.05401838 -0.10265541 -0.0045816703 0.19918226 0.053190615 0.10095213 -0.29942822 0.35357678 -0.4280817 -0.0026919886
0.0060254317 -0.07939362 0.0892706 -0.095359966 0.008223489 0.088492155 0.00020000368 0.008546858 0.08837658 -0.13206789 -0.264029 -0.016253818 0.033639498 -0.0022666764 0.01998821 -0.0029509566 -0.03797307 0.20055768 0.13781843 0.14017692 0.0004588665
-0.14756796 -0.07509224 -0.12081601 0.2218936 -8.387592e-05 0.011173862 -0.0037862312 0.99234265 0.17709957 0.13893062 -0.10655437 0.018645382 0.02206849 0.008205167 0.001176631 -0.16934271 0.062272884 -0.22612073 -0.0129260905 0.0038730577 -0.0014422049
0.028163755 -0.038821347 0.002067553 0.08123312 0.0066588446 -0.05958899 -0.0009358425 -0.44644254 0.22664481 0.37221718 -0.101558074 0.007259576 -0.042997602 0.00024404553 0.31441796 0.20925844 0.29831448 -0.006430734 0.004648088 -0.03650736 -0.0038427454
0.10630533 0.26932192 0.03359134 0.2587158 0.0072218883 -0.085735574 0.00064382685 -0.55813557 0.03429526 0.3332583 -0.59919345 -0.011845105 -0.039987236 -0.0006344947 0.33547083 0.045238078 0.30059257 -0.18649212 -0.016542662 -0.13496901 -0.0018302593
0.036052775 -0.14751464 0.030127864 0.110848635 0.0024601945 -0.087575465 -0.006001961 0.44597548 0.25412753 -0.54745775 -0.040493343 -0.0034561772 -0.15952078 0.01973873 0.10475617 0.36056453 0.09896519 -0.06030526 0.041090243 -0.06171135 0.0017644892
-0.007490193 -0.39833492 -0.03118429 0.15866874 -0.015820006 0.04627666 -0.0013095101 0.11880722 -0.09909911 -0.07455133 0.16333976 0.062111497 0.06965541 0.0016601244 -0.48357338 0.404308 -0.032858152 -0.20661564 0.010611492 0.051178496 -0.0005966988
0.00023042347 -0.022740366 0.005979057 0.27652273 0.3769663 -0.68746233 -0.02289823 0.07487308 -0.015730202 0.07563463 0.6158993 -0.31729183 1.0894084 0.04942285 0.014548994 -0.044466674 -0.05801675 -1.1145083 1.395175 0.7025367 -0.0002539692
0.003188845 -0.1605633 0.00027864854 0.1583907 0.0032142384 0.01402741 -0.0034535225 -0.0032297904 -0.42491502 -0.003001435 -0.10087998 0.003002816 -0.016433557 0.00265931 -0.30307168 0.353203 -0.09264077 0.03905293 -0.00048763544 0.032859653 0.00081479
0.037151143 0.05318737 -0.037769347 0.20416541 -0.004764448 0.023264801 -0.0006462988 0.08357777 -0.3978528 -0.078724094 -0.23958561 0.005792479 -0.007433236 -0.0013820521 -0.49258262 0.57079667 -0.4473579 -0.34497637 -0.005460328 0.0505808 -0.00037010497
0.056761824 0.083882116 0.037175417 0.3076643 -0.023416806 -0.034558803 -0.0038975214 -0.24257527 0.38485104 0.10859133 -0.6269917 0.035514608 -0.04213648 0.006072381 0.31946602 0.1874257 0.047373455 0.04082692 -0.037569866 -0.08583337 -0.0025187794
0.006021127 0.1030306 -0.0010392054 -0.34351736 0.006570102 0.019231107 -0.00068448356 0.0027196528 0.13983281 0.014303575 0.6281367 -0.055433717 -0.013385277 0.0022861038 -0.34924906 -0.084798634 0.06604613 0.009987991 0.008073838 0.060532976 -0.0015732809
0.24858424 0.013127463 0.06617824 0.27421403 -0.017229626 -0.17182928 -0.002892877 -0.46504888 0.21267195 0.06266181 -0.34396738 0.08843167 -0.06267361 -0.001288104 0.45366183 0.3498746 -0.23212822 0.1807417 -0.042620327 -0.2535366 -0.0020189253
0.073664255 -0.15913971 -0.017088685 0.37615407 -0.012440201 -0.3358968 0.0074413694 0.14781727 -0.11418287 0.28168586 -0.25765696 0.39422444 0.40715653 -0.020867249 -0.30259836 0.25028494 -0.34496993 -0.112185076 -0.036439467 -0.08368711 0.000964116
0.02047527 -0.23593521 0.008655481 0.40127417 -0.0033854567 -0.056090314 0.0031225313 0.024664074 -0.41119382 -0.1251594 0.14107037 0.09426309 -0.30802616 -0.008665849 -0.50817966 -0.21280587 0.11258674 0.052191827 0.2169409 -0.2577787 -0.0023308515
0.010732213 -0.42431092 0.00076882535 0.1483017 5.6252124e-05 -0.051812023 -0.0011349258 0.09464605 -0.037677906 -0.11653324 -0.50239974 -0.035489034 -0.0070057227 0.00032313773 -0.5744221 0.106493466 -0.7685694 -0.55462563 0.028659804 -0.07341899 -0.0043110284
-0.12542117 0.111792654 0.109969616 0.19089724 0.049462542 -0.018284002 0.005859557 0.23520255 -0.01721531 -0.5980229 0.14153384 -0.5054757 0.37327036 -0.017623391 -0.064697534 0.12135861 -0.025762036 -0.24996129 0.045678537 0.2328238 -0.001141655
0.010991883 0.08091606 -0.013979341 0.36412966 0.005706172 -0.2452406 -0.0058748024 -0.018754575 0.5735151 0.025352824 0.50108427 -0.018583553 0.25085804 0.011668028 -0.6602916 0.16577186 -0.30852783 -0.18137726 -0.3207941 -0.07775329 -0.00073124614
-0.013017428 -0.12747237 0.0017220393 -0.091364704 0.028782945 -0.11044922 -0.0060089673 0.3559659 0.2412788 -0.030555397 0.09939154 -0.29191107 -0.34381104 0.0155916205 0.2386746 0.34097314 0.40221986 0.045229793 0.13962026 -0.2583496 -0.0024820042
0.25508502 -0.1813816 0.048902504 0.18718414 0.003478965 0.047291745 -0.0063116886 0.17495655 0.17235453 -0.6271479 -0.18221486 -0.09641093 0.04750042 0.014198816 0.4797091 -0.77798957 -0.32018656 -0.3461243 -0.07787348 0.06315786 0.0008297018
-0.0045035616 0.23803203 0.0040726634 0.22711572 -0.0079050185 -0.082350865 -0.0038899747 -0.00822636 0.4562408 -0.00045017956 0.13429463 0.007856122 -0.09285385 0.010546693 0.34021536 0.15758856 -0.1318822 0.06484562 -0.077327825 0.04102047 0.00023063776
-0.06897135 -0.009252204 0.0059174863 0.112008095 0.014404713 -0.025055148 -0.0037805678 -0.4493488 0.21318312 0.56767714 -0.021257013 0.033653963 -0.023383511 0.0027445864 0.10307721 -0.1736319 0.073327474 0.105648294 -0.0019458914 -0.07862193 -0.004411523
-0.16001065 -0.089729376 -0.28970748 0.20109063 0.12730576 -0.21669199 0.013696081 -0.23714763 -0.016659312 -0.054364473 -0.098049484 -0.51407754 0.08302228 -0.022740679 -0.15372372 0.49707285 -0.07440222 -0.4125105 0.1210261 -0.048743796 -0.0010512474
-0.017392317 0.3954216 -0.39090043 0.2388283 0.008538379 -0.020535963 0.0009938598 -0.04193469 0.08124811 0.33841863 -0.3385602 -0.026984887 -0.012423149 -0.001220722 -0.56583655 0.1554691 0.67716044 -0.16971558 -0.00054398505 -0.01993249 0.00071300945
0.0053392947 0.107614554 0.0037056278 0.4556462 -0.004290285 -0.12502944 -0.0010062793 -0.021297442 0.6270066 -0.011249124 0.25623244 0.019869713 -0.0888006 -0.00020494523 -1.2874068 -0.32243407 -0.23572282 -0.30997062 0.0096762935 -0.18689297 0.00040125113
-0.016540224 0.3498056 0.02142147 0.46387255 0.0038101021 -0.0056246654 0.00066137966 0.032165427 0.0851283 0.028184207 -0.24283081 -0.027972586 -0.08025548 0.00025039466 0.019332003 -0.634869 1.6009476 -1.3374038 -0.14213276 -0.108013116 -0.00080855447
-0.114774324 -0.1801422 -0.049348366 0.2884764 -0.0034285532 -0.014898092 -0.002768944 -0.23773387 -0.2053 0.31864572 -0.2598777 0.03734219 -0.03726503 0.0050776424 -0.2989852 0.2397412 -0.14102262 -0.12982193 -0.05094063 -0.0051837466 -0.00029102655
0.15696464 -0.0616881 -0.17932111 0.5073989 -0.0011266151 -0.077860996 -0.00016331267 -0.92248094 0.38866276 -0.103861935 -0.13286386 -0.008866673 -0.020077962 0.0025278993 0.5962918 0.04209835 0.16235106 -0.31597626 -0.0138543155 -0.11629588 -0.00022559077
0.0027704882 0.08663552 -0.003912458 0.08628807 -0.014986494 -0.2491602 0.008038846 -0.008975779 -0.03482583 -0.010007815 -0.5050453 0.031741876 -0.34069604 -0.011420179 -0.07508877 0.38426667 -0.032554198 -0.11779572 -0.15411887 -0.39184615 -0.006588509
0.31243712 0.43085933 -0.013048043 0.039539494 0.02063852 -0.16791047 -0.0013884611 -0.43322656 0.2643688 0.23418458 0.3064184 -0.11519325 -0.22953472 -0.0025411732 -0.05713367 -0.53669137 0.8324019 -0.8550673 -0.28174457 -0.3975375 0.002755904
0.043863766 0.26950625 0.042171992 0.22646219 0.010554131 -0.16662548 -0.0025359273 -0.5942418 -0.5699239 0.55532426 -0.16714662 -0.06128218 -0.081768036 0.0058155875 -0.29879886 -0.31545067 0.5058102 -0.33355373 0.008882226 -0.26224726 -0.003527594
-0.011796149 0.03601821 -0.004741869 0.025816442 -0.38816145 -0.4984812 -0.042573426 0.02014726 -0.05290828 0.027363278 1.7246455 0.48626915 0.9114198 0.090931505 0.0140512325 0.107406326 -0.035206173 -0.9320944 1.3048244 0.8327716 -0.0021690063
0.019090641 -0.5201459 0.018374816 -0.03998495 0.0014275498 -0.072773844 -0.0027459613 -0.07944001 0.43045467 0.056818582 0.10011589 0.053555742 -0.057383277 0.005697071 0.23632234 0.46826413 0.17155655 -0.13652277 -0.10597963 -0.24651736 -0.0013832726
0.032887615 -0.2802841 0.033593934 0.14824076 0.0032188168 -0.054641556 0.0018343481 -0.0010401205 0.55912185 -0.073817484 -0.24832244 0.015460864 -0.05323111 -0.00092938985 0.28859803 0.33403745 0.3627737 -0.31476608 -0.101911224 -0.16458812 0.00046072662
0.010562689 0.1899507 0.0025369255 -0.093951546 0.00023350412 0.024319623 -0.0022207827 -0.0074180122 -0.651842 -0.0013280796 0.6654461 -0.009143291 0.040487103 0.005304163 0.12278597 0.0473447 0.042387865 -0.17995496 -0.017407877 0.03416339 0.00030925378
-0.28172255 0.18912596 -0.034669146 -0.06971915 0.004856045 0.02443763 -0.0016043944 0.37553495 -0.36274812 0.09062167 0.4932487 -0.0039468016 0.018287264 0.0043314854 0.46002415 -0.1691142 -0.06295134 -0.048650503 -0.008483203 0.023008352 -0.001684289
-0.00062764506 -0.30532792 0.24454497 0.17014791 -0.0069758045 0.10652779 0.0045718807 -0.054974925 0.27654627 -0.31092834 0.06990196 0.026642438 0.09786002 -0.005517224 -0.04143123 0.4231789 0.2249255 -0.20327102 -0.001387533 0.1125148 -0.0022575173
0.12862432 0.042367086 -0.0112361 -0.020785775 -0.0027269456 -0.13157661 0.0040049525 0.30957147 -0.020841971 -0.4574804 -0.2558657 -0.028403081 0.0270111 -0.012119616 0.15899527 -0.10617881 0.047273155 -0.2098324 0.14805451 -0.10999145 -0.0018651487
0.05694011 0.17684282 -0.010030252 0.21822521 0.0069628037 0.034887977 -0.00943841 -0.14614108 0.18770275 0.10597824 0.034017436 -0.029495252 -0.062882334 0.018528817 0.49730405 -0.24289319 -0.52146786 -0.0117745595 -0.0048487126 0.14394166 -0.00040089816
-0.020294396 -0.10761028 -0.014991363 0.1749543 0.054846123 -0.16203457 -0.008701517 0.05660428 -0.4385927 0.028381366 -0.30995703 -0.08180379 -0.2959521 0.019456916 -0.17759687 0.32288128 0.010835689 0.2788694 0.06055594 0.007834925 -0.0025902109
0.035885267 -0.32712415 0.027085563 0.21412514 -0.006870777 -0.008668908 0.004488832 -0.18448022 0.19776352 -0.11186572 -0.37245908 0.18049604 -0.069457404 -0.0063183373 -0.11479404 0.4216862 -0.19905744 -0.24092247 -0.085321866 -0.10299349 0.0008430605
0.00068487425 0.40938324 0.0034413422 0.42040172 0.0012601919 0.042173136 0.00063820253 0.013505019 0.08023674 -0.020337285 -0.06731281 -0.014785698 0.0751593 -0.0010424037 -0.33381233 0.69044363 -0.038143452 -0.93275374 0.017376352 0.0036247557 0.00272431
-0.026095347 -0.06665838 -0.048430108 0.07525585 -0.051924203 -0.42721343 -0.013252802 -0.2525304 0.0629497 -0.22301637 0.2621691 0.08824283 0.23405974 0.026993826 0.007197513 -0.048212845 -0.035465878 -0.9028244 0.7654376 0.1803241 -0.007643314
-0.17332703 -0.39998686 -0.18875845 0.3889099 -0.18902418 -0.08755686 -0.0010159282 -0.18680783 0.0336575 -0.13279429 -0.15113862 -0.04850004 -0.40062642 -0.00065941206 -0.17880467 0.45942995 -0.109270595 -0.14231485 -0.058106076 -0.21291079 0.0026455985
-0.053780492 0.3473399 0.039018225 0.009103796 -0.031786546 -0.5220498 0.00033937945 0.07119209 0.46916398 -0.09930004 0.13221358 0.05929348 0.5253454 -0.0003788159 -0.063476264 -0.3383186 0.6416035 -0.9614391 0.6202534 -0.25567397 0.0008045067
0.007056645 0.089314885 -0.011507237 0.1406271 -0.0055815955 0.15692121 0.011129403 0.21916161 -0.09400672 -0.21454345 0.24862032 -0.014780159 0.3279587 -0.017230563 0.028202591 -0.43943885 0.048056744 0.16677327 0.053359166 -0.26532578 0.0029536216
-0.016715327 -0.27058288 0.20804322 0.29198816 -0.15007754 -0.14027642 0.0024443902 -0.41475227 -0.02894302 0.30414784 0.09689037 -0.07860321 -0.52934676 -0.001910789 -0.37220225 -0.044274714 -0.026061136 -0.02129571 0.3599643 -0.30787355 -4.4659257e-05
0.015730903 0.09030941 0.007357203 0.078585014 0.018417452 -0.2067709 -0.0029939048 -0.35700643 0.26818934 0.3003722 0.13819456 -0.3824129 0.23715664 0.0055229343 0.38087523 0.006477962 -0.24199328 -0.030374423 0.028954517 0.09967697 0.0038534498
-0.006221502 -0.10171116 -0.008858367 0.13530175 -0.004805849 -0.18218334 6.1290884e-05 0.010189522 1.1260034 0.022902314 0.37764546 0.048832968 -0.022048667 -0.0030612152 -0.23309165 0.95572346 0.13662866 -0.17115842 -0.0021853666 -0.33499148 -0.0020052663
0.0063394373 0.089850135 0.008950824 -0.17756906 0.00086519885 -0.035936147 -0.0037342303 -0.011219564 0.30357286 0.01666165 0.38414007 -0.034755558 -0.025524508 -1.566199e-06 -0.435347 0.23323537 -0.007578452 -0.15904954 0.023133393 -0.016509961 -0.00010040233
0.021602197 0.42035362 -0.0064332928 0.3112039 0.029424332 -0.24442303 -0.0006419797 -0.15858053 0.47623903 0.148663 0.28060594 -0.16147676 0.06456447 -0.004611738 0.64850223 -0.049234785 -0.13640234 0.24351113 -0.16119145 -0.26162878 0.0067907213
-0.12648028 0.053446654 -0.06357632 0.055825595 0.0025950326 -0.051319897 -0.00062018 0.86445946 -0.015615462 -0.21763736 -0.06817942 -0.006170568 -0.02053083 0.00010410511 -0.05665923 -0.046547852 0.10186852 -0.11278974 -0.0019322649 -0.09536277 0.0018777688
-0.1891894 -0.11317899 -0.229083 0.2943283 -0.19592036 -0.09270682 -0.0040172185 -0.06431133 -0.04922737 0.040167566 -0.015577296 0.0047442457 0.11505041 0.0079582175 -0.044421095 0.3721082 -0.022990933 -0.23455986 0.03426996 0.08665287 0.00076932675
-0.042529624 -0.11246823 0.22551236 0.22598186 -0.007798735 0.05373983 -0.0019576086 0.10488065 -0.35564166 -0.33226678 0.01854688 0.021660386 0.03343757 -0.0010952831 -0.5310957 0.4108821 0.30370727 -0.27341473 -0.022857098 0.017307214 0.0054410156
-0.030018233 -0.2238404 0.026428977 0.14756526 0.0051497887 -0.107941635 0.0031488577 0.23338893 -0.37406912 -0.043731388 0.18339896 4.565504e-05 -0.08209935 -0.0003235528 -0.44078302 0.11993299 0.05010518 0.15172058 -0.025755122 -0.1068847 0.0016782408
-0.004664231 -0.102451965 0.007568574 0.47584984 -0.0027864936 0.005363974 0.0005605215 0.007395364 0.0355695 -0.0372312 -0.32826015 0.012063465 0.0021609643 0.0025666656 0.78865176 -0.5771173 0.64469033 -0.40639803 -0.011454531 -0.014793081 -0.0006360242
-0.023259543 0.26255226 0.01426489 0.34766656 0.019338878 0.017996533 -0.0019393456 -0.04206932 -0.57227904 0.06329676 -0.46630064 -0.02684162 0.0691221 0.0045585576 -0.3337393 0.4772675 -0.33125964 -0.3729412 -0.002736499 -0.045518328 0.0011698175
-0.0115062315 -0.026961915 0.011403239 0.1756359 0.006423265 -0.16776125 -0.002418974 0.2987354 0.038532156 -0.5022067 -0.51904225 0.038637668 -0.025376681 0.004350344 0.023422565 -0.048864357 -0.009599309 -0.09390563 0.05078143 -0.35696605 -0.0009800182
-0.017489165 -0.0851178 0.0016801135 0.25040334 0.0064273905 -0.073542714 0.008305349 0.04225337 0.64054555 -0.026045391 -0.25773448 -0.005289383 0.09062844 -0.019791504 0.09151102 0.30602106 0.09502581 0.006711832 -0.0694794 -0.15785533 0.00065310695
-0.022639297 0.025255278 -0.03628879 0.056473486 -0.016828211 0.09639032 0.021201674 0.11940314 -0.053581566 0.015587072 -0.0023717342 0.09557226 0.47695425 -0.02737774 0.028166585 0.09859152 -0.02595792 0.12822308 0.29947165 0.22862898 -0.0016308423
0.09646555 0.006029946 0.005932257 -0.20523663 0.006946494 -0.16369544 0.0011800607 -1.0110091 0.029894508 0.36538056 0.2721821 -0.02352577 -0.048947364 -0.0016368729 -0.06650644 -0.038184892 0.0028796887 0.17577425 -0.0046610124 -0.2796062 -0.002253964
-0.0021828678 0.7353203 -0.021425713 0.10777473 -0.005093233 -0.09749373 0.00024723032 -0.020834852 -0.39870286 0.056799203 -0.31221575 -0.033101115 -0.044445578 -0.001963513 -0.66729385 -0.16566288 0.37786645 -0.25504792 0.041996464 -0.12588693 -0.00032717208
-0.05623399 -0.12578642 0.024352027 -0.062030163 -0.0062979953 -0.106930844 -0.005983333 -0.5328709 0.30087307 0.35422766 0.1753563 0.12813817 -0.23990694 0.01861952 0.12024561 0.18299404 0.21045974 0.111471385 -0.020027855 -0.16176909 0.0022813969
-4.4050867e-05 -0.07040678 0.017903378 -0.019709637 -0.0032373166 -0.049858514 -0.00087845995 0.0057190857 0.0765561 -0.03965018 0.700236 0.03008189 -0.0018820752 -0.0041833264 -1.4729 -1.0011511 -0.4685984 0.12859742 -0.013835916 -0.10333963 -0.003691987
-0.0030548654 0.0684665 0.0032633704 -0.44015425 0.017418215 -0.0001824273 -0.0013291669 0.052228846 -0.37565166 0.0357679 0.62591565 -0.12016784 -0.012521815 0.006240129 0.3516599 -0.0024835689 -0.018348247 0.016736569 0.01961136 0.044042774 0.0010625913
0.1307556 -0.050135467 0.31107527 0.29819706 -0.005521931 -0.09865534 0.0032563866 0.14817251 0.03775749 0.0207869 -0.35790968 0.1114554 0.053623617 -0.007269192 -0.15392426 0.5209084 0.104846574 -0.51019603 0.117777385 -0.02569621 -0.0010090669
0.011216268 -0.036730908 -0.0060590515 0.07281638 -0.0015639514 -0.2404093 0.0059432564 -0.031138213 -0.44650263 0.009508271 -0.6013005 0.017355232 -0.01729442 -0.014093488 -0.017045153 0.4413598 0.44402608 0.02604991 -0.061818037 -0.36597714 -0.0024739418
-0.01920267 0.29012465 -0.008644014 0.24766672 -0.0017185255 -0.083817 -0.00035526007 0.038017202 1.1308649 0.021548396 0.70560616 0.018192297 -0.039804373 0.004398545 -0.44292393 0.52312505 -0.06475429 -0.0843254 -0.016844125 -0.18207031 0.0008907067
0.017062832 -0.39356643 -0.0047953227 0.1331745 -0.011345679 -0.01715686 -0.00037963674 -0.03688955 0.5771804 0.012143828 -0.049726725 0.010366022 -0.018600335 0.0028434668 -0.338076 -0.49844605 -1.212181 -0.48960254 0.011102768 -0.0056665502 -0.0016226568
-0.003964694 0.029934065 0.0018089055 -0.44962537 0.055703714 -0.046394747 0.0024846555 -0.0034294713 -0.027666233 -0.024572248 2.065543 -0.3531004 -0.069325335 -0.0007652346 -0.013055882 0.044317253 -0.027716158 -0.1804721 -0.1873528 -0.14685269 -0.0027141226
-0.0671074 -0.06786544 -0.14718825 0.11401597 -0.2112023 -0.107965976 0.0019129262 0.6310947 -0.077709645 -0.34062704 0.015874635 0.14844763 0.02790879 -0.0027472784 -0.15010943 0.07739281 0.094182834 -0.124521 0.23354796 -0.046645198 -0.0001716618
-0.28059483 0.06299669 -0.02239288 0.18263596 0.018765334 -0.030806841 -0.007233654 0.35377404 0.26623628 0.0968672 -0.16777033 -0.06232045 -0.18721424 0.008252373 0.41744134 0.3312312 -0.41881144 -0.004222088 0.047845595 0.10030322 -0.0029412003
-0.018725295 -0.26132897 0.009106155 0.20277451 0.011059556 0.037639897 -0.0015611708 0.23574676 0.022351041 -0.22250879 -0.5578103 -0.017085092 7.3795316e-05 0.006277457 -0.2594148 0.11428779 -0.22483414 -0.1554121 -0.013747304 0.063622 0.0017938557
-0.3181758 0.39805743 0.05130695 0.06896659 0.08569824 -0.089848965 0.005287545 0.23243672 -0.18739936 0.2975007 -0.4364694 -0.1870304 -0.03621638 -0.00831354 0.33205545 -0.050353747 0.100321166 0.04130688 -0.049674798 -0.09778963 -0.0044697444
-0.03831148 0.118824854 -0.00235974 0.052182946 -0.009760752 -0.11400095 0.022617033 0.05217989 -0.06454979 0.004347411 -0.44370946 0.07541489 0.28923243 -0.048412066 -0.029842107 -0.15386216 -0.030207435 -0.2981401 -0.43253413 0.13684882 0.0025776075
0.042266075 -0.06519585 -0.0004079018 0.15117973 -0.011499624 -0.078778744 -0.0008658642 -0.52023965 -0.005552749 0.4387893 -0.33549875 -0.0022347409 -0.018260764 -0.0012375487 -0.22003534 -0.0041528028 -0.15213026 -0.32836252 0.040020358 -0.111646205 -0.0015738606
0.0121158855 0.44773406 0.013721822 0.009887031 0.002739021 0.02794927 -0.0016736534 -0.02719269 -0.5407254 -0.013102637 -0.20720884 -0.030619571 -0.027256595 0.0037797135 0.112529874 -0.47562656 0.8216387 -0.43294445 0.013452914 0.09554387 -0.0022047416
0.19529104 0.030384699 0.014318927 0.27248842 -0.03390005 -0.04632082 0.0034150262 0.07569856 -0.004986219 -0.2848238 -0.41065478 0.18484572 0.15529 -0.007690788 0.093399286 0.3145364 0.22772399 -0.04735346 -0.14787476 0.017703518 -0.0011746025
0.021319194 0.31776476 0.050575733 0.2074241 -0.008801631 -0.08801398 0.0019592405 -0.14821203 0.042516477 -0.014617586 -0.06385354 -0.00020753138 -0.00087602896 -0.004327192 0.49235135 0.31101018 0.09774721 0.022201715 0.027092092 -0.17736425 -0.0013863032
-0.008040825 -0.05632557 0.04102051 -0.33571804 0.033511437 -0.08741524 -0.0032529228 0.40991372 0.06784824 0.3410492 1.1755812 -0.20585932 -0.016806241 0.0061280187 -0.005599586 0.09544697 -0.028249102 -0.35577998 -0.11974127 -0.15128529 0.0022011646
0.0020501064 -0.16329601 -0.0032275643 0.14871866 0.0060680714 -0.101279676 -0.007490993 -0.009437951 0.24733457 -0.006306486 -0.06512953 -0.012163945 0.15834375 0.019505532 0.02815208 1.0200744 -0.025191035 0.29350987 -0.27232826 0.23305252 -0.0008271698
0.009683029 0.43929443 -0.0056271986 0.015312124 0.01147203 -0.15823257 0.001862158 -0.035020366 0.11172503 -0.014418692 -0.31215033 -0.010484762 -0.097977206 -0.0002767397 -0.07453907 0.3404928 -0.4139652 -0.56784683 -0.022476453 -0.21919042 -0.004274209
-0.06644927 0.117728844 -0.08855996 0.09728895 -0.00055614446 -0.41978624 0.0070155147 -0.12007061 0.037250463 -0.21671543 0.034373336 0.28325644 0.33420518 -0.013573073 0.3808449 0.35261208 0.358645 -0.011380054 0.040914632 -0.21913221 -0.0042389804
0.046440303 0.09881601 0.028408028 0.27522564 0.005990723 -0.018103683 -0.0009648659 -0.40479118 0.19464944 0.26208237 -0.09952228 0.021674555 -0.047036607 0.0016900668 0.2611843 0.20399672 0.20534709 -0.13947845 0.00067559216 0.03150698 -0.0021584833
0.0032485616 -0.47608003 0.0030411512 0.6851206 -0.0016453333 -0.005271322 -0.0019646478 -0.0052764076 0.287753 -0.0060178023 -0.48699003 -0.021867447 0.066235274 0.0071238517 -0.19103327 -0.6750844 -1.8623357 -1.486884 0.0047182497 -0.03579859 0.0011054175
-0.008502982 0.084494434 -1.0230163e-05 0.37271193 -0.023569198 0.09375866 0.0077436245 0.01467524 -0.09644831 0.02770396 -0.08821773 0.06328458 -0.07239674 -0.012630712 0.05183988 0.9830541 0.014991523 0.5724784 0.31475678 -0.45604566 0.009462449
0.363708 0.10707553 -0.25031793 0.1737277 -0.063767016 -0.06300522 -0.01304534 -0.7318697 0.19580452 0.15732288 -0.30880806 -0.06855354 -0.25103855 0.029307934 0.14091437 -0.28549466 0.10146814 0.07357953 -0.06961805 0.024618534 0.0025938356
-0.1926008 0.4125893 -0.02816306 0.25241762 0.04231376 -0.09826539 -0.0044317837 0.36760482 0.08178076 0.35740927 -0.030323638 -0.15455309 0.25932562 0.0092210425 -0.047284305 -0.51220995 1.528744 -1.0245894 0.15972611 -0.08544499 0.003364139
-0.033442292 0.14613505 0.022735579 -0.14537941 0.013652506 -0.07679041 0.0022934938 0.4748766 -0.32682988 -0.37431815 -0.1921481 -0.037494734 -0.039788615 -0.005416506 -0.1962062 -0.038700584 -0.22330208 0.021731826 0.050512712 -0.10926604 -0.0014005352
0.0035938658 -0.2639119 0.0029445707 -0.3908067 0.025202472 0.108142 -0.0033366354 -0.006821772 0.06449143 -0.035808135 0.9010635 -0.25273094 0.095185086 0.004671055 0.4919626 0.015022674 -0.14505553 -0.26795557 -0.041369412 0.11713676 0.0018949066
0.0035683252 -0.06494911 -0.006039221 0.3839713 0.0012585035 -0.043976504 0.0016005137 -0.0019184608 -0.54493976 0.015751738 -0.14943375 0.0017196566 0.0012682204 -0.0031373804 -0.25102317 0.6164912 -0.11430386 -0.07522583 -0.011331294 -0.07012474 2.2900686e-05
-0.00035054632 0.26625794 -0.014065225 0.016342614 -0.006134074 -0.21518743 -0.005072028 0.00038656776 -0.19281882 0.044267986 -0.7050947 0.0312642 -0.07122625 0.008472781 -0.09829971 0.04143827 0.090108335 0.20407078 -0.03369787 -0.3413181 0.0031677657
-0.0011192191 -0.39522523 -0.0060005756 0.18225129 0.0071354276 -0.020347314 -0.003596663 -0.11483669 0.18346971 0.11556456 -0.57156 -0.015768379 -0.03299678 0.0063299052 -0.33975622 0.11853208 -0.3338938 -0.19311169 0.0037004505 -0.03149408 -0.0025357853
0.011780052 -0.15571517 -0.0039903573 0.17416158 0.00076153455 0.013900806 0.0010990729 -0.033235848 -0.3675083 0.0051124156 0.08149597 -0.027670259 0.04275498 -0.0005851859 0.3854912 0.5977891 0.07978591 -0.4811086 0.008639525 -0.01932812 -0.00022691804
-0.013853043 -0.16527937 -0.0077944887 0.16151297 -0.0037988902 0.0097273 -0.0032452508 0.015072241 0.20827882 0.008428879 -0.065698445 -0.012950049 0.0038384309 0.0047346842 0.3027389 0.6346715 0.21877538 -0.29668665 0.0075226296 0.018872462 0.0005240273
0.43327418 0.06651414 0.056586456 0.20105912 -0.010118574 -0.03347981 0.0013353863 -0.5933031 -0.4039485 -0.1863112 0.1137779 0.03542598 -0.055368543 -0.0011271948 0.6702656 -0.36495042 -0.10127544 -0.05508013 0.015323481 -0.041868065 -2.3578716e-06
0.06781598 0.042613752 0.0057124947 0.09102444 -0.0028882583 -0.11561382 0.0023529194 -0.12400645 0.29425013 -0.13458723 -0.3909647 0.035637833 -0.025395926 -0.007742024 0.08111109 0.36358768 -0.40013003 0.26580152 -0.04380201 -0.15367337 -0.0022737342
0.44394216 0.105451465 0.014419512 -0.0480166 0.0030843809 -0.119946435 -0.0015083337 -0.53054327 0.4762433 -0.0046171704 0.4701904 -0.011351872 -0.058415703 0.0037823112 0.47177124 0.16577499 0.07959608 -0.12184356 -0.019918963 -0.1704002 -0.0015277268
0.06299231 -0.32854912 0.05478378 0.105299816 -0.013936654 -0.07612398 -0.0024096337 -0.4794142 0.38013092 0.24116892 -0.40477243 0.016320724 -0.020090556 0.006802354 0.07988606 0.14724174 0.08016337 -0.19453195 0.041863456 -0.13348672 -0.0009093762
-0.0180258 0.13654158 -0.036705557 0.005328172 0.039621875 -0.25535765 0.008845183 -0.44279364 -0.22574343 0.38223073 0.26512307 0.367702 0.3263448 -0.017415045 0.008401553 -0.034457058 0.39709666 -0.073394395 0.32000858 -0.0078045605 0.0028847365
-0.0882448 0.28325126 0.0065927566 0.25706786 -0.03725977 -0.26613942 0.0004520867 0.2890294 0.5865374 -0.20225461 0.2617204 0.19150622 0.04893002 0.00048630472 0.68652695 -0.0748699 -0.17696884 0.28038174 -0.14667644 -0.24818695 -0.00041145133
0.03140348 -0.21001762 0.016712256 -0.007069121 0.002740102 -0.07953901 -0.000106921776 -0.38881716 -0.15443441 0.29536158 -0.15150264 0.032422144 -0.0061385315 0.0031800154 -0.29609293 -0.29409477 0.14221112 0.26926476 0.054969516 -0.07207065 -0.0056295167
0.00024995246 -0.9887088 0.01253387 0.44272837 -0.012415889 -0.030316612 0.0015470271 0.03667887 1.8900257 0.0012836598 -0.39716485 0.07352175 -0.014702768 -0.0011186014 -0.95415175 -0.6910302 -0.22285649 -0.2522941 0.006572592 -0.08258471 0.0015568391
-0.037630007 -0.31851637 -0.14660637 0.08245396 0.0033314235 0.045080934 -0.00054339826 0.30211487 0.29392114 0.28239593 -0.10887928 -0.01062545 0.037329365 -0.0035923405 -0.10832981 0.34346503 0.024313772 -0.014956942 0.014824539 0.0707902 0.0011625431
0.16526571 0.38715065 0.028087702 0.17320338 -0.035321925 -0.15774548 -0.007843968 -0.30499837 0.09903436 -0.3400166 0.016511248 0.111693256 0.17865445 0.012691511 -0.052660853 -0.4793263 1.4546186 -0.8777182 0.16408302 -0.16298963 0.00052818854
0.16699278 0.036977958 0.3661502 0.34597403 -0.008706667 -0.0014545214 -0.0014920388 -0.9439149 -0.025795236 -0.1772107 -0.008748094 0.024408428 0.007342761 -0.00025399495 -0.14331244 -0.048490245 0.43494305 -0.41218626 0.017933408 0.008651028 -0.00019448838
0.010393472 -0.20680685 -0.012248137 0.35349914 -0.002761743 -0.025853569 0.00027164732 -0.023115462 -0.46396154 0.010170983 -0.4098884 0.025577048 -0.010559168 -0.0031082209 0.42700592 0.4319201 0.027765308 -0.18530242 -0.0077587655 -0.054745052 -2.1524125e-05
0.022078753 0.022982704 0.3259642 -0.014139986 0.0061928597 -0.13684362 -0.0035910252 -0.358957 -0.11232098 -0.124093905 0.23879564 0.2725751 0.1306414 0.0050144866 -0.17280625 -0.04953869 0.07350414 -0.13615754 0.1917601 0.10546111 -0.009682223
0.04306404 -0.17337967 0.0026929337 0.26828107 -0.0015176866 -0.027218351 -0.002271666 -0.10587606 0.6763705 0.036492344 -0.22021234 0.0042706006 -0.016062947 0.00083529326 0.2670172 0.4215447 0.14676702 -0.0031344264 0.008626881 -0.04481538 -0.0010172125
0.0041258372 -0.10739585 -0.07109214 0.21175589 0.0052068387 -0.11141844 0.010661398 -0.49635184 -0.04863172 0.40126005 0.19194902 -0.37505946 -0.42838588 -0.023533544 -0.089595415 0.044740688 0.43149543 -0.2042222 -0.030963272 -0.49695176 0.0046084444
-0.06657277 0.054912396 0.01021584 0.2830212 0.012806827 -0.11770111 0.0051142923 0.11114259 -0.34785852 0.048464123 -0.09681514 -0.016162602 0.287478 -0.0007927835 0.047473166 0.99975383 0.2658449 0.5303364 -0.2614585 -0.16163868 -0.004193314
0.005070322 -0.20386608 -0.06207587 0.16039403 0.021804035 -0.15252757 -0.005957708 0.110936806 -0.4078712 -0.09941088 0.01714474 -0.20739104 0.10774507 0.016280048 -0.39947698 0.18709028 -0.0024457474 -0.04707737 -0.14972277 0.050055265 0.0033543373
0.0098610725 -0.119914785 -0.059377227 0.34383997 0.00014650548 -0.21446359 -0.0006708425 0.05544445 0.43036297 0.16024931 -0.5330005 0.01934209 -0.093462795 -0.0002470212 -0.55756056 1.1841103 0.029529735 0.5233682 -0.035659555 -0.3249104 0.00020806934
-0.096077114 0.1344051 0.03039976 0.277752 -0.021336904 -0.10248249 0.0012274877 0.29543552 0.28828868 -0.2589477 -0.35134366 0.062304832 -0.029933406 0.0025340726 0.29962304 0.27837232 0.26831105 -0.13677427 0.017480493 -0.20724025 -0.0007911026
0.030394128 -0.16917975 -0.07367703 0.11670682 -0.0095266495 0.0036086 0.009477213 -0.1357404 0.26102746 -0.23063129 -0.31571123 -0.31003612 -0.2517971 -0.024134103 0.25206557 0.17953762 0.15934291 -0.114093974 0.004158125 -0.24070862 0.00541167
-0.14362513 -0.08300779 0.042801704 0.51239896 0.058234952 -0.27357686 0.004786327 -0.38098556 -0.33782765 -0.44149774 -0.12186684 -0.40966046 0.20979388 -0.0079017 -0.33974147 0.1948564 -0.23715252 -0.198009 -0.13443938 -0.13019855 0.0055173887
-0.0031104854 0.026183873 -0.075292684 0.46513453 0.0047993227 0.049759272 -0.0050820643 0.021847147 -0.46310636 0.037904836 -0.040041592 -0.020853842 -0.015600434 0.009140726 -0.42585853 -0.21159707 0.966021 -0.38004872 -0.0042415084 0.13565227 0.001618115
0.0072507686 -0.67581975 0.004527068 0.13149746 0.00010313905 0.021321226 0.0012073425 -0.014620593 0.67498726 0.0045994096 -0.44011384 0.0040394547 -0.012639304 -0.00012800595 -0.049608696 0.24146223 0.11963091 -0.68617535 -0.013899311 0.04642102 -0.0022343956
-0.013084892 0.3621487 0.0057090945 0.3604856 -0.00788079 -0.028094497 0.004414938 0.0021519244 0.3070531 -0.0074798185 0.1349355 0.01717626 0.07167247 -0.0072151734 0.49468508 -0.28809586 -0.007011218 0.3060916 0.049638636 -0.31224105 -0.0016757591
-0.13899088 -0.12120129 -0.21807684 0.17385118 -0.2406325 -0.49001467 0.0149183385 -0.15376283 0.041320987 0.07876329 0.101017356 -0.11609918 0.4053739 -0.024650428 -0.37699974 0.5265731 -0.29760003 -0.23975223 0.38192573 -0.24170735 0.002919044
-0.050920077 0.06000555 0.057091627 0.13274114 -0.01655136 -0.11194207 -0.0069108196 0.6194105 -0.2732173 -0.62036794 -0.32899284 0.09636382 -0.116100974 0.010829679 -0.25010487 -0.44421384 0.4537297 -0.18698332 -0.024402793 -0.17847407 -0.0023355605
0.036382444 0.17350444 0.0103754215 0.101446755 0.0019938732 -0.012449251 0.002984439 -0.53930676 -0.33290684 0.1931934 -0.15040036 -0.31573516 -0.22802366 -0.00718493 -0.14446312 0.19438799 -0.46372747 -0.1827146 0.048932213 -0.3111248 -0.010878707
0.07004711 0.12503485 0.22435005 0.26774198 0.028417591 -0.21451202 0.011071687 0.37491155 0.1279095 0.14608474 -0.13426003 -0.48292848 0.18419975 -0.028305292 0.21174285 0.104429714 0.14001948 0.08427841 -0.10124369 0.10479371 -0.010296727
0.307008 -0.19432707 -0.20624068 0.47503778 -0.009979048 -0.05073611 -0.0022686599 -0.40651044 -1.1049951 0.14272915 0.32384074 0.021670977 -0.058492407 0.0040818565 0.6081806 0.3886303 0.04386189 -0.33421645 -0.025207901 -0.07036458 0.0019070841
-0.06200132 0.21951567 0.009440784 0.2101161 -0.009732732 0.041767 -0.0017425485 0.24540997 0.022446461 -0.16954498 -0.38251972 0.003931206 0.028569635 0.0027809555 0.2447644 -0.011715825 0.1711236 -0.15398286 0.039716583 0.07619424 -0.002246506
-0.0067416877 -0.5194363 0.0052530207 0.1955007 0.003018628 -0.088477544 0.0011542876 0.024089282 -0.05234688 -0.013657402 -0.26476288 -0.04399426 -0.102150634 -0.0003724808 0.49684998 -0.20513111 -0.24310923 -0.37305725 0.027914414 -0.08483816 -0.0015046619
0.039932724 -0.17313527 0.02496842 0.22423005 -0.0032357269 -0.004671083 0.00029973837 0.12014342 -0.30839297 -0.25538224 -0.3506975 0.016982138 -0.0010427865 0.0013659578 -0.36797014 0.1880548 -0.099934764 0.035246134 -0.0031808247 -0.026144052 -0.0027125373
-0.0047326055 -0.13019697 0.014034237 0.456905 0.0020274702 -0.13138162 -0.002950525 -0.00043461577 1.0408111 -0.04208034 0.1261525 0.015484349 -0.06361766 -0.001022176 -1.4926833 0.025096802 0.28121728 -0.33828685 0.019781146 -0.18866862 -0.0037967975
0.011001861 0.15253147 0.020803276 0.48973504 0.008488055 0.08172374 -0.00010258359 -0.12539907 0.35644314 0.042109497 -0.6089064 0.019684387 0.19992903 -0.0026415759 0.083668105 0.16555473 0.32432553 -0.3082623 0.0032205838 -0.111581855 0.0004376337
-0.20781475 -0.018573653 -0.17474361 0.49362162 -0.0071022515 -0.097133726 -0.00029739278 -0.15873575 -0.27864817 0.034725342 0.27334517 0.043049555 -0.05309795 -0.0005493959 0.039914586 0.45454684 -0.026856387 -0.57533896 -0.038425136 -0.14469229 -0.0024649557
-0.05111863 0.0037965414 -0.007807278 0.10647969 -0.016333379 -0.101672575 0.0004751993 0.09140053 0.07901957 0.013463575 -0.30775112 0.0073502706 -0.007435349 -0.0031914716 0.30653328 0.36308157 0.28066665 -0.29646596 0.017192231 -0.17000331 -0.001535494
-0.0069778324 0.19855991 -0.028709445 -0.04580916 -0.04588004 -0.05402864 -0.0018758219 0.38905063 -0.31819043 -0.23937568 0.18742305 0.28249013 -0.19118097 0.005773063 -0.13498771 0.08672319 -0.28214064 0.006023973 0.042296898 -0.15228462 -0.0041107414
0.0016814853 -0.013588725 0.07340178 0.06565242 0.23895948 -0.009762134 0.0082932515 0.010239581 0.047690827 -0.12485139 -0.13848679 -0.35158503 0.04749736 -0.01293877 -0.0013021859 -0.033004094 0.020665538 -0.1415495 0.40003055 0.09163333 -0.0014729372
0.008636866 0.17944591 0.027802225 0.19031574 0.041227195 -0.051738 0.001638242 -0.22075602 0.17141832 0.11435814 -0.28007522 -0.05710608 0.03089363 -0.006937515 0.34732464 0.020507965 0.46009994 -0.43776634 0.09670667 -0.04526995 0.0018189476
0.024372315 -0.022876725 -0.064819336 -0.03047449 0.027437033 0.00950417 -8.0515485e-05 -0.47210997 0.08349225 0.56227326 -0.33556896 -0.080359735 0.0013379008 -0.0035515507 -0.016958246 -0.16866924 0.055712942 -0.17399004 0.018880062 0.007174488 0.0019175969
0.001686581 -0.07231211 0.0034505 0.4009995 0.016432919 -0.038248 0.0049927374 0.014862474 -0.48331794 -0.041628353 -0.12724005 -0.054043375 -0.21222991 -0.009905727 -0.3972139 0.07654605 -0.3912226 0.047511082 0.24370486 -0.32615948 0.003974508
0.012899758 -0.079228535 0.20524482 -0.1175586 0.155481 -0.5429499 0.0062350915 0.14495306 -0.11398369 0.009725952 0.21771333 0.22418892 0.2674415 -0.0127366 -0.47375676 0.48748547 -0.22682294 0.0003709483 0.36371168 -0.43087888 0.002208725
0.0023214847 -0.18256886 -0.005194317 0.3687372 -0.00019274812 -0.092952855 -1.2210529e-05 -0.010229453 -0.50134516 0.014076904 -0.1755256 0.010192446 -0.0136876535 0.0009981022 -0.34007657 0.3331513 -0.05421388 -0.0096002165 -0.0005042573 -0.16577445 -0.004336539
0.02966733 -0.11573845 -0.09945397 0.17975949 0.009944773 -0.17557932 -0.0063360487 0.1684359 0.47197825 -0.07533558 -0.028393585 -0.23078397 0.056021247 0.019989863 0.3795013 0.4677155 -0.040520888 -0.037889495 -0.07986073 -0.015744649 0.0031922485
-0.00011742537 0.09360865 -0.006439965 -0.054225914 -0.0028151833 -0.09989303 0.0054924656 -0.03666672 0.04668883 0.039237283 -0.49138898 0.003024929 -0.12888063 -0.0001441432 -0.5071068 0.4618178 0.46129566 0.17372055 -0.026975008 -0.113490716 -0.00043010872
0.0029366743 0.14343637 -0.0011267611 0.009611177 -0.00038869452 -0.05122445 0.0027400898 -0.022938423 -0.064932644 0.033787943 0.049777124 -0.033440463 -0.05723511 -0.0041546104 -0.5703137 0.47475252 -0.6291215 -0.36305252 0.0018526741 -0.087621704 -0.0049689296
0.001749182 -0.026275724 -0.0010726628 0.08732895 0.0065164873 0.00769901 -0.0014319925 0.52772295 -0.03539595 -0.50209373 0.27766648 -0.009981819 -0.06096313 0.00020378377 -0.110935055 -0.12273738 -0.099183194 0.059785575 -0.030482167 0.057949606 0.00051002344
0.020160474 0.015344937 0.036819194 -0.39554176 0.036161598 -0.20501585 0.008371641 0.0202836 -0.10278329 -0.063797526 0.97432166 -0.18542998 -0.6235138 -0.023507368 -0.064113185 -0.10894995 -0.13260941 -0.040949363 -0.550456 -0.74753255 0.007474252
-0.15267208 -0.046358887 -0.0446196 0.1936772 0.004020886 -0.07827113 -0.0035405855 0.81253415 0.37454128 0.24003679 0.032517307 0.012322293 -0.026536157 0.008216618 0.4880469 0.04684208 -0.080203086 -0.015867513 -0.00045171895 -0.121645994 -0.00059285376
0.010851014 -0.08723175 -0.03742395 0.16186497 0.0071941735 -0.1524483 7.848758e-05 -0.33003688 0.081315905 0.5717037 -0.52024007 0.0021470762 0.017478459 -0.0011677885 0.021661572 -0.028606474 -0.034132995 -0.053682283 0.067331314 -0.38417163 -0.00015022434
0.039475475 0.08532496 0.0067540244 0.37024194 0.004039526 -0.044821206 -0.000578011 -0.035280254 -0.04544782 -0.0052140965 -0.40920958 -0.0037874398 -0.032501925 0.00025116862 0.38339892 0.5258733 0.2580485 -0.3115226 -0.014692938 -0.04723118 -0.0021546371
-0.023084883 -0.5297275 -0.01993096 -0.0035382712 -0.01730528 -0.038739584 0.00066304527 -0.037956096 -0.039685883 0.11842971 -0.0039531887 0.035567388 -0.026472932 -0.003191855 0.5959714 -0.09561796 -0.5303783 -0.24068977 0.011227575 -0.06240356 0.0021715413
0.07872588 0.0007523278 -0.026738869 0.13838503 0.004852423 -0.0024581247 -0.0024073978 -0.7053165 0.020151068 0.24154548 -0.3555946 0.0023927018 -0.004766308 0.0022777538 -0.11043896 0.004294336 -0.056657646 -0.109763846 0.0008670918 -0.017809553 -0.00069059595
-0.023334062 0.3336139 0.14302272 0.004197316 0.002507958 -0.060332626 -0.0025124927 0.3794117 -0.63055104 -0.5163724 0.47200045 0.028734546 -0.05456867 0.00810565 0.08182256 -0.078188755 0.08990507 0.1217055 -0.01691199 -0.077910244 -0.0009009505
-0.4037731 0.17403987 0.06835143 -0.010831648 -0.011248876 -0.07681581 -0.0017907306 -0.16965885 -0.523352 0.66794324 -0.09167557 -0.036840662 -0.034424707 -0.0061249193 0.38692713 -0.8330574 -0.26128322 -0.37136477 0.08088687 -0.08123564 -0.0016033668
-0.052874327 0.24254419 -0.0094136875 0.13312566 0.0029148518 -0.21081245 -0.012135725 0.14060605 0.39279455 -0.21928576 0.13963959 0.22452895 0.051082958 0.025658937 0.5392154 -0.0059817997 -0.10314254 0.016215757 -0.18540601 0.14145721 -0.0075473357
0.028454324 -0.2431146 0.040920906 -0.06300745 -0.003271459 -0.114899576 0.0038082567 0.36484918 0.4231903 -0.4152247 -0.23047768 -0.0010947611 -0.056733955 -0.004945271 0.14459568 -0.048882376 0.17147662 -0.06175394 -0.0796117 -0.19348876 -0.002697118
-0.0026015614 0.096661106 0.011316878 0.015341097 0.0037797263 0.06449811 -0.002403781 0.0012439562 0.41439843 -0.0127796875 0.20268072 -0.030629877 0.08837786 -0.0005923836 0.4619371 0.21003012 0.031968337 -0.02864327 -0.018177511 -0.012837355 0.0038503804
-0.00088384905 -0.071899906 0.0123538235 0.16375951 -0.004968218 -0.09688703 -0.0030481329 -0.011438346 -0.12177812 -0.04105343 -0.47447827 0.004524875 -0.3590726 0.0036634577 -0.038890753 0.64076185 0.16391096 -0.38939214 0.12609263 0.055118594 -0.004456593
0.00020278705 0.14050359 -0.013257889 -0.20384051 0.039714914 -0.026776256 0.004740824 0.16983049 0.025970161 0.31516704 0.49655548 -0.24547908 0.02564659 -0.010187347 -0.38903263 -0.084004395 0.009851699 -0.34478146 -0.07542565 -0.078974776 -0.00092800875
-0.00066954934 -0.015332988 -0.10912701 0.16053762 0.017944038 -0.0071006953 0.005363253 0.35567906 0.36376435 -0.045051917 0.023860527 -0.060440596 0.028763333 -0.009651694 0.2556857 0.10150684 -0.13003679 0.02666014 -0.032729328 -0.066153586 -0.0053791692
0.23701087 -0.014398446 -0.048560247 0.14767006 0.017278492 0.016523492 -0.012649021 -0.30446774 0.31319854 0.45971078 0.11400578 -0.33306497 0.14362247 0.028300261 0.2869868 0.103563346 -0.062446624 -0.079500206 -0.04073619 0.27417427 -0.0005101227
-0.008966751 0.0008736364 0.010024208 0.06536186 0.01315726 -0.036184877 -0.002915109 0.5840499 0.26038668 -0.47099823 0.017733648 -0.02428186 -0.0810624 0.0058244998 0.30569363 0.22774154 0.2197321 0.052076604 -0.03462354 0.049424227 0.0066558435
-0.021362651 0.005088823 -0.021226367 -0.25370678 0.021453327 -0.008135068 -0.0023853534 -0.15061532 0.14276052 -0.2445396 0.4987796 -0.118589774 -0.0022770027 0.0049989712 -0.26758996 -0.018080354 -0.02697739 -0.11796387 -0.042230386 -0.028574431 0.00086555345
0.008358401 -0.06906557 0.0036168196 0.18690972 0.009726613 0.060846195 0.004381786 0.20450929 -0.31251422 -0.2508655 -0.5385396 -0.01343512 0.15052243 -0.010021148 -0.12641756 0.12004976 -0.28896868 -0.04552617 -0.0011012607 -0.07226135 -0.00067762623
0.0065643205 0.031103058 -0.0036019103 0.346241 0.007844029 -0.023780491 -0.0025483784 -0.019254869 -0.074718356 0.013354556 -0.7866873 0.024495697 -0.02648658 0.011581277 -0.02865415 -0.027042866 -0.053304665 -0.62639445 0.0019148551 -0.044573784 -0.0010046364
0.005992667 0.0770095 0.088501036 0.15473205 -0.0005385488 -0.18155177 0.0020701203 0.4741178 -0.16908444 -0.4608915 0.1491905 -0.45063317 0.29999948 -0.0016198229 -0.14010443 -0.0611029 0.49522617 -0.2896912 0.12522545 0.14585209 0.0065123094
0.011138261 -0.45654407 0.011860711 0.21800882 0.004821719 -0.22513072 0.0017900601 0.01715326 -0.34898946 -0.10312263 0.35795054 -0.070459284 0.07296769 -0.0036962766 -0.6945437 -0.124734744 0.18581611 0.34148046 -0.15477937 -0.21326146 0.0067745135
0.088666655 -0.14713857 -0.05166875 0.058112673 0.038241044 -0.12269288 0.006163187 0.26548687 0.39980277 -0.1188395 0.13874482 -0.3753334 0.2801146 -0.018821003 0.11564152 -0.2295196 0.3626253 0.07848179 -0.15390293 0.026579175 0.0014209715
-0.006108742 0.19373521 0.0041175936 0.46349356 0.005708215 -0.12703374 0.0011109771 0.010598402 0.32280686 0.017023398 0.28597146 0.019928817 0.28680182 -0.0031180738 0.26650244 0.28324828 0.08672596 -0.09546851 -0.46428153 0.20828016 -0.0013484485
0.006175421 -0.12552293 0.0012874021 0.34421632 0.0031728481 0.07372167 -0.00096617156 -0.001605509 -0.3722744 0.0031187274 -0.46044168 0.047300227 0.061299004 0.001215712 -0.43155256 -0.77703196 -0.15725361 0.46714693 -0.0043242467 0.08190657 -0.0028444973
0.0041558105 0.16019598 -0.05088672 0.09675859 0.01653835 -0.10622048 0.0002300704 -0.29292786 -0.18687508 0.41383636 -0.06647284 -0.050124034 -0.061621368 -0.0058118426 0.27100974 0.24427295 0.3361122 -0.21374887 -0.03937371 -0.11750891 0.0013354267
0.030239701 -0.32155123 0.014033532 0.12765597 -0.01915195 0.05405469 0.0024135916 0.34123507 0.5986858 -0.31132534 0.12744413 -0.20730495 -0.046993077 0.0012971294 0.14020607 0.037362 0.43272448 -0.11950353 -0.029418577 -0.18453212 0.0021810776
-0.035565384 0.09179864 -0.0013074463 -0.024129892 0.0025526427 -0.065965936 -0.0057398127 0.09148026 0.18615462 -0.0484121 -0.14376453 0.002397214 0.0788349 0.0072889626 0.084660605 -1.3311726 -0.2830308 -0.66653913 0.06834844 -0.19455867 0.005842318
-0.005764418 0.32533473 0.011150607 0.43095452 -0.014016457 -0.12984954 0.00044912565 -0.018062973 0.44808674 -0.008646495 0.15523168 0.042997118 -0.360249 -0.0018965774 0.50151414 0.1543888 -0.043726683 -0.104817174 0.19381413 -0.2728134 0.0022519787
-0.0237324 -0.107749425 -0.044001978 -0.033953484 -0.26433358 -0.19187526 0.018028032 0.09616579 0.09409324 0.058613136 0.101301335 0.26867807 0.14817384 -0.038280558 0.35306606 0.23514314 0.40863165 -0.022146014 0.3624049 -0.17801815 -0.00039100903
-0.023799106 0.05809379 -0.017066808 0.4319359 -0.0087185735 -0.011238813 0.0058864476 -0.7416149 -0.13621472 -0.24229115 -0.12653394 0.017807515 0.15340178 -0.015533233 0.12782012 -0.6053211 -0.0892852 0.12811792 -0.18521313 0.0063737514 0.0014344078
-0.08831203 0.05050119 -0.070995815 0.12534575 -0.2794637 -0.14040573 -0.00030943684 -0.40847743 0.11135623 0.6866744 0.13141043 0.13462704 -0.033836436 0.001673031 0.06429491 0.1558395 0.053502403 -0.1180473 0.3601355 -0.019772995 0.0035341582
-0.01672993 0.20927131 -0.08632597 0.23863292 -0.0056829653 -0.049298733 0.0016793943 0.31485415 0.16570085 -0.058934573 -0.70092815 0.017172506 -0.029560339 -0.002242511 0.31122932 -0.3876215 0.24462852 0.24694958 -0.0548442 -0.10451557 -0.0028904579
0.23900272 -0.019718844 -0.08978739 0.3727446 0.0012644281 -0.100251 -0.0009196424 -0.81304884 -0.40234882 -0.19615333 -0.51180637 0.008490171 -0.029332336 0.0020126067 0.47301346 0.21088223 -0.21985827 -0.5059326 -0.016003024 -0.1577515 0.0005534514
-0.03994023 -0.024228616 -0.27540475 0.22877398 -0.005953687 -0.18569826 0.0022933271 -0.5271018 -0.41099882 0.33801678 0.11716916 0.022160273 -0.085518666 -0.0040680133 -0.28861997 0.21094598 0.09944161 -0.07590462 -0.050795432 -0.21779408 0.00028930145
-0.22301783 0.10544574 -0.07002983 0.14454213 0.045344234 -0.23143455 0.0200459 -0.24837051 0.10262125 0.8326716 0.28433132 -0.5016893 0.44398046 -0.035255443 0.117362626 0.034582086 -0.13485673 0.0644169 -0.16152874 -0.092903204 0.010249461
-0.020303374 0.055426054 -0.059935357 -0.40735292 0.023466034 -0.022216761 0.00097132975 -0.40054777 -0.017864073 -0.36852527 1.3989978 -0.23703223 -0.0013327319 -0.006788338 -0.07593484 0.021395849 0.036383938 -0.33040348 -0.16469383 -0.1460965 -0.0010959345
0.033391804 0.06879087 -0.008056551 0.35334107 0.0032036388 -0.13885094 4.588642e-06 -0.020924965 -0.95937294 0.015989887 0.19889586 -0.011161888 -0.06461056 8.2627885e-05 1.0473334 -0.58718985 0.2650448 -0.27532548 0.011842732 -0.21457846 -0.002677162
-0.0015001275 -0.24657913 0.0035037682 0.033331066 0.00074855046 -0.11575216 0.00071612955 0.02241386 0.12767695 -0.026692418 -0.30943316 -0.011181111 -0.061822034 0.0023954173 -0.42934304 0.38494414 -0.34432396 -0.07485936 -0.0076468065 -0.17734952 0.0013247248
0.0047170524 -0.053353567 -0.021820327 -0.42443356 -0.019072864 -0.4606684 0.0015757204 0.0033163982 0.0063935234 0.051466227 0.99541914 -0.12115909 0.27183825 -0.0051887166 0.008725508 -0.13151571 -0.06863505 -0.3971552 0.55474836 -0.02554954 -0.011885659
0.004076532 -0.0038498556 0.057129916 0.033438068 -0.044415925 0.017897122 -0.009379353 0.050764292 0.031715993 -0.040614408 -0.47268504 0.055780523 -0.02398584 0.017930282 0.007161194 -0.033587053 0.029452937 0.01574123 0.04227646 -0.03298544 -0.0012343108
-0.12407764 -0.058181055 -0.27056372 0.22127308 -0.011884031 -0.21160933 0.0033193803 -0.14502142 0.1412297 0.0032082207 -0.2744684 0.15770471 -0.22872762 -0.012224747 -0.081456445 0.47961244 0.15090401 -0.36645007 -0.1673813 -0.419986 -0.0007919881
0.16412853 -0.38621658 0.13654307 0.4500456 0.006556034 -0.24870688 0.0044833203 0.38838625 -0.019342694 0.26697087 0.42011967 -0.007062729 0.062048033 -0.013067414 -0.06896496 -0.010932958 -0.01632538 0.014325945 -0.23426092 -0.21715021 -0.0029470946
-0.0601926 -0.51451004 -0.21455888 0.02969322 -0.010149991 0.011353027 -0.00052164146 0.10989092 0.5885511 0.32344285 -0.5047829 0.013693189 -0.106008105 0.0028474454 0.12612696 0.020584216 0.08543034 -0.20110965 0.0013807844 0.06703033 -0.0025204518
-0.012090643 -0.47399753 0.002518855 0.1001131 -0.038801324 -0.0480944 -1.40529855e-05 -0.20455833 0.3250919 0.29407895 -0.5595328 0.069415376 0.0131345475 0.00068686204 -0.22093035 0.11539812 -0.24093579 -0.0004722002 0.03833919 -0.101583146 0.0005360331
-0.040554665 -0.0145514365 0.06568692 0.11059924 0.0123588545 0.028790059 0.010747786 -0.30861652 -0.19609217 -0.18716742 -0.24380852 0.35830817 -0.16537228 -0.021415997 0.0391094 -0.034616478 -0.46308678 -0.122298494 -0.012793187 -0.22035757 -0.003267118
0.06718051 0.0028289128 -0.037754048 0.22159985 -0.0087676495 -0.103018925 0.000116949646 -0.41405803 0.16952945 0.46345073 -0.53284854 0.013608172 -0.0667904 3.5121404e-05 0.12828894 -0.17753085 -0.12244038 -0.75680107 0.0065720933 -0.14160071 -0.001089873
0.017292507 0.24684802 -0.051368974 0.32877606 -0.0043088845 -0.14185247 0.0024912322 0.50791 0.065128125 0.5520941 -0.6654196 0.027392395 -0.043271832 -0.0046969806 -0.32105643 0.05232774 0.2904767 -0.54925513 -0.025291877 -0.19240943 -0.003225841
0.03159878 -0.29387498 0.021225855 0.14674169 -0.009756057 0.054164678 -0.0021812923 -0.06345956 0.277445 -0.025019817 -0.47178605 0.044490427 0.026398905 -0.0012851582 0.15336438 -0.07926352 0.009915512 0.006113545 -0.050072573 0.07562081 -0.0010734859
0.077767864 -0.13008568 0.032275043 0.056759167 -0.029065812 0.04734438 -0.0010776046 -0.10153129 0.3920871 -0.007787528 -0.15378627 0.07250467 0.031698007 -0.004303276 0.36592945 -0.14736553 -0.47630557 -0.113972396 0.0024004013 0.100042686 -0.00028073974
0.0024497146 0.058879968 -0.02626094 0.12802589 -0.020922387 0.15672457 0.0044038557 -0.10924984 0.31407258 0.40737137 0.036379185 0.30406657 -0.0683736 -0.002189153 -0.10820985 -0.13589682 -0.069844894 0.11748545 0.08797847 -0.13007207 0.003693617
-0.04024994 -0.0628782 -0.019060882 0.2918267 0.009440843 -0.0042357417 0.014048579 0.06908494 0.08112025 0.046519 -0.44981956 0.015714142 -0.1376692 -0.024286216 0.008562755 0.049795642 -0.017278166 0.07201442 -0.63207936 -0.39008602 -0.00012483452
0.005120399 0.53519666 -0.008420635 0.2529559 0.0016656587 -0.15626791 0.0045670746 -0.026645202 -0.18876256 0.036281135 -0.41790888 -0.019398691 -0.12304525 -0.0061233034 -0.90804183 -0.3431446 0.24715692 -0.2637967 0.015134651 -0.20604102 -0.0005366535
-0.01245679 -0.04762389 0.0027986066 0.28979504 0.0006985423 0.011406036 -0.0012990122 -0.114603676 0.26545602 0.12895024 -0.40715918 0.005900929 0.053211093 0.00025340365 0.20057909 0.2302423 0.22470689 -0.3833622 -0.026118325 -0.05595183 -0.0016958878
-0.025419293 0.011465134 0.033240344 0.1131053 0.008748351 -0.015260368 0.0012794255 0.3614432 -0.08248798 -0.509882 -0.42290732 -0.006467131 0.0025573205 -0.0025225994 -0.0483585 -0.060863435 -0.06749797 -0.2587719 -0.0053770016 -0.040191464 6.893698e-05
0.0041209906 0.1486632 0.0032463688 0.29990992 -0.016721154 0.15765046 0.006863464 -0.018392991 -0.2037642 -0.00017749131 -0.19618317 0.06341518 0.18450046 -0.017433032 -0.0012546674 0.09767513 0.38527206 0.102206215 0.19954854 -0.28206038 -0.005986506
-0.046442643 0.012834611 0.0013565059 0.20503414 -0.013020996 -0.021946296 0.004056028 -0.10498874 -0.52127254 0.22861247 -0.5693584 0.04036338 0.08669372 -0.01063193 -0.16163741 0.010947083 -0.27722114 0.18588942 -0.000471263 -0.1685553 0.0065310644
-0.0037605073 0.21815032 0.007301674 0.4178543 -0.00036917249 0.05451129 0.0031849255 -0.005924789 0.35348883 -0.023139833 0.014849773 0.024990145 -0.0421224 -0.0056043062 -0.8469629 0.16679953 0.12484316 -0.33379108 -0.011082675 0.08535221 0.0045918296
-0.13195631 0.6555457 0.23371728 0.13018525 0.00085368735 -0.16251588 0.00020928684 -0.18418257 -0.67405546 -0.6902997 -0.39924896 0.023542095 -0.035475206 -0.0018029509 -0.21025503 -0.033724412 0.3519448 -0.35932073 1.5774984e-05 -0.25105676 -0.0024293899
0.013263444 0.091145016 0.25119856 0.090673 -0.0076622996 -0.0393644 -0.002246026 -0.055737063 0.2676147 -0.2980609 0.044579253 0.018746806 -0.0013141946 0.008635762 -0.62062955 0.13698655 0.5361716 -0.18364012 -0.0010493889 -0.064675175 0.0016867052
0.0057446696 0.132903 -0.012010305 0.24456348 -0.008788068 0.02162827 0.0004063173 0.14537744 0.091161326 -0.14088462 -0.44868216 0.014202839 0.032091293 -0.0020631717 0.19130547 0.13086532 0.21566853 -0.30491024 0.01105734 0.011297342 -0.00035291738
-0.0022980256 0.037351266 0.0005799274 0.20837565 0.0059727416 -0.072341315 0.00079504226 -0.058548305 -0.031777784 0.052946925 -0.013773959 -0.011274618 -0.016806595 -0.0018345362 -0.20700759 0.6839943 -0.17179455 -0.40577576 0.0055071223 -0.1302698 0.0026838183
-0.35602644 0.6139457 -0.31857282 0.44903865 -0.008147722 0.07017672 0.003486629 0.47330925 -0.22504623 0.2680397 -0.5316964 0.0006812187 0.045491956 -0.0065189875 -0.11469255 -0.07959822 0.69720364 -0.72839785 0.033782255 0.12493992 0.0024575489
-0.039613154 0.25434378 -0.063751124 0.3768219 -0.062097788 -0.04370023 0.0033612635 -0.122716546 0.19316559 0.21159473 -0.5101901 0.082011335 0.035332534 -0.0072124368 0.2793278 0.40734088 -0.47318006 -0.3577847 0.061980885 -0.18757044 0.0017953804
-0.021553975 0.25368237 0.104249954 0.045076597 -0.027130086 -0.061791494 0.008810407 -0.2935962 -0.43730456 0.27320945 0.17314614 0.24693868 0.2588469 -0.017150836 -0.1563405 -0.37347513 0.0075412965 0.21228565 -0.20895667 0.0077889315 -0.004683638
0.35550138 0.2172284 0.043190576 0.05376047 -0.05305739 -0.11494225 -0.0021159884 -0.51129735 0.18626982 0.22621775 0.14318463 0.143693 0.15222587 -0.0001054355 0.018102404 -0.041782267 0.36487144 -0.38007203 0.1579643 -0.06507003 -0.0045626382
-0.0012538013 0.2096989 0.006240946 0.21463244 -0.003413613 -0.023475004 0.0025502304 0.008566226 0.44476902 -0.020711482 -0.051967997 0.018403968 -0.0039353124 -0.00278721 0.40826532 0.00788292 0.0144928545 0.18330455 0.016850848 -0.036169466 -0.00052536686
-0.022457106 -0.13460004 -0.049911737 0.1796468 0.005659464 -0.21491094 -0.00362659 -0.17356303 -0.43690386 0.26853064 -0.0011179162 0.28655124 0.15269467 -0.0018790109 -0.5505088 -0.067571856 0.26345637 0.088085264 -0.22779337 0.05139347 -0.00991119
0.032901607 0.4059514 -0.023778616 0.3292264 -0.040419962 -0.084752254 0.019335624 -0.090868495 -0.16925293 0.39794272 -0.059221704 0.58551854 0.3816591 -0.03535175 0.02735832 0.6265986 -0.014843832 -0.36710218 0.0119690765 0.2576533 -0.011360786
0.04228093 -0.031056933 0.036387533 0.09940218 0.008953255 0.0400973 -0.0023681049 -0.18830751 0.102178395 -0.21030359 -0.48771966 -0.030759336 0.010052693 0.0034851031 -0.056897722 -0.14780475 0.02993873 -0.008652471 0.0018269627 0.057012897 0.002003031
-0.07304426 -0.16643317 0.007951241 0.3458499 -0.004687093 -0.0643777 -0.0005120173 0.088070944 -0.5383521 -0.007397092 -0.08003956 0.026018262 -0.026989762 -0.000112604255 0.72728574 0.24220833 -0.11433375 -0.23392518 -0.0010928529 -0.097995825 -0.000812187
0.38444993 -0.19441313 0.18809521 0.6015928 -0.044773873 -0.12654719 0.0012169834 -0.027661381 -0.21214625 0.025651755 0.18890794 0.034281418 -0.102524586 -0.0019165515 0.061834563 0.47718954 -0.1311389 -0.5242585 0.01955422 -0.2028296 0.0012935195
0.0005477131 0.17660312 0.0054985117 0.52131873 -0.0022695956 -0.017518347 0.000579753 0.014171257 0.6688111 0.0057517756 -0.6087836 0.019693613 0.00067302544 -0.001237601 -0.53045946 0.60993755 -0.018050576 -0.2520989 -0.017761543 -0.050413642 -0.0011615097
-0.03532063 0.1689479 -0.429594 0.10830295 0.034229934 -0.007794417 0.005982225 0.56017685 -0.40040794 -0.06380892 0.10255675 0.3240253 -0.39596137 -0.017466733 -0.08773326 -0.0123131145 0.115055874 -0.14552753 -0.009253161 -0.21268782 0.0032749411
0.02023809 -0.756796 0.0032988852 0.3455209 -0.0021762545 -0.024964258 0.0014473965 -0.0360452 0.32758415 -0.018100142 -0.6622985 -0.004801441 -0.02470784 -1.7780389e-05 0.6204528 0.217431 -0.38394326 -0.22695898 -0.001186218 -0.037997093 0.00024549733
0.056920655 -0.15222673 0.013167486 0.19618417 0.014057906 -0.07742425 0.00029412666 0.047321618 -0.2855199 -0.23407991 -0.45792294 -0.018587323 -0.06019809 0.002339219 -0.307655 -0.026625535 -0.2521718 0.09270623 -0.05273654 -0.114680335 -0.0029617224
-0.07836216 -0.3349756 -0.03817513 0.12876746 0.0014863752 -0.12555353 0.009077741 -0.34347582 0.6200648 0.6552894 0.014174354 0.39470991 -0.449039 -0.018621221 0.0975301 -0.03975974 -0.19193782 -0.06488429 -0.057757832 -0.4661921 -0.0012188252
-0.024190418 0.4318841 -0.05037209 0.031203134 -0.02871888 -0.009263079 0.004682565 0.4793876 0.055578575 -0.5781152 -0.3278179 -0.37911057 -0.48276228 -0.012502331 -0.4407255 -0.08135809 0.23912354 0.19659576 0.28246483 -0.41285262 0.008106208
-0.00028940893 0.18263686 -0.11619576 0.16059738 0.017273849 -0.22947945 0.009080028 0.100766055 -0.28073004 -0.2098864 0.29139313 0.5512996 0.5151037 -0.01803029 -0.21559753 -0.2519771 0.15879601 -0.13409829 0.23307666 0.043195575 0.0028055818
0.20451601 0.0679684 0.13142419 0.078112684 0.008594881 -0.1487116 0.0044371365 -0.173399 -0.06350195 0.33045486 -0.24933971 -0.34781116 -0.23707023 -0.012480823 -0.017039873 0.15135522 0.1158693 -0.15348157 -0.041007496 -0.46427676 -0.0007855277
-0.044759665 -0.003470119 -0.026230315 0.18180251 0.031246461 -0.11533214 0.004923062 -0.2080648 0.50016534 0.2955038 0.19283757 -0.03715485 -0.15084498 -0.014040777 0.1417976 0.33183867 0.22993131 0.04821463 0.011291836 -0.115793414 -0.0026428949
0.17340448 -0.11875033 0.08105854 0.006513276 -0.017682478 -0.20119585 0.00959428 0.19793811 0.42416048 -0.7587103 0.24531268 0.3989552 0.30374894 -0.015231195 0.120912485 -0.02485421 -0.0935395 0.14429 -0.09594188 -0.06814523 -0.0030820386
0.3393136 -0.2828092 0.16461003 0.32821137 -0.010958017 -0.09139373 0.0020767835 -0.7093258 -0.4882156 -0.48038998 -0.14353381 0.034254983 -0.048144963 -0.0022874745 0.45182216 0.31629464 -0.14752455 -0.23603798 -0.02771363 -0.13157713 0.002224018
