0.19267282
0.09182436
0.2520903
-0.0019554712
0.20846581
0.1678951
0.00090078736
-0.0019207395
-0.00017152162
0.16541
-0.0023186812
-0.014238516
0.00095727266
-0.003848193
0.11679554
0.378344
-0.0013243711
-0.0018292618
0.40676376
0.22051713
0.00018674284
0.00070093945
0.29376477
-0.0011912286
0.0010341795
0.15558074
0.257198
-0.0014730763
0.107677765
-0.00431168
-0.00042992833
-0.00066572276
-4.588075e-05
0.00021252754
-0.0018715715
0.42799255
-0.0009952137
0.005273236
0.00082386023
-0.0033026936
-0.0027202114
-0.0023039265
0.00076512137
-0.0016355503
0.47278526
0.00026097853
-0.5657371
0.13195004
0.3088758
0.35703644
0.3955061
0.19593681
-0.0014562937
0.08586131
-0.0031054264
-0.0001874652
0.0006563393
0.18013899
0.29936665
-0.25671688
-0.15434146
0.09286421
0.00097472564
-0.17404117
0.3184218
-0.0021618179
-0.004054914
0.17312643
0.23460436
0.28196687
-0.005423765
-0.00050202326
-0.0024343678
0.20218855
0.21692316
0.32802552
0.0003055856
-0.0015532796
-0.006255754
0.17396913
0.00026774872
0.29385808
0.2691695
0.37465978
0.20370585
-0.103626706
-0.002135662
0.28444293
-0.0022503627
0.5197814
-0.0018239691
0.17660803
0.10244816
0.30112073
0.38762528
0.14061692
0.00015166475
0.15292412
-0.103323944
-0.0020166375
0.34699416
0.2236856
0.14948955
0.1745868
-0.045862183
0.2434301
0.06595174
0.056739822
-0.008056119
-0.0019670585
0.00046026908
0.41115332
-0.13988324
0.33190188
0.14680171
-0.0018907859
-0.002524462
0.016295137
0.0005553417
-0.23171538
0.29119706
0.23344354
-0.0021843298
0.32503656
0.00029206596
-0.098799296
-0.0022455184
0.0004313059
-0.008014325
-0.00048500233
-0.0011561669
0.22508834
-0.096305184
-0.0017450658
0.31669283
-0.0009172804
0.3475479
0.04637086
-0.0004970529
-8.031946e-05
-0.00047725716
0.012451755
-1.1667069e-05
0.000380133
0.0008851638
0.28098103
-0.008931224
-0.0020813379
0.29298463
-0.0052309367
-0.00397805
-0.003933969
0.21209238
0.385871
-0.018069357
0.19545625
-0.012431774
0.27175534
-0.10204151
-0.0047723134
0.16718583
0.11107301
-0.0009882753
0.00045783562
-0.0017517463
-0.0014969793
-0.000110825786
0.00015505218
-0.07312601
-0.0007673027
0.26034096
0.48591056
0.6404421
0.46759987
0.14088932
-0.00023812313
0.0010298875
0.5028296
0.063056834
-0.02734238
-0.39906746
0.025956651
0.060534116
0.13632165
0.098880544
0.09894573
0.35063192
0.29092085
0.24019703
0.21973284
0.47697383
0.15643694
-0.00013563782
-0.001212965
-0.00785497
-0.0015264058
-0.003700589
0.12521614
-0.033305515
0.4540525
-0.0019927602
0.2087937
-0.0024831234
-0.0017836386
-0.0005281331
0.3010331
-0.066606425
-0.0013927124
0.26730588
0.4176169
0.31416568
0.36162725
0.24621223
0.00013997305
0.0008565268
-0.0012950255
-0.003005124
-0.0017575715
0.17405601
-0.15621752
0.16279806
0.20597136
-0.03572919
-0.0034226184
-0.0022038042
0.21639366
-0.01441538
-0.20793621
-0.0030482882
-0.0028821188
-0.005616824
0.27292892
0.09900769
-0.0051841186
-0.2667875
-0.0025268435
-0.002960162
0.00032496208
-0.00089194207
0.22003695
0.33071694
0.26323688
0.21804957
0.0007181649
0.24782667
0.21489389
0.00032857544
0.12024221
0.24373223
7.8703604e-05
0.00057197444
0.10656744
-0.00040775034
-0.013131313
0.34489822
-0.06497029
