-0.009089982
-0.0004188718
0.09994851
0.009338075
-0.0064345016
-0.0014229403
0.05380683
0.1249286
0.027709108
-0.003835936
-0.41790518
0.2730642
0.017069656
0.043163426
0.05845953
-0.00015617756
-0.001575719
0.20091175
-0.25831926
0.36587536
0.105924524
-0.095316574
-0.048505276
0.12523842
-1.2416379e-05
0.083353676
-0.00091415766
-0.0017257454
-0.10743057
-0.016507791
-0.12026711
-0.025106272
0.20757009
0.089062765
0.21522944
-0.11158321
0.17501871
0.00011425997
-0.0023530421
-0.0028433336
0.09125056
-0.0007716809
-0.0011799596
-0.001612215
0.5472836
0.14449583
0.14877386
-0.2756613
-0.003112272
0.2202787
-0.00047226026
-0.002682673
0.13126467
-0.0013466533
0.025623305
0.3028419
0.030231806
0.5314101
-0.0013666782
0.25527263
-0.13078086
0.25710985
-0.0014683268
0.23540673
-0.055105746
-0.00090088905
0.4309515
0.22479424
-0.03772575
0.00020476535
0.22331473
-0.12195997
-0.0008350391
0.048868
-0.16575281
0.16223732
0.53641796
0.14422534
-0.049527388
-0.00025801177
-0.05419818
-0.109963454
0.21145388
-0.030312106
-0.00062403484
-0.041252337
-0.0017955947
-0.01841127
-0.00075061823
0.027267404
-0.17444669
0.17546868
-0.0007770524
-0.003070854
-0.16468003
-0.0022540386
0.23117225
-0.003722575
0.0008603563
-0.11131206
-0.002362088
0.26638845
0.1118991
0.048436806
0.090534784
0.42367777
-0.029154265
0.26725048
-0.0017828171
0.05831954
0.18812405
-0.0017263443
-0.0015181879
0.000551222
-0.0017753325
-0.24194512
0.081881806
-0.00058529194
-0.0014290804
-0.0013232807
-0.03764293
-0.0017756752
-0.29197732
0.15756503
-0.22367322
0.14813837
-0.15523589
0.5986056
-0.00040508035
0.091873005
-0.35634556
-0.076578945
-0.031212281
0.2033417
-0.002538699
0.29470897
-0.30433568
-0.17020746
-0.27920872
0.274773
0.00066240726
-0.0031427655
-0.0006694158
0.4570616
0.38608396
-0.049183864
0.0001090547
0.15195484
-0.15734918
-0.11328695
-0.015086259
0.14616194
-0.03172956
-0.11508811
-0.0021136538
-0.16555735
0.088842474
-0.25179067
-0.03119329
0.08587825
0.10212371
-0.40451148
-0.3721772
-0.00083297025
-0.2735442
0.51350313
0.104436584
0.098387964
-0.0024899037
-0.0015352529
-0.14633636
0.045838993
-0.0003879342
-0.020162532
-0.32174003
-0.002186398
0.07520197
-0.13929778
-0.08544607
-0.3110582
-0.07936574
-0.0019783548
0.44939408
-0.00049279444
0.16190782
-0.071434125
0.00028895296
-0.052168157
-0.16032052
0.26497585
-0.001686159
-0.0014598676
0.23541784
0.14882894
0.0008754867
-0.021404687
-0.4078337
-0.06293152
-0.20777662
0.0002811663
-0.0014688823
0.026583588
-0.03983995
-0.087957464
-0.052758396
0.34785807
0.16561101
-0.0009721714
-0.0014569226
-0.00049967394
-0.003355851
0.33874285
-0.0020116644
-0.0023758502
0.046934668
-0.001072097
-0.0024136072
-0.0018204221
-0.38991305
0.00020282365
-0.0773374
4.9960916e-05
0.12187116
-0.115595154
0.052619632
0.0006762536
0.10560932
0.33138588
0.0003716141
0.16894463
0.11188265
0.26253632
0.00072729
0.18921342
0.00026066584
0.55520904
0.16086248
-0.001077341
-0.0061014197
0.14269428
-0.002968481
-0.2858869
-0.055638563
0.07541454
-0.0011046652
-0.0037765543
-0.00095595984
0.23518035
0.41404095
-0.0024446105
-0.3412347
0.22890803
0.12934324
-0.0005508158
0.2819795
0.08845336
