0.17737627
-0.13541459
0.008339999
-0.04513338
-0.08424638
-0.14403062
-0.062138107
-0.0057108416
0.1841683
0.08627451
0.065538295
0.32339793
-0.05232241
-0.041324545
-0.083243296
-0.07050732
-0.17667507
0.3247105
-0.071652316
-0.06265901
0.07518336
-5.8646983e-05
0.011960117
0.1481546
-0.09053339
-0.26847148
-0.08808722
-0.06300811
-0.214126
-0.064089544
-0.10921747
-0.09645853
-0.085094884
0.024647197
0.0092152525
-0.006529369
-0.088006094
-0.067851625
0.08503956
-0.0088516
-0.13895959
-0.038343366
-0.01833653
-0.13992263
-0.013383221
-0.05291473
-0.1418209
0.15793517
-0.115128405
-0.21278735
-0.18629222
-0.15784392
-0.057049084
-0.031962257
-0.09704497
-0.039176434
-0.011435145
-0.14204521
-0.059706584
0.23740456
0.08010949
0.011502274
-0.060880553
0.055803426
-0.024075175
0.17587519
0.06755266
-0.047025308
-0.008841177
-0.10235357
0.09937493
-0.14537327
-0.02515212
-0.06292045
0.057140507
0.022990858
0.30278316
-0.11375188
-0.15662782
-0.24171157
-0.010506949
-0.13940178
0.0863825
0.1247363
0.08689628
0.080766566
-0.083746634
-0.18162997
0.17702898
-0.13158436
-0.050226126
-0.112721086
-0.0528827
-0.006643622
-0.108214565
-0.07189705
0.19793946
0.013207321
-0.09559773
0.14155279
0.01566491
-0.123300895
0.122890815
-0.01698963
-0.18571283
0.08878016
-0.10489613
0.045776192
-0.115859166
0.051431797
0.11328657
-0.04888098
0.023430185
0.13357414
0.07130755
-0.0454519
0.1346566
0.07394008
-0.024396557
-0.1124479
-0.20510826
-0.13180755
-0.13632204
-0.022144696
-0.25655773
-0.1641021
-0.18017612
0.1571369
0.012495048
0.1623147
0.35196593
0.07515091
-0.03296993
-0.16465901
0.060716964
0.368886
0.06360541
0.008401368
-0.107645236
-0.06632851
-0.022979407
-0.011789638
-0.06051752
0.11887474
-0.07507538
0.16475303
-0.12160652
0.0076196925
-0.14336398
-0.24374375
-0.15534957
0.06269378
-0.030337937
-0.07030121
-0.09964481
-0.15564977
-0.16686817
-0.01580095
0.034723382
0.040631942
-0.11686837
-0.038655184
-0.05970337
-0.16683213
0.033884462
-0.031156873
-0.041375678
-0.20977744
0.1991315
0.22914684
0.0029967846
-0.09363048
-0.13059878
-0.16184522
-0.013279769
-0.25394276
0.082608916
0.06710777
-0.096531235
-0.04876466
-0.097296506
-0.13030478
0.03650017
0.04673571
0.12787847
-0.20448135
0.13122423
0.13854603
-0.19789171
-0.0066574374
-0.069880314
-0.23591593
0.004269344
-0.12698512
-0.22401828
0.060867466
-0.09939202
0.06720202
-0.117027
-0.08389929
-0.124431126
0.1386646
0.093552664
-0.0660341
-0.09511573
0.022334732
-0.027689775
0.12719549
0.07717211
-0.027781885
0.36105338
0.06931285
0.065565035
-0.0024423194
-0.10791896
0.010773603
-0.06931751
-0.077664144
0.16621919
-0.15172206
-0.18840227
-0.19013035
-0.15323699
-0.15576631
-0.15133308
-0.0842203
-0.19097649
-0.09051498
-0.15095775
-0.21271248
-0.15911435
0.131124
-0.0394578
-0.07284239
0.016671386
-0.19851619
0.009329356
-0.08553444
0.048016228
-0.106456764
-0.2056266
-0.08729404
0.03228718
-0.16684379
0.18415608
0.019627307
-0.18794489
-0.058130704
-0.15445921
-0.023988554
0.06559105
-0.05632956
-0.19031169
-0.18699068
-0.09746016
-0.075322874
