0.0069366195 -0.05488418 -0.022499956 0.015973033 -0.0063200183 0.020170152 -0.0045078243 -0.011220704 -0.06902901 0.3677341 -0.008823457 -0.20871307 0.08289396 -0.20376408 0.016945438 0.05766266 0.007785018 -0.017078858 0.095076926 0.06408297 -0.025749084 0.6814011 -0.0112889325 0.3693683 -0.025818078 0.008846962 -0.0056790947 -0.60825104 -0.55201006 -0.24246149
-0.050465744 -0.025283294 0.016483974 0.018594991 0.002574155 0.01001509 0.0064953105 -0.6067572 0.2164343 -0.07105618 0.56671554 0.06831418 0.18693142 -0.016015142 0.007427958 -0.016252946 -0.03346215 -0.5106131 -0.01156476 0.12416755 0.10669689 -0.089689046 0.014138974 0.071950294 -0.0006307119 0.02887616 -0.01598132 -0.38657156 -0.14732072 0.0484242
0.0043425285 0.011559813 -0.013716222 0.020710466 0.06266154 -0.06306576 0.023668407 0.027491612 0.02842328 0.051793817 -0.0007333587 -0.0018991495 0.02525362 0.06522768 -0.0476651 0.29596126 -0.13461149 -0.04167533 -0.036506906 -0.049372397 -0.014134812 -0.022164747 -0.0022248346 0.06414088 0.41330877 -0.42184123 -0.06235811 -0.09347093 -0.108886085 -0.060515057
6.0156244e-06 0.10443677 -0.00071668415 -0.00028526355 0.00015735975 0.019930003 -0.001911803 0.60361207 -0.59208333 0.1304782 0.41583848 0.0329102 0.010910723 0.018017115 0.00417143 0.008282729 -0.004163197 0.54026914 -0.48321152 0.035690706 -0.26815507 0.07362521 0.04086436 0.00049662625 -0.0072978456 0.041319337 0.0049038087 -0.080643214 -0.12316728 -0.15675566
-0.0093126735 0.11798644 -0.0457481 0.058986764 -0.003062748 -0.05764234 -0.0020949247 -0.1774212 -0.19993187 -0.06415769 -0.38169345 0.54475117 0.26700124 0.09353895 -0.00767899 -0.022467624 0.005338711 -0.12266074 -0.20140842 -0.046859786 -0.3387555 0.374375 0.10701149 -0.13322473 -0.02134835 -0.13914087 -0.0041049644 -0.5303776 -0.42551884 -0.12187909
0.058801547 -0.047181938 -0.0013524342 0.047179423 0.012727545 -0.024218502 0.070124134 -0.038501494 0.036857996 -0.02981409 -0.11119973 0.04757936 0.18045397 0.08623014 -0.48372445 -0.24075948 -0.19539148 -0.07942683 -0.024103213 -0.08551715 0.016720902 -0.025032226 0.3311908 -0.023846313 0.06545481 -0.3231507 0.14764434 -0.16063762 -0.20230809 -0.18483469
0.00482267 -0.4394078 0.003286814 -0.011503434 -0.0005813192 -0.0111873085 0.0009952803 0.15346539 -0.20905504 0.27474496 -0.3529023 -0.29639643 0.020624764 -0.13494776 -0.0014348329 -0.014033618 -0.0026161356 0.105454996 -0.15341729 0.32458675 0.24093139 -0.18896447 -0.41475162 0.031017354 -0.01174406 -0.009556897 0.0052223084 -0.08796394 -0.11460767 -0.12875524
0.00014443864 -0.014394154 0.0014694524 -0.075400814 0.012674345 -0.053554878 0.0012233899 0.015269175 0.0044755293 -0.0053502326 -0.0026235373 0.022285508 -0.0014680859 0.03698252 0.077836595 0.34122723 0.017519126 -0.0017992983 -0.0033038445 -0.031995095 -0.0037105004 0.0069296556 -0.020576209 0.08232382 0.7942945 0.42607817 -0.011717904 -0.06853745 -0.07914217 -0.06412106
-0.00036492205 0.0058777924 0.014235871 -0.36400208 0.0013798645 -0.07410491 0.0076710973 0.0061037038 0.010419513 0.2995674 0.0042481166 -0.02207255 -0.07409039 1.3616507 -0.024341704 -0.29551384 -0.01659483 0.003647694 -0.031480357 -0.23060721 0.03264099 -0.08658535 -0.021311894 -0.18310662 0.05297329 0.21559049 -0.0031723825 -0.17629033 -0.16408335 -0.10497783
7.017999e-05 -0.00040091123 -0.00411296 -0.058145497 0.00612902 -0.13771479 0.0027307458 0.031089371 0.001418209 0.024070518 0.0011043928 -0.0020576154 0.013077244 -0.04425289 0.67052364 0.36379242 -0.035329547 -0.0028545803 0.01829969 0.024378374 0.009586033 0.008394494 0.0122299325 0.038183354 0.2601387 0.20862055 0.004678843 0.0073256106 0.058193788 0.08601332
-0.0037326135 0.36974874 -0.0021182336 0.17778897 -0.0051451903 0.017412772 -0.0047882027 -0.024305828 0.0013003007 0.11428915 0.013788867 0.22692445 0.12184005 0.07507611 0.021204468 0.016764652 0.00057596806 0.03102429 -0.0016486507 0.09776417 0.008058024 -0.28313726 -0.6542616 0.36283475 -0.0033546907 0.025310973 -0.008520439 -0.038127325 -0.043277923 -0.0024526732
-0.0004076909 0.008306615 -0.00028495496 -0.09227286 0.0015176006 0.027921181 0.00054381613 -0.03284884 -0.041532595 -2.1318078 -0.00032308753 -0.013016533 0.0011793962 -0.0240407 -0.0012791728 0.015073816 0.001227217 -0.035875782 -0.01362363 -2.1966002 0.0038185695 -0.04342204 0.0022530616 0.1086055 -0.0010074947 0.040136196 0.0008549581 0.3411607 0.31669307 0.2926598
-0.0036438429 -0.1549951 0.0023692462 -0.014063656 0.0010140412 0.003424483 -0.00093444815 -0.0016323881 -0.45393676 0.48250985 -0.20617817 -0.17109418 0.009235073 0.055042 -0.005319879 -0.011268186 0.012094169 -0.0011108001 -0.34018272 0.38188985 0.02471138 -0.15409997 -0.03870251 -0.027484352 -0.00041607078 0.006153819 0.0065590166 -0.026783288 -0.07091296 -0.42504793
-0.019185787 0.0063504325 -0.002934695 -0.009276229 -0.0019280774 0.004939361 0.003952018 0.7925991 0.72689366 0.0078012124 -0.43034512 -0.010295609 -0.007324262 -0.010965459 0.0014617668 0.000109526845 -0.005401507 0.7795314 0.6913908 -0.03309125 0.5564598 -0.0002831589 -0.0011919494 0.003835687 0.0013166945 0.0050022355 -0.0029276467 -0.056239117 -0.058654822 -0.06550236
-0.006768856 -0.20122337 0.001822795 0.039094415 0.0047916975 0.0023877167 -0.0022037672 0.25452203 -0.6279782 0.06353934 -0.59363335 -0.15998797 -0.0132919215 0.0032758683 -0.019772366 0.0071637724 -0.006287119 0.2439913 -0.5856617 -0.0493424 0.24189876 0.36961508 -0.04718305 -0.00094753597 -0.012888397 0.00634663 0.003280374 -0.16728432 -0.1194339 -0.18731079
0.016928146 0.0040818797 -0.0025368594 0.044803478 0.0013030376 0.00936481 0.0013336478 0.64810526 0.18104576 -0.022977786 0.67837775 0.015504877 0.16665792 -0.025335046 -0.008447799 0.013495014 0.0043273815 0.55148196 0.050689716 -0.008492153 -0.34662905 -0.021933552 0.0013405532 -0.058279626 0.0066716927 0.007086945 0.0006069308 -0.22305392 -0.14683719 -0.08009975
-0.010277265 -0.0071982522 0.007001045 0.005962613 0.023555461 -0.050964545 -0.016792998 -0.017549561 -0.022051476 -0.05215983 0.04342906 0.009931089 -0.13863382 -0.028187642 0.67096573 -0.47999004 0.006818307 0.033167254 -0.0069580916 -0.0010658603 -0.005226387 0.01128823 -0.0646877 0.035146803 0.047496807 -0.34381884 -0.034811426 -0.123847276 -0.11344209 -0.19318518
-0.011940328 0.045219224 0.0062285047 -0.0008589924 -0.011067639 0.046085257 0.01721821 0.054308858 0.0011503339 0.11449191 0.028795768 -0.027877372 -0.008966825 -0.09421079 0.015702598 0.017879471 -0.034976564 -0.09372012 -0.0153982695 -0.1904633 -0.006248057 -1.9402765 0.099762216 0.49050358 -0.000693262 0.055345055 0.003135939 -0.41370496 -0.38113087 0.027959358
-0.007241689 -0.05966953 0.018912103 -0.052306365 -0.00226387 -0.006363583 -0.0084528355 0.20107463 0.046314027 0.016348615 0.0240591 0.1078592 -0.040170226 -0.16351889 0.0067991843 0.002457903 0.0071616108 0.28713435 -0.028685862 -0.03190431 0.23874573 0.695746 -0.37888542 0.070703834 0.015464634 -0.010932991 -0.009372847 -0.24004589 -0.39847964 -0.14318527
0.012434698 -0.004497302 0.0074446825 0.024827305 -0.0039484194 -0.0050622225 -0.0038476496 0.6544124 -0.026655175 -0.00269776 0.69178194 -0.004493641 0.1962097 -0.046701793 0.0046008066 -0.009402394 0.0056475303 0.57226557 -0.040515646 -0.04044698 0.19254193 -0.02639234 0.011449425 -0.03910948 0.006984293 -0.005958311 0.009342467 -0.16840938 -0.09152793 -0.118761435
0.0017521891 -0.006418435 -0.00088162656 -0.022768393 2.5870064e-05 0.014500591 0.0007054616 -0.57284 -0.0054306197 0.5897318 -0.00078117463 0.010203005 0.002302874 -0.023210354 9.756098e-05 0.011739853 -0.004706709 -0.4730411 -0.028930958 0.45055133 -0.008261603 0.052158464 0.001288942 0.019788934 -0.00017137329 0.016670035 -0.002693787 0.010452412 -0.011851281 -0.3166389
-0.012447865 -0.0036429327 0.0017064331 -0.0011176218 0.002415019 0.006121826 0.005211084 -0.6774325 0.45677605 -0.17628525 -0.27312985 -0.04904349 0.0056511527 0.0043057036 -0.0007154733 0.00465901 -0.010804607 -0.6200959 0.36502442 -0.1980463 0.37707672 0.043728787 0.007686013 -0.018197076 -0.0017608248 0.010653206 0.010590372 -0.11474186 -0.067848064 0.03222256
0.0015340238 -0.007291482 -0.0012346766 -0.024690365 0.0004936708 0.028795995 0.0019083417 0.7192212 0.6858555 -0.025369914 -0.4060549 0.022304397 0.00080060854 0.010932712 -0.0029899534 0.01454467 0.003018079 0.69193846 0.64597386 -0.12070979 -0.3856886 -0.013284673 0.0077559184 0.016824614 0.0052754274 0.04394369 -0.0011171286 -0.06131851 -0.11531106 -0.056352023
0.0049483012 0.1156047 0.0022694767 0.009194398 0.00089270296 -0.022235783 8.896772e-05 0.023284752 0.6886871 -0.5244585 0.343407 0.31237876 -0.017972374 -0.010322768 -0.003530482 -0.013450825 -0.007919069 -0.055111036 0.6540475 -0.9304933 0.0586812 0.20938809 -0.0050525665 -0.00747279 -0.0051979334 -0.04294719 -0.002121197 0.01857316 0.06987963 0.012176469
0.004516202 -0.018232452 -0.004223762 0.04891375 -0.0015108208 -0.0076879743 -0.0015983512 0.27733347 0.75413936 -0.06666981 0.27865887 0.012565922 0.037012022 0.023989087 -0.0021828883 -0.017077066 0.007135502 0.16705306 0.693767 0.059478622 -0.7143694 -0.018129904 -0.00012537758 -0.054813396 0.007129616 -0.008327318 0.00049229927 -0.19430894 -0.29953423 0.0599079
-0.0023985552 0.1661124 -0.03734408 0.13356051 -0.005675402 -0.009506912 -0.015214993 0.02332989 0.008674632 -0.10838947 -0.07026245 -0.08402682 -0.39388636 -0.06793672 -0.3302924 -0.48411453 0.32324335 0.032996796 -0.038514975 -0.088516004 -0.02640546 -0.0891749 0.120958045 -0.010696979 -0.10143959 -0.22171694 0.14363009 -0.073444426 -0.28042707 -0.25330493
0.012958533 -0.027790438 0.0015245012 0.08468025 0.0074663684 -0.013911128 0.006517164 -0.45779946 0.21635538 -0.025862115 -0.6055834 0.10310797 0.36675575 -0.13294525 -0.00820332 0.0091768 0.00225668 -0.36425045 0.17898622 -0.02854225 -0.1898077 -0.034230944 0.05747339 -0.14752223 0.016624004 -0.032635797 -0.0004892855 -0.18382181 -0.08899687 -0.11650111
0.004658684 -0.035007004 0.013614213 -0.081607565 -0.058359027 -0.0024167509 0.0067628683 0.0068696593 -0.020007003 0.038302403 -0.0120859435 0.02503796 -0.8488324 -0.659025 -0.0009072867 0.006538013 -0.016805852 -0.0003009882 0.017779814 0.045008913 0.0071519758 0.03444121 0.23076181 -0.14669082 0.077517875 -0.021087809 -0.010521232 -0.10276062 -0.122156814 -0.16255857
-0.002604273 -0.21684293 -0.0023856445 -0.021411965 -0.0034730497 -0.031123333 -0.002260619 0.032489356 -0.00059281365 0.020305967 0.003418833 -0.33645046 -0.15977706 -0.7187231 0.005278021 0.009085546 -0.0061820857 -0.027677827 0.021121502 0.01448505 -0.02465989 0.49543434 -0.8587866 -0.21675102 -0.007554938 -0.06197157 0.0032234371 -0.2298448 -0.2480058 -0.2723298
0.009100252 0.3054024 -0.0009794985 -0.021703357 0.0030385787 -0.01559121 -0.0051694917 -0.24902746 -0.35084787 0.43726155 0.28332758 0.25969848 -0.010068354 -0.057697013 -0.0036490143 0.002501817 0.005452691 -0.19710504 -0.32294902 0.41191325 0.22394592 -0.18898146 0.15736523 0.013687022 0.0041436874 -0.027053045 -0.0037964643 -0.088435605 -0.07975682 -0.2958837
-0.0093497895 -0.23504087 -8.994205e-05 0.04379146 0.0014469128 -0.011845521 0.00042189626 -0.6912077 0.08508535 0.14491837 0.065581895 -0.051074833 -0.003849979 0.052566823 -0.0016939875 -0.0055893613 -0.014637374 -0.688391 0.010105627 0.07901462 -0.5399592 0.31864676 -0.032392815 -0.03780085 -0.0011075356 -0.014283778 -0.006848023 -0.11799249 -0.075591415 -0.18518622
-0.06384196 -0.0011815313 0.011915628 0.04577131 -0.0044405027 0.031717293 0.006678566 -0.4012522 -0.338275 -0.008770299 -0.4794311 -0.031253133 0.34537455 -0.0979223 0.0013722872 0.019800268 -0.011045442 -0.2557426 -0.33086893 -0.044226456 0.3004555 -0.0682208 -0.0028398125 -0.09654867 0.013339027 0.023660408 0.0073115327 -0.19639334 -0.10699085 -0.16161077
-0.007009156 0.31764045 -0.0032040626 -0.008414707 -0.00094156247 0.009120585 0.0031745278 -0.35623586 0.23161842 0.49325025 -0.16372794 0.30019832 -0.0020642953 -0.09285075 -0.0020686842 0.005281704 -0.012225877 -0.27162045 0.1579061 0.45639348 0.31198844 -0.24683407 0.1734178 0.0010473621 0.0021837736 0.015632011 -4.4258897e-05 -0.087385386 -0.08946311 -0.36117265
0.00590124 -0.09193019 -0.0029366438 0.034284905 -0.0025831829 -0.0049445005 -0.0013352552 -0.3917611 0.6611956 -0.5735577 -0.32709882 -0.1834685 -0.005594441 -0.009816559 0.008360084 0.007137872 0.005563151 -0.32301122 0.6179214 -0.52706796 0.20758455 0.24780723 0.006701128 -0.014140176 -0.00065713195 -0.012037604 -0.0005128955 0.05028313 -0.029228104 0.10289274
-0.0035024027 0.002367001 -0.0015254997 -0.01492988 -0.0026965935 -0.0025793703 -0.0016268679 -0.92612886 0.12651965 0.02830536 0.7861017 0.00021427206 -0.042289943 -0.008822334 0.0048188968 -0.003874649 -0.00889699 -0.90775734 0.11217865 -0.034952033 0.02502905 -0.0033202812 0.0064438274 0.015595323 0.00053398876 -0.0038947177 0.0044597085 -0.034107734 -0.14308022 -0.035570726
0.0032339708 0.010374065 -0.00038484493 0.012978024 -0.00080522423 0.00053610455 0.0005784628 -0.30210036 -0.9373943 -0.0061595966 -0.25023296 -0.014042584 0.04848311 0.0033007418 0.006009406 0.007293002 -0.00052725454 -0.2205015 -0.87964356 -0.0500623 0.7221267 0.012636837 0.0027276622 -0.025608372 -0.00505341 0.0040447307 0.0020593042 -0.06629218 -0.12938139 -0.0377921
0.0036931797 -0.27443656 0.0086207455 -0.050960075 -0.0033493538 -0.0072007384 0.0010164122 -0.012451069 0.010802266 -0.011561148 0.001614564 -0.1387902 0.5353551 -0.44389093 -0.008601726 -0.0035263621 -0.0056864643 -0.005312868 -0.0052826884 -0.08645858 0.01189686 0.3328225 0.6658162 -0.2524451 -0.003815904 -0.022567362 -0.0034369503 -0.19022904 -0.18473883 -0.13654643
0.0015255647 -0.14172791 -0.0011521897 0.0155652445 -0.0010467104 0.010258051 0.004393436 0.65255535 -0.41931912 0.21844533 -0.29259527 -0.111075036 -0.0023091836 0.022695754 0.00778694 -0.001451321 -0.014329034 0.5999311 -0.3781659 0.12515396 0.46043777 0.118730426 -0.04470118 -0.017533071 0.0018890315 0.013523189 -0.0014861106 -0.11639634 -0.06275598 -0.21649936
0.0008123731 0.14525162 -0.0005274447 0.007518856 -0.0030629558 0.018459395 -0.00053687487 -0.7350618 -0.24917349 -0.667113 -0.11052843 0.23751523 -0.026412487 -0.033528727 0.0109084 0.0013989437 -0.0045307893 -0.67477584 -0.2905518 -0.7115622 -0.33533645 0.13686083 -0.001047057 0.003286432 0.0051869033 0.024197219 0.0030911544 0.018830268 0.012990557 0.09565077
0.002473301 -0.028903877 -0.00080380664 0.010588639 -0.0015966045 -0.0002321055 0.0012923477 0.80861604 -0.46688327 0.012751144 -0.7240976 0.036550354 -0.058488153 -0.020510599 -0.001401635 0.00060772203 -0.0010047299 0.75856143 -0.31962436 -0.04102283 -0.30350286 -0.00094879244 -0.0011712109 -0.016554989 4.463235e-05 -0.00022675275 -0.0018753085 -0.15791576 -0.12611073 -0.066481605
0.009698787 -0.22424635 0.017838852 -0.024493594 0.0015795248 -0.022066373 -0.0015708489 -0.042803966 -0.057881605 -0.041282948 -0.030537535 -0.39680445 -0.1650925 -0.40861225 0.006065841 0.0351166 0.012718978 0.0058029294 0.07376016 -0.2350817 -0.040247332 -0.116514035 0.6255446 -0.4596478 -0.0022389882 -0.0440828 0.00775191 -0.19829813 -0.24854311 -0.20591502
-0.0057043904 -0.015395041 -0.0021022903 -0.0006835141 -0.000608952 -0.01924211 -0.00076053303 -0.65997154 0.5618439 -0.05190658 0.474789 0.03273953 -0.14291857 -0.006308369 0.0018324022 -0.023773078 0.006713405 -0.5709824 0.39707795 -0.042866934 0.5456111 -0.006761146 0.014028213 -0.009405802 -0.00532721 -0.028670128 0.001777156 -0.14210947 -0.1454327 -0.025444709
-0.0061642244 -0.08220141 -0.044089373 0.21647047 -0.0013923848 -0.0041492977 0.009721489 -0.0036046656 -0.022236817 0.043204837 0.022506928 0.33122596 -0.67065376 0.015380121 0.0046470203 -0.010061001 -0.014432141 -0.011769853 0.0063330466 -0.10699182 0.013692383 0.5179164 -0.123491205 0.3062025 -0.005222869 -0.018264383 0.007910466 -0.19426124 -0.20419478 -0.17487286
0.025488647 -0.052895952 -0.0036208534 0.08287342 0.0069889114 -0.023538863 0.002243763 0.3876441 -0.52881646 -0.09588398 0.44108778 0.063347794 -0.033233263 0.028618911 -0.016649196 -0.015415057 0.005038229 0.42707902 -0.48334342 0.014037951 0.54275507 -0.049032785 -0.013498896 -0.046069615 -0.009285057 -0.031220565 -0.012300751 -0.27755046 -0.23574041 -0.0066213156
-0.0051909983 -0.22134528 0.013039991 0.090059675 -0.0054232725 -0.012604711 0.0050933417 -0.012247071 0.0014054177 -0.75404847 0.020815628 -0.4540923 0.06497273 -0.14972565 -0.0061021764 0.00297841 -0.009428282 0.025673954 -0.02517125 -0.69250435 0.01183733 0.23904575 0.56640065 0.050467823 -0.0076546837 -0.02620316 0.006348988 -0.056214236 -0.0030356066 0.04765044
-0.018016152 -0.27178144 0.0033881997 0.069538005 -0.011492327 0.0011141297 0.0044952477 -0.32435828 0.050355338 -0.25876632 0.03322039 -0.28824422 0.034163512 0.036936622 0.016976757 0.009223958 -0.0049450705 -0.5646176 -0.033557028 -0.25402087 0.42693028 0.10151491 -0.13115174 -0.20888689 0.0056538903 0.0081296135 -0.0014446245 -0.005327138 -0.21510775 -0.037495468
0.011597539 -0.25103256 -0.0061016 0.056147847 0.0023628555 -0.011350327 -0.0016553123 0.43163964 0.5118325 0.06351091 0.58483255 -0.2424238 0.004031919 -0.015844153 -0.007046218 -0.015244474 0.010391119 0.43918958 0.49922138 -0.009582236 0.51788235 0.17862912 -0.03519076 -0.0064604906 -0.0027285884 -0.008638598 0.003932243 -0.1168812 -0.15967585 -0.22484809
-0.0036077737 -0.0026005113 0.006495031 -0.033621162 -0.0022204274 0.05258333 0.007201865 -0.05952619 0.0046017757 -0.3823799 0.013355537 0.04901293 -0.04240802 -0.5268488 -0.08123501 0.32607967 -0.016219715 -0.051791433 -0.01457714 -0.11569214 0.013028359 0.22268969 -0.027034303 0.30518216 0.10443935 -0.22836497 0.0030324808 0.30605483 0.31017604 0.46725175
0.012306859 -0.1845828 0.0022788735 -0.18256174 0.0040651388 -0.06098832 -0.0059627276 0.007157215 0.0017837472 0.08008839 -0.018694827 -0.100456126 0.3499215 0.23191768 -0.0023288114 -0.016871817 0.009732999 0.0365611 -0.00068582396 0.09269207 0.0053079976 0.41952318 -0.26730812 -0.35514516 0.0030194586 -0.082694605 0.0077798734 -0.04259828 -0.04781244 -0.13605197
0.006115909 0.09110779 0.023585519 0.10457414 -0.005228791 -0.05129917 -0.032136817 -0.20422637 0.032845076 -0.17640465 -0.29049534 -0.40220568 0.3910538 -0.041243367 0.027953384 0.019127483 0.07855779 -0.1919161 0.25122193 0.05996865 0.2588053 0.042985696 0.1426713 -0.1555961 -0.018989021 -0.06704539 0.004209438 -0.16750336 -0.13325082 -0.052664805
0.0033041884 0.27340928 0.007079668 0.07888061 -0.0029553128 -0.022634689 -0.0008019044 0.4084312 0.37783086 0.055343393 -0.4980838 0.30172786 -0.014126096 -0.0448106 0.0074527473 -0.012880216 0.003696255 0.4666366 0.39134902 0.0021151495 -0.5694852 0.05604933 0.017852837 -0.030920293 -0.002985513 -0.03541041 0.00064505904 -0.108639784 -0.13992028 -0.24227487
0.0038488647 -0.02597664 0.0014526306 0.031274233 0.00085019215 -0.023274906 0.00056439673 0.651655 0.60547185 -0.09212594 -0.48064384 0.025026143 -0.04461269 0.00030899138 0.0017867647 -0.0073641343 0.0035001542 0.6197224 0.55533195 0.042175848 0.5145104 -0.005414461 -0.00024763716 -0.044585623 0.010049698 -0.031724073 0.0018014108 -0.14136657 -0.13952647 -0.0062475544
-0.007257566 -0.06001731 -0.0055263685 0.019415285 0.024584567 -0.063739635 0.0010930802 0.18594678 0.38841817 -0.016297 0.41631076 0.08035438 0.32310295 -0.057290856 -0.058578152 -0.026539125 -0.005358767 0.10294108 0.43508965 0.006586166 -0.09075709 -0.008477732 -0.079585336 -0.1562558 0.028248608 -0.10420791 -0.020285 -0.14332214 -0.049993254 -0.06787463
-0.00075380504 0.06313638 -0.0012297985 -0.020592185 0.0014026363 -0.015338948 0.00078474305 -0.13110577 0.1309599 -0.077039644 0.19260983 0.3063922 -0.5737901 0.13178174 -0.035064302 0.016382698 0.023119131 -0.120701686 0.13187546 -0.048829906 0.018085081 -0.09992813 -0.050071266 -0.019063184 0.011997926 -0.05070413 -0.015270498 -0.21293887 -0.16017118 0.016622884
-0.029619172 -0.014306752 -0.010782895 -0.016908022 0.065323174 -0.10644868 -0.02968596 -0.04614364 -0.01861004 -0.028248576 0.053465657 0.049219217 0.02257627 0.026200108 -0.0797588 0.118749075 0.27676558 -0.027334342 0.049482856 -0.02663329 -0.0011933564 -0.026515272 0.01888904 -0.0085560735 0.36995062 -0.35734242 0.29526836 -0.17563571 -0.13759884 -0.09983391
0.0052731903 0.011025345 -0.003586451 0.035307024 0.013552448 -0.14205678 -0.00011165352 0.030122124 0.060219686 0.0025616759 0.0011337071 -0.020383917 -0.0035547607 0.03658105 -0.034360427 0.31463698 0.69716525 -0.04157671 -0.043820422 -0.017718935 -0.007972461 -0.0058093737 -0.0117215905 -0.04557847 0.02785463 -0.057164 -0.701259 -0.014535183 -0.060245693 -0.059638828
-0.003707069 0.0022656694 0.0015283136 0.029683828 0.00061231357 -0.008173231 -0.0005977046 0.7651426 0.64838076 -0.033713512 0.5429326 0.00090936956 0.03155543 0.013650667 0.001058016 -0.0020422025 -0.004668848 0.7326052 0.5697459 -0.052233167 -0.4380399 0.0018809974 0.009018096 -0.03950825 0.00032156362 -0.012903387 0.0028342525 -0.10171023 -0.068347484 -0.0228616
-0.0009979507 0.05683011 -0.039380938 -0.037053943 0.0021132824 -0.012547294 -0.005765516 -0.015973682 -0.014830004 0.00034744633 0.021216014 -0.005905894 -0.121956915 -0.1999694 -0.008102093 -9.364356e-05 0.01570444 0.017570589 0.013880009 0.028653279 -0.0092621185 0.8197651 0.66317254 -0.16358049 0.013273034 -0.027542148 -0.0032131148 -0.23409232 -0.23553042 -0.17848495
-0.0021454007 -0.0033502223 0.0046544964 0.027211938 -0.0047741607 -0.003441884 -0.0024508783 0.8999011 -0.070386045 -0.039170254 -0.8077739 -0.014424961 -0.06582411 0.006206052 0.004525706 0.007228706 0.0048675304 0.86777985 -0.11212006 -0.012679526 0.11089548 -0.002927996 0.0062632547 -0.034774743 -0.010505283 -0.010200579 0.0002601415 -0.1681032 -0.04071629 -0.032308236
0.0018796897 -0.051563825 0.088424295 -0.0058885533 0.00826061 -0.004950762 4.610865e-05 -0.08491516 -0.0089580845 0.020146059 -0.037415776 0.061493427 0.8270859 -0.21001242 -0.009926628 0.01147597 -0.0028301028 0.054060943 -0.031362336 -0.2353336 0.02577158 -0.8212133 0.15761565 -0.1453397 -0.009294817 -0.03235785 0.01158775 -0.5786715 -0.4756407 0.23315987
0.00014703743 -0.013548798 -0.0007403795 -0.012455189 -0.0015860801 -0.005319331 -0.0010620455 0.021246724 0.030941619 -0.7365262 -0.0002744963 0.024072323 0.0011369813 -0.039593074 -0.0042529833 -0.0027720397 0.0009980843 -0.021753082 -0.029148404 -0.729766 -0.0033575862 0.79745847 -0.020506287 0.079717696 -0.0048410306 -0.011051345 -0.00020308593 0.060082056 0.067690946 0.12244886
-0.0020731399 -0.009285486 -0.00143459 0.014548698 -0.00312628 -0.0030309998 0.0019385018 0.30613247 0.9674165 0.005268514 0.26231968 0.0104652345 0.037907597 0.012931191 0.0030218458 0.005357262 -0.00086648925 0.26970384 0.93230236 -0.034369517 -0.7444154 -0.0055699255 0.0013154809 -0.01866253 0.004534425 -0.011756118 -0.006286854 -0.124409094 -0.08970022 -0.021628069
0.010273958 -0.031274516 0.005078749 -0.14426814 0.03158857 0.07117968 0.02743385 0.012655766 0.00084576895 0.0753684 -0.015115944 -0.031380937 -0.04772394 0.8807077 -0.17864099 0.011819117 -0.14595544 0.044895563 0.053851675 -0.024026448 0.056820463 -0.278626 0.0004433718 -0.21437278 -0.31347895 -0.2541827 -0.0050877267 -0.2957796 -0.2529365 -0.14404494
-0.0014379317 -0.014723372 0.00054086006 -0.015049537 -0.0007944985 0.00029138167 -0.0014595203 0.6887329 0.0778968 0.58514637 0.0013954992 0.021819625 -0.00594452 -0.017023332 0.0043271966 0.0010011066 0.0067114765 0.59769744 -0.009667566 0.4372336 -0.0020082504 0.026432185 -4.046875e-05 0.017367993 0.0044160187 -0.0036870984 -0.001170668 -0.053002175 0.00790478 -0.3489927
-0.004686223 0.061382353 0.0020632918 -0.063703135 0.0018111854 0.012079305 0.0025670964 -0.002968994 -0.009200649 0.021876529 0.020023786 -0.14159122 0.7786479 -0.67871696 0.006010457 0.016625889 -0.012326067 0.013949176 0.0029655495 0.0012038724 0.0013243065 0.042942997 -0.5646973 -0.1533596 -0.014065149 -0.0007605116 -0.009588033 -0.085438505 -0.11461986 -0.13799283
0.00048865937 -0.026065135 -0.0025907035 -0.06885855 -0.0005332842 0.01084487 0.00084066903 0.270445 -0.13316116 -0.95650053 -0.00049298187 0.046397787 0.006301981 -0.028760934 0.0005922799 0.003913184 -0.0023180633 0.23579347 -0.10372383 -0.9737828 0.012939385 0.3565808 0.0020925226 0.10887306 -0.0016218274 0.021026919 -0.0058985064 0.20567046 0.22838697 0.20932145
0.002134373 -0.003033269 0.0012660625 -0.016691443 -0.000358342 -0.002373741 -0.0016036186 0.53356177 -0.7845647 -0.15769589 0.0046807462 -0.0006753304 -0.0026016822 -0.005052408 0.001963118 0.0049636853 0.0006918889 0.39833462 -0.71247655 -0.2432683 -0.00661673 -0.0007947601 -0.00043037816 0.021270627 -0.00038201746 -0.0042429897 0.0024324013 -0.002288417 -0.040092863 0.038231626
0.001952308 0.1980974 -0.0016776866 0.107345395 -0.0036807714 -0.00757551 0.006602376 0.008479932 0.015324898 -0.7004408 -0.0057544294 0.47502917 -0.02278062 -0.22774777 0.0071582086 -0.008546964 -0.011658041 -0.0023409813 -0.06615011 -0.73683983 0.03311578 0.3599732 -0.54990804 -0.092614375 -0.0019447992 -0.0077139027 0.0044438667 -0.008173144 -0.04914903 -0.007646466
-0.0017655588 -0.0026248407 -0.0027923274 0.0047071865 -0.0013608198 -0.0037040245 0.0021020975 0.6998647 -0.8254493 -0.009368638 0.48838428 0.014221121 0.018997254 0.015520299 -0.0033711484 0.00046383566 -0.002058676 0.7100073 -0.791373 -0.04058725 0.65023464 0.006652943 0.0011920818 -0.0052797515 0.0008323632 -0.008371528 0.0007567447 -0.01618515 -0.08253391 -0.041050076
-0.010069902 0.0071018087 -5.238113e-05 0.032778986 -0.016196918 -0.026418695 0.0068212147 -0.011360687 -0.02677782 -0.037556853 0.02106403 -0.028261265 0.021697357 -0.0031371447 0.42048112 0.03764002 0.5827362 0.013705455 0.044399522 -0.03245065 -0.0035420575 -0.010839469 0.0077453475 -0.06310792 -0.069753006 -0.049858663 0.03343734 -0.10555787 -0.035576105 -0.09230291
-0.002304314 -0.022054434 -0.006306767 -0.31222066 -0.00380884 0.018714555 0.0017623041 0.0073080966 0.017009778 0.029593602 0.00016172779 -0.0095824795 -0.028007075 0.34708282 -0.005970429 0.03871652 -0.0020886995 -0.016664075 -0.01838157 0.1607628 0.0035218669 0.04458565 0.028611554 -0.79600906 0.015795061 0.004712431 -0.007256417 0.140967 0.14211944 0.16470827
0.019997222 0.1903756 -0.0032312386 0.071278 0.0024973506 -0.005829218 -0.002294314 -0.28945157 -0.51773983 0.020554276 0.54822385 0.26345977 0.024560265 -0.004078983 -0.0127450535 -0.010206218 0.0018917408 -0.24062383 -0.519186 -0.0030745543 0.37661088 0.33268622 0.051485002 -0.0366022 -0.00049399503 -0.0065888297 0.0029813629 -0.1759443 -0.09629285 -0.17072576
-0.00042796 0.10731839 0.036120225 0.038892444 0.008713485 0.021662643 0.0043484173 0.056165244 -0.033002194 -0.83215046 -0.039127044 0.23714891 0.6487767 0.11997307 -0.02204826 -0.009641605 -0.011466206 -0.055735037 -0.024997469 -0.8507633 0.0048234835 0.51015097 0.23034325 -0.0899334 -0.0069993963 0.04641727 -0.009484584 -0.1747287 -0.11865272 -0.051669084
0.009816297 0.21592155 0.006878854 0.061293695 -0.013197572 0.006673037 0.0057979533 -0.0385839 0.00652929 0.049765628 -0.0017654491 0.5090748 -0.22482108 -0.37615678 0.027791597 0.025008157 -0.0040362007 0.028182833 -0.0036397022 0.041286536 -0.0007191113 0.081224106 0.6678527 0.1771122 0.006114486 0.009650604 -0.0007571393 -0.23961335 -0.220463 -0.15636231
-0.01179869 0.038653888 0.021865372 0.3837245 -0.0049012597 0.025690803 -0.0036848886 0.016615067 -0.00014379957 0.14598538 0.038098574 -0.08410297 0.92054033 0.85780233 0.018661555 0.041341245 -0.0026400979 -0.021280773 0.010151994 -0.07231372 -0.00225064 -0.14854923 -0.056089528 0.04773025 0.022523003 0.012351463 -0.0071219294 -0.1516086 -0.16461475 -0.12834933
0.011510163 0.026914338 0.024532733 0.052972667 -0.023235057 0.098555855 0.003914541 0.016281264 0.0104194395 0.053734064 -0.009426601 -0.056437835 -0.054572728 0.08690874 0.18703829 -0.28225574 -0.0048453053 0.0013064881 -0.0056032315 -0.079840764 -0.0030976047 0.0049882103 0.041022424 -0.032045823 0.5768726 -0.34576634 0.054374617 -0.07195976 -0.09324952 -0.04788667
0.003301269 -0.0012730425 -0.0036092296 -0.008454612 -0.0033524435 -0.2968911 0.004645703 0.016033541 0.050793834 0.1283794 -0.00028545703 0.002772821 0.0058974777 0.036846556 0.0062280446 -1.19393 -0.01488606 -0.01638376 -0.08683659 -0.07772792 0.006854767 0.04573526 -0.005748867 0.19923532 0.2403024 0.24769957 -0.0013663222 0.08526462 0.0990176 0.16424882
-0.08027277 0.04184064 -0.0021019948 0.074767254 0.0073471363 -0.05139153 -0.0102252215 0.4355857 -0.13198708 -0.036120035 -0.3507675 -0.06967267 -0.3565567 -0.053772792 -0.01218538 -0.045091882 0.028047452 0.3451105 -0.044605553 0.006810999 -0.31527564 -0.051887933 -0.008728835 -0.122109435 0.015230148 -0.06525496 0.01217651 -0.25281382 -0.018837035 -0.10948986
0.0037480048 0.2195494 -0.0005115763 0.056660183 0.0029569252 -0.017993238 2.7163134e-05 -0.05451921 0.5254503 0.05136877 -0.6760017 0.28984186 -0.001898204 -0.010132123 -0.004893777 -0.014510319 0.00096577255 0.120967336 0.5580886 0.019440042 -0.018358486 0.24015361 0.044233862 -0.018465197 -0.0035294257 -0.016792051 -0.0012741818 -0.10341557 -0.1733964 -0.20410651
-0.0042424193 -0.02838294 0.0049784114 0.09093702 -0.0190556 0.009793756 0.0034405706 -0.061719965 -0.50370044 -0.13095945 0.22083911 0.15754497 0.23770604 -0.08578204 0.039818924 -0.045401458 -0.004552865 -0.2363159 -0.5905903 0.028872294 -0.4948791 -0.13774763 -0.03556756 0.09522647 0.019879142 0.056634117 0.004626455 -0.068892136 -0.35184512 -0.071213745
0.0106396545 0.004750082 -0.00013170314 0.003028603 -0.027613059 0.04881151 -0.012736691 0.014498017 -0.06361376 0.019894516 -0.009061507 0.0016326479 -0.016173901 0.01718274 -0.62026054 -0.2550371 0.028535625 -0.0056385794 0.06456167 -0.06079455 0.000743611 0.020439835 0.012481234 -0.005508692 0.41168562 -0.4116384 0.022801472 -0.20230277 -0.13045377 -0.10500934
-0.006619886 0.20166494 -0.0009730676 0.060175963 -0.00017452853 -0.009939747 1.046704e-05 -0.5560961 -0.29948616 0.033440895 0.47967136 0.24082766 0.0125782965 -0.02699324 -0.0046005757 0.0026126264 -4.714743e-05 -0.5566174 -0.35233122 -0.01106239 0.56618077 0.17689808 0.051904764 -0.013088185 -0.0030312077 -0.015274572 0.004255906 -0.09931635 -0.1296602 -0.17527016
-0.0015547212 -0.0053255083 -0.0026868414 -0.032207947 0.0026989412 0.022102619 0.0019964667 0.21810137 -0.60589534 0.5618889 -0.0058101458 0.014181095 -0.003202944 -0.018140204 -0.0046523707 0.010336581 -0.006093828 0.2046132 -0.47548208 0.42008838 0.0053227134 0.044908945 -0.0024910944 0.037511732 0.0028776638 0.03569862 0.0007808726 -0.027254518 -0.0024882336 -0.3156391
-0.0013054413 -0.00798102 -0.0030319423 -0.030919101 -0.0016622145 0.0037379987 -0.00026270625 -0.7404321 0.30708477 -0.66905034 -0.01230431 0.029920919 -0.001062365 -0.009278425 0.002643629 0.004216746 0.0017254072 -0.6773298 0.23529631 -0.73471564 -0.004536837 -0.005416552 0.0032129656 0.04101295 0.0058407937 0.002013627 -0.0043427786 0.053407248 0.077846915 0.122981295
0.0029150608 -0.0004412893 -0.0004458174 -0.02204504 0.0033644265 -0.0004601218 -0.0004183409 -0.292349 0.6037909 -0.50794053 -0.04993368 0.0014614906 0.009725203 -0.02813307 0.0037559438 0.0050837225 -0.0002345355 -0.21447803 0.5601123 -0.537276 -0.09699424 -0.08642326 -0.011769878 0.028142918 -0.0003711631 -0.007201302 -0.0008992925 0.054731667 0.01668222 0.119959444
0.0015501005 -0.023959346 -0.0037247909 -0.06060701 0.0073158657 -0.11705662 -0.0032763723 -0.012109114 0.033122227 0.030595703 0.015263074 0.033995815 0.012083735 -0.014935132 -0.7527048 0.43485162 -0.021170346 0.01821056 -0.03806687 0.0106359245 0.0052864337 0.026308145 -0.0011436954 0.028358119 0.2791238 0.28891557 0.029043606 -0.078007996 -0.046856254 0.013505413
0.00419976 0.27230075 -0.0023143494 0.018985966 -0.0011885262 -0.0099032195 -0.0048020277 -0.0010927151 0.03819681 0.4065865 -0.012346499 0.09187422 0.011487211 -0.41178277 0.011939287 -0.0047853864 0.018991802 0.02511539 -0.020444967 0.4995159 0.00048657472 -0.8637967 0.53163487 0.0410653 -0.014125117 -0.006215281 0.010055844 -0.2711777 -0.351921 -0.22996745
-0.010864859 -0.21026447 0.0026143966 0.09281896 0.00035219602 -0.012975522 0.002605764 0.054177128 0.51973546 0.031767953 0.70962787 -0.329784 -0.01289702 -0.033553462 0.011003212 -0.0111245 -0.010814877 0.016521683 0.5674132 0.0035896592 0.036013376 0.15808755 -0.02387249 -0.052011985 -0.0033093009 -0.024862899 0.0059910244 -0.11312446 -0.1491618 -0.21941628
-0.016302861 0.16371943 0.000275772 0.15050292 0.0023212784 0.03361141 0.015128599 0.089054175 0.0075464197 0.09043294 0.0016011272 -6.182855e-05 -0.06332102 1.1854595 -0.011000277 0.03145116 -0.037003573 -0.023118757 -0.027165461 -0.10899097 0.006241693 -0.1682025 0.50645363 0.09755363 0.0069380184 0.07945451 0.029849052 -0.081379384 0.038953066 -0.040321242
0.0038734192 0.1837242 0.003138388 0.053890433 0.0003766122 -0.01540644 -0.006026986 -0.4246794 0.5210216 0.033147205 -0.639015 0.22554189 0.013071688 -0.049622163 0.0068343664 -0.008997235 0.010293609 -0.3742045 0.49026975 0.012005721 0.30890384 0.16864206 0.06610704 -0.025213555 -0.003435281 -0.020846961 0.0006360863 -0.10343129 -0.18006952 -0.1624192
-0.0006534639 -0.26468256 -0.0031911982 0.0071564754 -0.0059181713 -0.017749546 0.0051648184 0.39868984 0.027680077 -0.3059279 0.051531553 -0.30346838 0.048255004 0.02843189 -0.005334803 -0.0060604154 -0.0038401748 0.60563684 -0.086510286 -0.3580621 -0.47094238 0.06837813 -0.12371182 -0.119634055 0.0011650594 -0.021698995 0.0021166448 -0.042198587 -0.19633394 -0.047758162
0.015419745 0.00459862 0.003044068 0.04988637 -0.005129629 0.0050139916 -0.0054398593 -0.076603174 0.42573044 -0.021735078 -0.2756368 0.03701945 0.38248906 -0.116785355 -0.023158478 0.008647074 -0.007569451 -0.014103475 0.41015458 -0.017500967 -0.5426438 -0.0014727621 0.062841065 -0.109793894 0.015584803 -0.0017600715 -0.010642977 -0.17239575 -0.08401036 -0.13769655
0.005456826 0.009910044 -0.00092491193 0.010904045 6.4640364e-05 0.006959648 -0.0018498569 -0.674913 0.8119626 -0.007150359 -0.49925354 -0.021838596 0.052692868 0.0030509832 0.0017991551 5.523747e-05 -0.0023222608 -0.7096471 0.8251829 -0.022691732 -0.65065515 0.00041092018 0.0075927265 -0.017822364 -0.0020663077 0.008663556 0.002458898 -0.0791788 -0.04723719 -0.06064592
0.0016925086 -0.0036364153 0.010975763 -0.24579538 0.0052064396 -0.026601847 0.0057925675 -0.0007670794 0.01407456 -0.050322093 9.97822e-06 -0.06663052 0.0018833934 0.070830256 -0.012599583 -0.0011449524 -0.004803658 0.007838334 -0.011031164 -0.27304986 -0.0037873564 -1.8984805 -0.0586745 -0.27047932 0.019117149 -0.043727282 -0.024965497 -0.13292336 -0.071517825 -0.1928491
-0.001993341 0.030072697 -0.008864539 -0.016560234 -0.008886613 -0.011607331 -0.004568154 -0.0347455 -0.47255564 -0.019879522 0.29905984 -0.08164702 -0.385886 -0.039531592 0.021756645 -0.0030904922 0.009316349 -0.062682875 -0.381524 -0.014884448 -0.381787 0.022180796 -0.042227946 -0.027907263 0.0029257592 -0.03220866 0.014063337 -0.084044576 -0.18178588 -0.105213866
0.038741387 0.0057023987 -0.00077007915 0.04567877 -0.001001198 -0.006562689 -0.003802172 -0.28416002 -0.69074416 -0.06322728 -0.32230476 0.00078302884 0.096319035 -0.005569422 0.006167608 -0.005813864 0.007188094 -0.16239953 -0.6122184 -0.040239323 0.67142236 -0.02922007 0.006842556 -0.05895575 0.0019555732 -0.0036234064 -0.0046835896 -0.100541525 -0.22028449 -0.059807327
0.0040778113 -0.2397838 -0.020892613 0.038100496 -0.01291652 0.029910391 0.0004698634 0.07655268 -0.0053828675 0.15531401 0.016208371 0.08144101 0.29578525 0.0036361953 0.036734205 0.0060079973 0.015955698 -0.09244195 0.03466795 -0.016998025 0.01625548 -1.198339 -0.61459297 0.124911316 0.011861335 0.04605424 0.040879935 -0.29656416 -0.25132525 0.036340006
-0.007657058 -0.3673801 0.030162355 0.038397577 0.002463982 -0.01215139 -0.008555447 0.045637038 0.009876237 0.10508471 0.022546291 -0.071396545 0.37912932 -0.04931859 0.011861409 -0.0022490988 0.020049201 -0.044237573 -0.03347507 0.046362687 0.0031521043 -0.24820168 0.30560216 0.32703853 0.038968332 -0.012618917 0.004379101 -0.10638829 -0.14732543 -0.20643863
0.004676365 0.0080601005 0.02693103 0.02958239 -0.002533534 0.0035047578 -0.0021479935 0.03815857 -0.00087341014 0.14709555 -0.016866123 -0.49838763 -0.26501346 -0.4069557 0.004156123 -0.016287168 8.365754e-05 -0.09776456 -0.033141933 0.22801457 0.0070040654 0.34872732 0.5766434 -0.014933241 0.013391935 -0.0015806728 0.008301248 -0.4664191 -0.425667 -0.07989112
-0.004438839 0.12374898 -0.00078376784 -0.011461248 -0.00088837626 -0.012061953 -0.0016082835 0.19921227 -0.67086256 -0.7150717 -0.25481346 0.2201835 -0.0073826034 -0.02226351 -0.0010584194 -0.013626377 -0.0016976749 0.13884015 -0.60434926 -0.8826653 0.031726737 0.2021699 -0.0018356959 0.039975755 -0.002941234 -0.017920034 0.006400881 0.06703204 0.014914868 0.10157975
-0.0021797155 -0.37973973 0.027121505 -0.020828884 0.0016183688 -0.016412204 0.01607707 -0.0005653405 0.0155842155 -0.05887088 -0.034051057 0.033044595 -0.36056286 -0.09958514 0.0076190988 -0.01125862 -0.019479608 -0.040884536 -0.021923127 -0.41179553 0.012849327 -0.8282909 -0.78595614 -0.14841606 0.00077735295 -0.048754506 -0.018299013 -0.29252204 -0.2218913 -0.104430854
-0.0041827895 -0.19860512 -0.0030146367 0.043960366 0.0027251681 -0.00037532777 -0.0015027217 -0.4746312 0.58127785 0.07403336 0.5465677 -0.15708184 0.011703747 0.008809328 0.0004310214 -0.0032006137 0.0031814277 -0.43016872 0.5709334 0.011746675 -0.38983876 0.30451244 -0.05558605 -0.02387951 -0.0069498657 0.0030884515 0.012108683 -0.167521 -0.14390498 -0.18666677
-0.0038165033 -0.07036438 -0.0013985906 -0.004687481 0.0024945526 -0.016545374 -0.0021131036 -0.625914 -0.2990094 -0.64767814 0.13428469 -0.10768395 0.0054652076 0.011472233 -0.01303885 -0.006756903 0.0049563753 -0.5624341 -0.25333917 -0.75916696 0.1402499 0.09600757 0.003979 0.009623183 -0.008828891 -0.017306825 0.0057063135 0.05862962 0.056399375 0.08322131
0.009762322 0.0033652375 0.0021459088 0.024152432 -0.00089050696 -0.0040439195 -0.0018596206 -0.26351297 0.86338186 0.03081494 0.59839886 -0.04594184 -0.03158307 -0.012323751 0.0018061043 0.0126788635 0.0012835895 -0.22031108 0.83570266 -0.042229205 0.522181 -0.009858549 -0.001262793 -0.03879842 -0.004765841 -0.0073606446 0.0053528138 -0.06715705 -0.10306923 -0.06894387
-0.009635979 -0.32141227 -0.00060910225 0.07671847 -0.0015041804 -0.008928046 -0.0014600813 0.19382092 -0.55902404 0.039311573 -0.70244354 -0.24942602 -0.00052183005 -0.036736127 0.010665071 -0.008178795 0.0087122815 0.2649173 -0.5172227 0.02407071 0.32614037 0.13755248 -0.03011973 -0.040481623 0.013976894 -0.018081598 -0.0051380573 -0.13517618 -0.18211971 -0.21194224
0.00025003703 -0.18448332 0.011899015 0.51860905 -0.008594915 -0.017168282 -0.020155242 0.028728625 0.019870529 0.22138819 0.0053654816 0.053417563 -0.7834893 0.3183648 0.017878098 -0.016005266 0.046184104 -0.011942841 0.019512495 0.13456988 0.011955707 -0.14350742 0.30606192 0.24501027 -0.01719884 -0.044534404 -0.0026031942 -0.16726801 -0.22943139 -0.10502756
0.00031734278 0.36777464 0.004679892 -0.126187 -0.0030633388 -0.016430277 0.0009691079 -0.006326212 0.0046830038 -0.13120653 -0.018077165 0.24284503 -0.0064691603 -0.39970678 0.01488818 -0.011801423 -0.0027011216 -0.00251996 0.002133011 -0.069192834 -0.0048641833 0.35201314 -0.74713796 -0.44420466 -0.010114499 -0.042488057 0.005368733 -0.17750935 -0.2102272 -0.048035324
-0.0013465259 -0.00381169 6.6757e-05 -0.014872155 0.00070463057 0.0067048273 -0.0017697194 -0.38113043 -0.7343019 0.50468683 -0.00031294796 0.0024341922 -0.0003047904 -0.0075923167 -0.0011538093 0.0065980284 0.0026033518 -0.30886552 -0.6337989 0.32807058 0.0017515867 0.012092113 -0.0012532946 0.015815401 -0.0002969984 0.0033255066 -0.0007766116 -0.010480571 -0.050023712 -0.31739953
-0.007115142 0.24392603 -0.0026482032 0.05139282 -0.00022646334 0.0074913716 1.8425004e-05 -0.03566864 0.6109468 0.10778268 -0.5710185 0.110201314 0.009829664 -0.012958177 0.005681212 0.0130081 0.0016746835 0.15015842 0.6559026 0.058986496 0.0005318775 0.317721 0.049970414 -0.03149474 -0.0015488622 0.0090604285 0.007896911 -0.0879492 -0.111459464 -0.17388934
0.017729452 0.14518651 0.008126554 0.015019647 -0.0376075 -0.13610101 -0.021595458 -0.012471868 -0.0043684957 0.01712223 -0.029318921 -0.20917912 -0.1373241 0.26664436 -0.23903786 0.3172297 0.11578841 0.0069492664 0.010964408 -0.07580379 0.06448816 0.0014635478 -0.47385058 0.014814276 0.00076527905 0.16771016 -0.012300184 -0.282082 -0.26326776 -0.1047812
0.003563637 -0.00049649423 -0.006072075 -0.03082907 0.005117364 -0.1716967 0.0056767864 -0.014811158 0.0026214202 0.047696177 -0.006491884 0.009374249 0.018819118 0.035535257 -0.09292603 0.43600342 0.031452976 0.012944055 0.0005800713 0.016513482 -0.00048450578 0.0064639472 -0.0048977532 -0.0026072245 -0.82665545 0.3094518 0.00047825364 0.027345143 0.04284632 0.11561338
-0.0036551275 -0.23744218 -0.00029901808 0.021312453 0.0006416746 -0.007650875 -0.0012310059 0.0420758 -0.42252442 -0.34230417 0.45086592 -0.33739454 0.006325807 0.005815561 -0.0077702957 -0.02419027 0.006113099 -0.095920905 -0.59374654 -0.3215228 0.009856734 0.082615815 -0.10583909 -0.13444597 0.0022153717 -0.02385158 0.015607127 -0.2062703 -0.019873207 -0.025027264
0.015257669 -0.46681005 0.0010527659 0.39285538 0.0056604575 -0.002969964 -0.015193996 0.021292437 -0.010387306 0.28444138 -0.028028136 0.010292962 -0.03780421 0.29773656 0.024340587 0.0014833908 0.035560597 -0.06189501 -0.0147636235 0.24629132 -0.010903984 -0.5266668 0.67942554 0.0695017 -0.008624944 -0.0049337647 -2.603433e-05 -0.0754659 -0.097927086 -0.25950456
0.004110155 -0.00943747 -0.003374557 -0.03929006 0.0013191608 0.0040259073 0.0025942775 0.68022025 -0.39209345 -0.620415 -0.0066540954 0.013279115 0.0062519116 -0.02024199 -0.007522833 0.011278745 -0.0043195393 0.5969102 -0.3174014 -0.6738221 -0.0011248636 -0.04400097 0.0005545952 0.044849426 0.0045414083 0.00037852718 -0.005530175 0.030387629 0.029741341 0.11121314
3.2915726e-05 0.005375927 0.002139811 0.10433202 0.00019202463 -0.0256395 -0.00014578654 -0.052223902 0.0029606654 -0.6028591 0.0041422443 -0.23909545 -0.010936726 -0.031016834 0.016240457 -0.018698024 0.007146745 0.025621356 -0.005311784 -0.54037523 -0.004389514 0.7288441 0.20606394 0.17473306 0.0036278216 -0.030410206 -0.00066633895 0.074916415 0.051844295 0.13866325
-0.0013870697 -0.3339808 -0.004610034 -0.02840812 0.0032020921 0.0038560661 0.00050421304 0.25823072 0.20594984 0.41594568 0.24438721 -0.3036172 0.021536252 -0.037343748 -0.0067293313 0.0018402066 0.0034816458 0.1773619 0.19443735 0.36383933 0.32117546 -0.19609208 -0.27038422 0.011232923 -0.0003967719 0.006094571 -0.0022881927 -0.08918072 -0.0692477 -0.29437807
0.0013866171 -0.17332684 0.0033204972 0.0057172854 0.0011642625 0.015905773 0.0018680837 -0.50193095 -0.28967506 -0.61147785 0.20527576 -0.33944026 -0.0669044 -0.01762377 -0.00029424942 0.009115319 -0.0029214509 -0.44367865 -0.2501364 -0.7173658 0.27539223 0.29325497 -0.052716795 0.037180085 0.0034707 0.030167881 -0.0022068522 0.022701366 -0.0066887573 0.13161947
0.0008495157 0.0035841523 -0.0006288787 -0.014998571 0.00013305161 0.0061211805 -0.000684682 0.91230017 0.14728889 0.20274976 -0.0012038947 -0.0052375835 7.84268e-05 -0.005784487 0.0006656129 0.0057524024 0.0015809438 0.86043394 0.07477475 0.024240356 -0.00013707201 0.00517056 -0.0003983182 0.021403316 0.00044143075 0.008439674 0.0023058285 -0.047285702 0.014867384 -0.14693952
0.0011695912 0.019202383 0.0029053588 0.0018969072 0.00017498017 0.006503361 -0.0011390082 -0.8067235 -0.76081556 0.0078818295 0.5029472 -0.015665725 -0.06123656 -0.008649966 0.0035758738 0.012082893 0.0012518393 -0.76465505 -0.7079249 -0.036419157 -0.56425774 -0.009076036 -0.0037867066 -0.010237763 -0.0014560665 0.0010811959 0.0035262653 -0.09588853 -0.12334094 -0.061185062
-0.017866902 -0.015095546 0.018644368 0.050743695 -0.003430557 -0.044129875 0.004093872 0.35972783 0.38792875 -0.044275384 0.37525913 0.050155945 0.37504917 -0.15284793 0.0008639535 -0.03184518 -0.012180134 0.22447245 0.3310241 -0.063504115 -0.6236072 -0.110937744 0.044501264 -0.07748914 0.001129625 -0.060632262 -0.0065393257 -0.021259556 -0.13535783 -0.18845908
0.005101971 0.21048267 -0.009496826 0.013047935 0.003152732 -0.015917376 -0.0017550491 0.014980041 -0.022067266 0.053837486 -0.011407989 0.28373018 0.5112317 -0.49648184 0.0035578585 0.014965472 -0.005171706 -0.01792831 0.032917883 0.14786395 0.005339206 0.34353858 0.77100366 -0.3046461 -0.0018703509 -0.03701131 -0.0011064017 -0.1995695 -0.1781791 -0.20613179
-0.0044345213 0.16692367 0.0069765337 0.075548604 0.0019450398 0.0058914954 -0.0006919774 -0.2001564 -0.51545644 -0.002474327 0.6596386 0.1464702 -0.035438504 -0.017212287 -0.0095870895 0.018207433 -0.0053163334 -0.25355047 -0.52807176 0.032271452 0.011981604 0.1693602 0.02708666 -0.06512687 -0.01857898 0.0016827226 0.004572147 -0.14067386 -0.080041215 -0.11275959
0.007976021 0.19547632 -0.0055692107 0.069026835 -0.0022760855 -0.0023046203 -0.0024833195 0.43769643 0.45072892 0.029698746 -0.52235514 0.23962161 0.0059889792 -0.007014141 -0.0025048316 0.016043283 -0.0031051976 0.5103687 0.5035941 -0.010909917 -0.52819014 0.36285162 0.073020995 -0.02175663 -0.0041985107 -0.013129069 -0.008757205 -0.13234589 -0.15137693 -0.16929029
0.009657173 -0.021658808 0.0008078624 -0.0045230845 0.0009875743 0.005989519 0.0011226523 0.6614972 0.72568256 0.0129332235 0.39095756 -0.038402405 -0.018839799 -0.008733893 0.00346769 0.007066746 -0.001675662 0.5931446 0.69193906 -0.026329126 0.3565585 0.042997263 -0.010108152 -0.013323038 2.9524052e-05 0.0026778115 0.00095888204 -0.08837941 -0.11288969 -0.06999422
0.020025523 0.051720496 -0.17623231 0.20729387 -0.084771395 -0.2462539 -0.0013878887 -0.07088212 -0.049609285 -0.16156636 0.10704661 -0.05281959 0.17477469 0.097440824 0.059191566 0.21919142 0.017718833 -0.12032127 -0.057799663 -0.15765126 0.030294202 0.05276634 0.28731713 -0.14859088 0.15577419 -0.020059818 -0.12496418 -0.31391475 -0.25250816 -0.26227108
0.0070835897 -0.28298998 0.0031846776 0.083626114 -0.0035669515 -0.024742857 -0.0020360046 -0.5847994 0.12217747 0.04198642 0.09965332 -0.2703622 0.007063825 -0.039570466 0.0017810005 -0.010353728 0.007922905 -0.586228 0.055507053 0.01944003 -0.7156834 0.18118338 -0.027036281 -0.043924578 0.0015065089 -0.03450843 0.005771514 -0.13864051 -0.13901387 -0.1917406
-0.0055088727 -0.010750111 -0.0044678245 0.07986367 7.1329436e-05 -0.023491763 0.0014153213 -0.5678438 0.68985426 -0.10302208 -0.48230863 0.009780662 0.08447219 0.0066301827 0.008711658 -0.015518571 -0.00043252425 -0.5946661 0.7157136 0.013873476 -0.67476296 0.0082650045 -0.0013253604 -0.108356595 -0.0070908214 -0.023326855 0.004792779 -0.136455 -0.0856623 -0.06992559
0.0065892045 -0.014111162 -0.002532017 0.015917292 0.005466961 0.0052057295 -0.003559009 0.0031029999 0.0032098545 -0.14033687 7.258633e-05 0.03359394 -0.059308205 -0.29028884 0.099223725 -0.37733567 0.016705086 -0.018217344 -0.019442692 0.07742547 0.0047680684 0.26575774 0.004153775 0.45403454 -0.060693137 0.3067135 -0.009992748 0.3723786 0.36632374 0.50644463
-0.002110623 -0.00060506305 -0.0009384969 0.0074033723 -0.0016229198 -0.033764146 -0.038849127 0.019980686 0.027372815 0.05456471 0.011869548 0.008270342 -0.010187787 0.039525375 0.015959404 0.056272503 -0.7637234 -0.046774436 -0.015224311 -0.092605144 -0.0071640145 -0.0013813183 -0.0008129895 -0.0270059 -0.010488061 0.004144302 0.8393233 -0.07416944 -0.10677611 -0.084756695
-0.0028162485 -0.010140532 3.9256305e-05 -0.07471542 0.0022134688 0.012477531 -0.0019120799 -0.19999324 -0.16856155 -0.9200961 0.0064157457 0.017023526 0.006815228 -0.04796146 -0.0042398516 0.012871822 0.0028664721 -0.20235704 -0.20163874 -0.92909706 -0.0063124853 0.36043045 0.008308303 0.114650704 -0.008310196 0.022874452 0.0017216653 0.19779232 0.18757862 0.19593713
-0.0018837393 -0.017841233 0.0015065793 0.39762172 0.0090707475 0.028534325 -0.005906524 -0.019262515 -0.009647861 0.20481516 0.0046240604 -0.01969302 0.6301006 0.54433984 -0.0110871345 0.054015853 0.02401031 0.03969957 0.03226913 -0.05489492 0.016487889 -0.25002444 -0.06020848 0.3806686 -0.03201867 0.022929255 -0.011378166 -0.105800495 -0.18290567 0.1499363
0.00019195006 0.010592673 -0.00026239274 -0.034674473 -0.009740066 0.022626746 0.008026266 0.021393633 0.0020717771 0.07867638 -0.007922651 -0.03161286 -0.010916267 0.016778644 -0.61647385 -0.21395023 -0.068458565 -0.032063372 -0.008420311 -0.15662672 -0.016123982 0.00563833 -0.011634264 0.02187307 -0.4016034 -0.5481215 0.071129814 -0.16090196 -0.15599813 -0.15348619
-0.014795469 0.0009609973 -0.03247896 0.054431967 -0.03786185 0.08501908 -0.026709788 0.04296745 0.0021302882 0.056940574 0.005882386 -0.011093166 0.13684481 -0.118095264 0.117018834 -0.23186918 -0.008238855 -0.0334681 0.013898956 -0.0764439 0.020566536 -0.012440153 -0.055582814 -0.07622634 0.4475136 -0.18013573 0.023363946 -0.14626773 -0.11917599 -0.119713604
0.00781843 -0.067587286 0.0074246926 -0.12632652 -0.0067322194 0.007562522 -0.0021485924 -0.01604607 0.031130876 0.06498934 -0.0077094757 0.04040892 -0.84206504 -0.018455092 0.008040764 0.023350082 -0.017850528 0.022819288 -0.018633416 -0.011705924 0.00459916 0.108915746 -0.10526973 -0.4647915 0.0073662647 0.010871187 -0.008594204 -0.10209394 -0.061331127 -0.50040793
0.0006542739 -0.007771343 -0.0007560795 -0.012783849 0.0014079374 -0.002592881 0.0024309356 0.14718485 0.664963 0.5408132 -0.002445848 0.0102779055 0.0010255384 -0.0007540062 -0.0027656849 0.0032156822 -0.008157403 -0.03812825 0.56139576 0.36952007 -0.005100641 0.01803476 0.003342647 0.009300724 0.0008442383 -0.0037013595 0.0010410404 -0.025297271 -0.053486023 -0.320821
0.0026397496 0.13925627 -0.0074123074 0.38830775 -0.004722614 0.08379594 0.0021435313 -0.0078279115 0.026117677 0.16980831 0.011022626 -0.35638306 -0.38364503 0.9424412 0.0055830963 0.052637555 -0.011414106 0.044750985 -0.031647664 -0.08153681 -0.012468066 -0.33548167 -0.403107 0.06200972 -0.020923844 0.07871781 -0.011936417 -0.00048286706 -0.13958769 0.15868635
0.0005663788 0.007316429 -0.001447147 -0.022083053 0.0010237808 0.011169492 -0.0003848378 0.42473495 0.64520746 0.53001446 -0.0015467716 -0.0151439905 0.001234338 -0.0073235775 -0.001572325 0.0079733 0.0019405877 0.3363091 0.5416632 0.35795248 -0.0029704478 0.013566578 0.0012727622 0.027919719 -0.0008040902 0.012179316 0.00422265 -0.039958213 -0.059928324 -0.30837798
0.008353003 -0.06254333 0.10373463 -0.06312944 0.0016685198 -0.26071885 -0.012431334 -0.0020261419 0.0489745 -0.053611506 -0.09603798 0.03567786 0.22094665 0.17916079 -0.34625947 0.21267925 0.01919239 -0.031239381 0.041538984 -0.112627015 0.008379862 -0.052423995 0.10204268 0.10782011 0.012939909 0.034483444 0.055482022 -0.15591945 -0.10554019 -0.07329804
-0.004859329 0.08396545 -0.0036588067 -0.0016018433 0.0032222094 -0.0085742045 -0.012070075 0.0016983136 0.010189421 -0.03914745 0.013113155 0.57763 -0.040172655 -0.30452037 -0.022777572 0.026344234 -0.003212126 0.00074987696 0.005837295 -0.07771511 -0.0028819023 0.46330893 -0.66662836 -0.35094935 0.01859535 -0.01477288 0.012082103 -0.39558536 -0.41386276 -0.17534943
0.0047442215 -0.0068718535 0.0011302844 0.015411931 0.0034168516 0.004604139 0.0022414022 0.028358862 -0.92509276 -0.027843412 0.22306594 0.029540556 -0.03613129 0.00021400342 -0.006208701 -0.0015092348 -0.004722966 -0.079952314 -0.9071581 -0.0014701693 -0.82454205 -0.013061294 0.006240097 -0.025317604 0.0011409387 0.0023836528 -0.004954545 -0.037333976 -0.15203728 -0.053680263
-0.003927645 -0.0033948997 -0.0041243024 0.024485357 0.00086780876 0.0023472107 -0.002516693 0.94014215 0.18621664 -0.040987097 0.7133077 0.028147671 0.0024702977 0.0185235 -0.0019587039 -0.0015584261 0.007145177 0.89060855 -0.047674656 -0.018339247 -0.08298346 0.02397642 -0.0041648815 -0.029230244 -0.004526419 0.008686546 -0.0035042923 -0.13349442 -0.039858777 -0.009348965
-0.0058802315 -0.01353605 0.0036602472 -0.009408145 0.0014490276 0.006218974 -0.0021653124 0.6848169 -0.6121702 0.009046895 -0.2978144 0.048320916 -0.061253037 -0.015246866 -0.0035257207 0.0070680184 -0.0014655227 0.65999866 -0.51251507 -0.03521478 -0.7150572 0.003409322 0.011263298 0.007533988 -0.0020437199 0.010464847 0.0012609086 -0.15594003 -0.048587885 -0.05219621
0.0007057204 0.30109048 0.0026471792 -0.024189955 -0.0027077934 0.0010870622 -0.0004325481 0.25133747 -0.28301564 0.4480156 0.29782137 0.28563344 -0.02297952 -0.09144833 -0.0006183415 -0.0005802546 -0.0008408866 0.2192154 -0.2677927 0.40575773 -0.2647319 -0.24244428 0.14305378 0.025003355 -0.006705142 -0.002113939 -0.0029833522 -0.061459556 -0.12009561 -0.32469618
-0.0020980735 0.09966494 -0.038663317 0.17949934 -0.0006910031 -0.03984838 -0.0028711562 -0.008082875 0.040072292 -0.14971894 0.017692037 -0.11298954 0.5989285 0.10722535 -0.0005930319 -0.0069368393 0.01830155 0.045398086 0.0018410776 -0.103487015 0.0078004864 0.57931906 -0.057064116 0.34202737 0.0149983615 -0.05688839 0.00036698964 0.044289626 0.06412101 0.17909217
-0.00323909 0.042111106 0.06936273 -0.040864237 -0.0019280439 0.009052782 0.0015188551 0.008143255 -0.0031258352 0.02099229 0.005493448 -0.032266963 1.0140913 -0.70643425 0.00090825657 0.022831144 -0.0041740565 -0.0071634795 0.0016707234 -0.008960072 0.018019525 -0.054184068 0.14180584 -0.1725583 0.003720607 0.0006551034 0.00014262964 -0.07037307 -0.018691966 -0.22547463
-0.0010819504 -0.013252552 -0.0033108639 -0.07575051 0.00031091078 0.010244428 0.0006616932 -0.077851325 0.303846 -0.9319913 0.0066871163 0.028912352 0.015197971 -0.03684432 -0.0030540975 0.0029625725 -0.0049036643 -0.03384656 0.22787896 -0.9556032 -0.0009881087 0.38101283 -0.0018674041 0.1167837 -0.0042313556 0.01377458 0.0029238923 0.21433221 0.18806565 0.19466783
-0.0072639817 0.22891244 0.0005487929 0.054557487 0.002733294 -0.000437239 0.0047423164 -0.59634095 0.31166843 0.07496043 -0.32425252 0.2350348 -0.0036153914 -0.013742446 -0.0034386464 0.0050456533 -0.016689815 -0.53170985 0.28935006 0.025746312 0.6109751 0.28967857 0.0454261 -0.015736828 -0.00090769597 -0.007915333 -0.00058682676 -0.1440214 -0.16741288 -0.17668046
0.004402659 -0.35900778 -0.04334613 -0.07260503 -0.0054437728 0.01610412 0.0022523843 0.055961035 -0.035209693 -0.15464322 -0.013012895 -0.12045067 -0.8734381 -0.028972944 0.011481535 0.006237507 0.0106867235 -0.05358466 -0.0014405856 -0.54302454 -0.010105794 -0.5410368 0.04902191 0.04714853 -0.011560225 0.048877943 0.0107449815 -0.29023844 -0.16171277 -0.05456431
-0.00020162767 0.209169 0.008320327 -0.11608161 -0.011300523 -0.05475067 -0.0031947126 0.06239138 0.039827477 0.03180903 0.008210923 0.26778707 -0.35639247 0.13379526 0.030462796 -0.026323132 -0.020648079 -0.10132792 -0.001274498 -0.0950097 -0.015114723 0.07568468 0.53461295 -0.38492885 0.027043182 -0.10680132 0.0050582746 -0.155297 -0.17867422 -0.21434613
-0.0040573445 -0.045921825 -0.000617458 0.046435725 0.10390925 -0.075828984 -0.010493785 0.04553543 0.03694626 -0.10450587 0.0014304682 0.058331665 0.010383947 0.021701433 0.34538525 0.01105976 0.06708296 -0.06890599 -0.0510426 0.06978117 -0.0066570304 0.010037187 0.0038264259 -0.06664693 0.12521702 -0.045026775 -0.9730328 -0.106096916 -0.106509596 -0.15002553
-4.3526325e-05 -0.012644452 -0.005812897 0.07271698 0.0013467122 -0.006807638 -0.0012602959 0.5888483 -0.6841248 -0.105906345 0.48251688 0.015849847 0.057211127 0.01920164 0.0009037074 -0.0075066104 0.00053275283 0.60435194 -0.64435697 -0.005663123 0.6203556 0.000931428 0.0024346006 -0.08928568 0.0010298666 -0.011894525 0.0037545825 -0.047335334 -0.13761064 -0.06198889
0.008128547 -0.25621116 0.014720421 0.2595766 -0.007711966 -0.0059715686 0.0033246477 0.036786743 -0.022828847 0.1483947 -0.03819151 -0.45836458 -0.046560463 -0.09276939 0.019465668 0.029459031 -0.0107849445 -0.04307735 0.047762375 0.0981721 -0.0131586455 -0.12893409 -0.4357852 0.4979973 -0.0038150353 -0.034423314 0.010746272 -0.0037402546 -0.06435275 -0.06364311
0.025181739 0.17771336 -0.008536691 0.06506891 -0.0007253472 -0.045118786 0.0008671626 0.1650754 0.23394077 -0.15189588 0.2804007 0.4108714 0.17093568 0.015016281 -0.00010348315 0.0007397122 -0.012046198 0.16614504 0.39217037 -0.047608208 0.20216314 0.2354843 0.031922437 -0.12416514 -0.017782804 -0.042337727 0.010822489 -0.4514346 -0.03273996 -0.022330254
0.003084346 0.24526301 0.0027992793 0.04421542 -0.00051865284 -0.027931992 -0.0044372436 -0.08970599 -0.418418 -0.25426275 -0.42654818 0.28243327 0.024213849 0.010068153 -0.006505036 -0.020962398 0.003758131 0.04600033 -0.60705996 -0.18212128 0.03215675 0.23140933 0.035085566 -0.100640856 -0.0050971685 -0.032275114 -0.008993325 -0.16704947 0.0060970723 -0.028815323
-0.0080741 -0.028945796 0.01981071 0.03039518 0.012675852 0.023328668 0.007910097 -0.23415732 -0.040851347 -0.050837576 -0.004161892 0.05059969 0.009186684 -0.11103294 -0.03616224 0.016625617 0.009627122 -0.31809613 -0.015548704 0.04432244 -0.22519903 0.5550115 -0.42972657 -0.015026165 0.01601856 0.0064058397 -0.0019061932 -0.2162542 -0.31410787 -0.024304638
-0.0045823418 0.11847586 0.009315089 0.050997812 0.003537298 0.022934161 0.0042076856 0.21718885 -0.5137345 -0.15079857 0.46907967 -0.04575106 -0.024218194 -0.056542564 0.0042087375 0.015281544 -0.009480623 0.20213276 -0.5638306 -0.0912271 -0.1906155 0.48957753 0.0962402 -0.023325339 0.028949326 0.028790796 -0.011006298 -0.19912218 -0.10474415 -0.112622954
-0.0047816094 -0.2347139 -0.001692922 0.06276246 0.0015768271 0.0014204443 -0.0009962621 -0.53979826 -0.33825806 0.03026522 -0.27142045 -0.26433304 0.00014183343 -0.031125728 0.00013931346 -0.006333447 0.0010555399 -0.5283836 -0.21999425 0.0010611808 -0.7169048 0.20069414 -0.030158704 -0.014345567 -0.001498291 -0.004988125 0.0025568428 -0.16300063 -0.14110373 -0.20381759
-0.0038200447 0.41765538 -0.036787715 0.030049127 -0.0012291616 -0.0046564545 -0.0014408091 0.0854113 0.009343028 -0.068715416 0.009763854 -0.021375934 0.12006217 -0.22729667 -0.0013437818 0.013230929 -0.012746418 -0.04535829 0.0022609578 -0.4655421 0.019474873 -0.75343055 0.80071694 -0.10816794 0.009543796 -0.015691565 -0.01881128 -0.1674294 -0.19792742 -0.16200018
-0.00066756154 -0.03579802 0.0025052638 -0.01000213 0.0025256276 -0.0075322045 -0.0033633015 -0.118443705 -0.8133533 -0.09440006 0.41600892 -0.060557134 0.015369492 0.010259451 -0.0039096097 0.004856749 0.0019117673 -0.20168744 -0.7667522 -0.13636963 0.1771629 0.088116236 0.03007175 0.01755403 -0.0040959534 -0.018129893 -0.0087592695 -0.1822166 -0.050731372 0.026553769
0.022721706 -0.010369468 -0.0023877723 -0.022024726 0.0023200102 0.015141609 -0.00019483619 -0.54165953 0.54846364 0.042952064 0.14365546 0.023395577 0.012943346 0.014636631 -0.006421521 0.019947754 0.0011375168 -0.4389812 0.41747892 -0.106892355 0.14806244 0.030199448 5.592854e-05 0.018944712 0.003058981 0.021872722 -0.0031188028 -0.026838737 -0.03693756 -0.07747722
-0.00719884 -0.25856835 -0.0026372138 -0.11825992 -0.0019693717 -0.02398622 -0.003835048 -0.0047280136 0.028637659 -0.16432941 0.008815157 -0.37966788 -0.15271029 -0.3022564 0.0085666515 -0.0036075322 0.013753532 0.015362077 -0.034900848 -0.12443897 0.019361222 0.20542365 0.69406265 -0.35763305 0.015426689 -0.03985267 0.003812705 -0.17232534 -0.17620502 -0.032858174
0.0015238118 0.011793571 -0.0024462407 0.033898063 0.003554011 -0.020346649 -0.0032892379 -0.78775793 0.069770075 -0.044317335 -0.729946 0.001338325 0.048125565 0.004382652 -0.008290327 -0.011166429 -0.00093306263 -0.7657031 0.11071099 -0.05728906 -0.07350776 0.00088678196 0.018855803 -0.03709319 0.00067428214 -0.02269385 -0.00033527205 -0.10504181 -0.015570211 -0.03840449
0.010162747 -0.24086015 0.009986297 0.023557117 0.008893956 -0.00021835517 0.00049897283 0.068030156 0.32577896 -0.30082127 -0.4404471 -0.32112953 0.012907521 0.00823 -0.02286666 0.0028911438 0.008373653 -0.002232553 0.5822681 -0.31235552 -0.011958069 0.036341608 -0.12188085 -0.17332697 -0.0027644094 -0.011593798 -0.012918021 -0.2028665 0.0010189714 -0.075044945
-0.0139713865 -0.023604812 0.0025818425 0.054301526 -0.0011992502 -0.031261835 0.00012447147 0.52056587 0.4930027 -0.21267465 -0.44770387 -0.012066851 -0.0072936798 0.00244688 -0.0031248345 -0.008158865 0.0036930633 0.66852397 0.5809209 -0.132759 -0.45262846 0.14930195 0.048068263 -0.09517807 -0.007620266 -0.04286257 0.008300327 0.00012384674 -0.16013414 -0.067093074
2.4150428e-05 -0.0026130097 -0.0028846976 -0.011412087 -0.00057001994 0.0027891418 -0.0005471721 0.28814152 -0.6728897 0.51617616 -0.004738723 0.008915928 0.0027603267 -0.008019423 0.0009357584 0.005915963 -0.003458676 0.21480274 -0.5487239 0.35248792 -0.0024921498 0.026220443 0.0022124015 0.01714323 -0.0028853887 -0.00063119084 0.0010386741 0.0085823955 -0.03871632 -0.34909168
-0.0108553525 0.04349636 0.0008637317 -0.009163519 -0.00033374043 0.0046821707 0.0009571561 -0.44169945 0.73261166 0.07196143 -0.47617364 0.046548393 0.006788975 0.030619891 -0.005183441 -0.014835095 -0.00083705346 -0.33620882 0.7256009 0.018380005 0.34768024 -0.015690217 0.032973837 0.0168023 0.0083909 0.008584561 0.0007965171 -0.016796459 -0.06561103 -0.07775371
-0.005132682 0.049501657 0.002231188 -0.0041078907 -0.0019798724 0.019729374 -0.0006935179 -0.68903303 -0.63650715 0.05502651 0.41375595 0.040077332 -0.0025875627 0.0062423083 0.00036080982 0.0030740346 0.0020854897 -0.6680608 -0.5984154 -0.015609912 0.41586736 0.032555446 0.0058220783 -0.007059421 0.0029654636 0.038495965 -0.0021748561 -0.07059003 -0.066948086 -0.1191055
0.0075559174 0.011649777 0.00022396879 0.07120635 0.00042061598 -0.013382123 -0.00085581053 -0.62189066 -0.62653303 -0.13946545 0.43219125 -0.030802539 -0.07162705 -0.014292566 -0.0013739067 -0.008173357 0.0024811255 -0.64761704 -0.54633904 0.05688306 -0.574357 -0.023930877 -0.0098739015 -0.09866656 -0.0038433173 -0.02250426 -0.0064869965 -0.123582296 -0.11830699 -0.028657733
-0.00021856952 0.05614676 0.0019932825 -0.03652333 -0.0014979402 0.030605694 -0.0043848255 0.04314548 0.033322085 -0.053722534 0.03702218 -0.043181192 -0.82705224 -0.24161276 0.010885663 0.033252906 0.0044743256 -0.059802387 -0.041327335 -0.34045783 -0.003019478 -0.93718743 0.050400026 -0.11229602 0.0024411306 0.024930993 0.019861555 -0.42318964 -0.47094303 0.093484476
-0.011897574 0.121672034 0.0075599174 -0.13712253 0.0016626219 0.021118972 0.0017032468 -0.011852764 0.049422894 -0.1440992 0.017110588 0.32011214 -0.48178437 -0.071914315 -0.008311638 0.018093003 -0.009497858 -0.023727676 -0.028070802 -0.28900278 -0.018065497 -0.36347792 0.07210292 0.25532466 -0.009190303 0.02143771 -0.018532759 -0.3841008 -0.5024025 0.16396081
-0.023541853 -0.059312794 -0.008869152 0.07752335 0.00097386877 -0.021005362 0.0013115441 -0.5245618 -0.20405076 -0.034852315 -0.48255166 0.06804941 -0.1346511 -0.036893714 0.031695683 -0.012125929 -0.010653998 -0.49282312 -0.138266 0.014870069 0.19547218 -0.18159997 -0.033640224 0.060119517 -0.01943869 -0.02344173 0.023077419 -0.24372962 -0.49761763 0.11643441
0.004750756 0.20578815 0.004652545 0.041527595 0.00425987 -0.004270112 -0.0030156064 0.6455519 0.017105889 0.072666615 0.005555596 0.070071734 0.0014415182 -0.003743104 -0.009598737 -0.0139438175 0.0020644602 0.69364667 0.02394873 -0.010208669 -0.55891156 0.3250325 0.040045697 -0.0201176 0.0050699958 -0.003207237 0.0056757135 -0.05900296 -0.101165675 -0.16349281
-0.003119542 0.016010271 -0.0024184827 0.06529499 -0.0023102888 -0.005523855 -0.00078671664 -0.77616215 0.20611049 -0.057547934 0.7410888 -0.04456439 -0.10401663 -0.021078315 0.004938123 -0.005219863 0.005388196 -0.7237639 0.057383846 -0.04388974 0.01780598 0.0082635 0.00949369 -0.093778536 -0.0009898953 -0.008859023 0.0064976 -0.23611555 0.087228216 -0.10758577
-0.003098734 -0.34066558 -0.0035965098 -0.092379026 0.00206111 -0.0020648947 -0.009504416 -0.004585443 -0.007047042 0.27718186 -0.019928098 -0.22755283 0.06563387 -0.4599898 -0.016116632 0.0026628177 0.02016354 0.02912855 0.024334792 0.3039432 0.031854663 -0.5636069 -0.59846306 0.04914452 -0.0034426304 -0.011076536 -0.005440508 -0.29106632 -0.32061875 -0.33541232
0.0028576157 0.32250738 -0.0065884176 -0.16614057 0.0049857004 -0.016857894 0.0029753565 0.029934542 0.032323092 -0.12110959 0.02894656 0.06321287 0.09426151 0.36314008 -0.02710228 0.011587499 -0.002546437 0.037081134 -0.025631303 -0.26495096 0.018512892 -0.5083417 0.2909898 -0.31371862 0.014259838 -0.03819598 -0.0014287825 -0.15743712 -0.18080398 -0.109110296
-0.03438713 -0.05337405 0.039467026 0.071734115 0.004476949 -0.0052024857 -0.037974086 -0.291745 0.14335014 -0.03526212 -0.15652002 -0.15110217 0.3042237 -0.036287528 0.03913301 -0.002692161 0.0730128 -0.27061358 0.26092094 0.018075181 -0.45465982 0.013089907 -0.1534942 -0.16271678 0.025073305 0.015897032 0.016414631 -0.18186818 -0.05248039 -0.23589192
0.0012563467 0.0031509565 -0.0014811937 -0.020621363 0.00046650594 0.009428548 0.0005888232 0.8520661 -0.6824247 0.10625937 0.004318711 -0.005480073 0.0012164254 -0.0077758655 -0.0016535032 0.0072667366 0.00027104229 0.7724086 -0.51205134 -0.027479967 0.0030990369 0.0051074605 0.0009325296 0.02784906 -0.0020215595 0.011407992 -0.00016818137 -0.045344424 -0.05009131 -0.0633873
-0.0023739715 -0.1089843 0.013611534 -0.072737634 -0.0038255765 -0.0009926469 -0.00027829563 -0.0142849265 -0.042159747 0.3774862 -0.002419626 0.35899562 0.09713008 0.05022723 0.036944687 0.058862578 -0.001946255 -0.002207553 0.059666242 0.11643411 0.0006510891 0.65495825 0.1434245 0.25279713 -0.007914166 -0.0064447466 -0.010370896 -0.29935175 -0.38361844 -0.37347487
-0.013378183 0.09131627 0.0076824115 -0.13517876 -0.0026634997 -0.013281299 -0.0053050467 0.03527288 -0.041234475 0.07547039 0.03228089 0.10810157 0.7054709 -0.14039558 -0.023691084 -0.02414477 0.005232014 -0.044256948 -0.0072146114 0.012303584 0.038311046 0.113133326 0.05561767 -0.2031804 0.04000848 -0.04459193 0.005432348 -0.1634877 -0.069311805 -0.38399115
0.006004012 0.014815705 -0.0059069116 0.05314828 -0.014795481 -0.10765001 -0.008991403 -0.011711734 -0.013614473 0.020591915 -0.027086632 -0.03237931 0.035662055 -0.06663801 -0.0065170284 0.34996724 -0.06318757 0.02018457 0.030946236 -0.05061221 0.0107922545 -0.0014866833 0.019729404 -0.21011725 -0.5895102 0.120096825 0.015791642 -0.13447124 -0.12796828 -0.095109686
0.010302625 0.27432713 -0.0013890126 -0.03915539 -0.009473913 -0.008843933 -0.0075934096 0.016691789 0.027416091 -0.013555038 -0.027498912 0.33379018 0.06769995 -0.30557376 0.03273048 0.041939575 0.013848581 -0.026632158 -0.02572103 -0.14661777 0.0066331276 -0.3703764 -0.49221918 -0.6026452 -0.004279833 -0.040910553 0.011642233 -0.26773828 -0.26870564 -0.21652596
0.01131653 0.061044995 -0.010287862 0.065116145 -0.005989367 -0.03457154 0.0017222252 0.018281339 -0.028826369 -0.07624831 -0.026896574 -0.019603701 -0.70587873 -0.6388601 0.00598361 -0.013723907 -0.0019494356 -0.01922414 -0.01530692 0.09263792 -0.08209592 -0.064385146 -0.010592162 -0.25292778 -0.005021655 -0.055273864 0.0043612802 -0.3057903 -0.3338531 -0.15194415
-0.0043255924 -0.06035361 0.00010696939 -0.023720931 0.0033472732 0.02444496 -0.0019907972 -0.510562 0.7678688 0.19252674 0.48385227 -0.032491874 -0.016097695 0.010128179 -0.0034978162 0.010049111 -0.0064826817 -0.47455418 0.7122717 0.047355786 -0.3426292 0.015302279 -0.003931054 0.03690707 -0.002168402 0.028827911 0.0013414985 -0.10957247 -0.039194163 -0.13858531
0.0033481428 0.019533914 0.0032912511 -0.08509492 0.0058938684 -0.030048504 -0.006165168 0.0037066059 0.01877314 0.0030768742 -0.0050082165 -0.031582966 -0.0067568137 -0.047603674 -0.00038115928 0.74783105 0.007398961 -0.01612266 -0.004718215 0.05070888 0.0070963437 -0.028868794 0.0021722575 -0.02883664 -0.17590247 -0.85989934 0.003304908 0.013685561 0.0033669937 0.08166926
-0.0016466466 -0.105071574 0.0038377629 -0.013036556 0.0029283704 -0.00055933476 0.0016504512 0.47704163 0.6020263 -0.74420685 -0.18541448 -0.20676349 -0.024433453 -0.025843216 0.0006881394 -0.002364492 0.0020684649 0.46133184 0.5111514 -0.8312074 -0.13787428 0.1889187 -0.012257847 0.05982015 -0.0037391803 -0.0021264977 -7.792025e-05 0.09682811 0.051053382 0.124474466
0.0026704497 -0.008109649 -0.007149919 0.0026466139 0.009393904 -0.046862487 -0.26627412 -0.010226336 0.006333364 -0.08006166 0.009264261 0.0008353945 -0.0074685924 0.016716758 0.39348552 -0.021584535 0.38135174 0.01451714 -0.014749539 0.04112616 0.008319681 0.0017247543 0.0051602605 -0.00686415 -0.005529129 -0.056743305 0.9292473 -0.06934639 -0.06132479 -0.15339744
0.0015405322 -0.15263033 -0.0041760644 0.021753654 -0.0011462179 -0.002387483 -0.005060233 0.6103318 -0.38358688 -0.58616483 0.15575457 -0.28192782 0.0016732439 0.012630645 0.0060614445 0.0033869236 0.02035113 0.58563656 -0.33381593 -0.69065374 -0.32493535 0.15582255 -0.02576866 0.0046230177 -0.0008042147 -0.011847887 0.0051378924 0.067270435 0.040805157 0.12989803
-0.004744264 0.08176367 -0.001677773 -0.027807206 -0.0020078374 0.0017906651 -0.0023606522 0.58238256 0.49967584 -0.6669934 0.111927815 0.1783466 -0.014097062 -0.0010188061 -0.0011409543 0.00073694147 -0.00034388198 0.5022999 0.39906392 -0.80471504 0.14292851 0.14257915 -0.005857004 0.059256665 0.0042022164 0.0054790485 -0.0015913465 0.06917127 0.0337641 0.1018941
-0.009920711 0.22436489 0.0009525934 0.09360774 -0.00049644493 -0.026513942 -0.005753531 -0.4651773 0.26656038 0.03566451 -0.34327984 0.37465894 -0.025560983 -0.017926404 0.0022601713 -0.024840072 0.013703797 -0.43337348 0.2736717 -0.0140354205 0.6461687 0.09855285 -0.010156842 -0.01786081 0.006127875 -0.034626514 -0.012424025 -0.1426809 -0.12082384 -0.24399793
-0.018136384 0.07759113 -0.01790677 -0.17768945 0.009717338 0.05545287 -0.0016603012 -0.010976811 -0.032052808 0.058944706 0.045574546 0.05912764 0.101102024 0.8257293 -0.10101111 0.26368934 -0.0037845613 -0.051926613 0.034009654 -0.1319073 -0.029574545 0.06178827 0.024779433 -0.18314034 0.12161421 -0.038907994 -0.032740783 -0.11217197 -0.10455286 -0.106597036
0.00316393 -0.0102930125 0.006068464 0.032149393 0.0026686175 0.21787965 0.017045055 0.007277499 -0.040097687 -0.013267961 -0.005955227 0.006848814 -0.0058652735 0.03928076 -0.58803827 -0.21436672 -0.08993512 -0.01639045 0.056301847 -0.054771107 0.0041622026 0.015007732 0.002888776 -0.060403295 -0.018935872 0.42532375 0.042310163 -0.18531668 -0.2001921 -0.16480662
0.0016874068 0.20651674 0.0004069093 0.11041602 0.0075148307 -0.024602614 -0.0054428824 0.47662044 0.033771627 0.014596216 0.03516523 0.3478076 0.0023757662 -0.041558538 -0.009380395 -0.015543065 0.002455353 0.5198253 -0.03598147 0.04699661 -0.6900142 0.07176687 -0.0119699165 -0.06551934 0.0007844575 -0.032069847 0.00033366837 -0.20450935 -0.059563465 -0.21641451
0.0021908276 0.007799293 -0.0022967972 -0.06837622 -0.0071195182 0.04584027 0.007233904 0.0056885025 -0.010653351 0.015545366 -0.010099796 0.013561702 0.011180147 -0.0074187694 0.22521716 0.16147873 -0.097841755 -0.025151098 0.020349568 -0.1100868 0.0007439061 -0.0039054311 -0.006153745 0.066062205 -0.500886 -0.6623906 0.02281678 -0.22203305 -0.25824597 -0.17336732
0.017133657 0.0067068436 -0.017436134 0.103753276 -4.0352834e-06 -0.008841417 0.002404612 0.5749965 -0.121876314 -0.11202299 -0.52559584 0.066719346 0.33064973 -0.012531546 -0.0054064174 -0.048411306 -0.025070915 0.58979946 -0.08178788 0.018990215 -0.20117462 -0.14333932 0.004238008 0.057400078 -0.010288207 0.005388522 0.01137143 -0.2864502 -0.17812563 0.06811959
0.008401042 0.23062989 0.0018286906 0.098186985 -0.0040300894 -0.008465925 0.0030348965 0.23040454 -0.46512043 0.00037452896 0.61852056 0.38354278 -0.012456231 -0.03849217 0.0011784777 -0.0066146487 -0.013158417 0.2625561 -0.4068025 0.020694673 -0.30874392 0.05363447 -0.008184481 -0.020700553 -0.0099984985 -0.013770589 0.0044945376 -0.12919143 -0.21342276 -0.22902955
0.00961426 0.11590188 -0.0021590185 0.023214854 -0.002319024 0.01127209 -0.0036135016 0.83367044 -0.118758574 -0.4199717 -0.10248736 0.19860905 0.0028046435 -0.0030700238 0.0019220937 0.011133813 0.004316237 0.850203 -0.18865168 -0.48001537 0.5458629 0.08295962 0.017621845 -0.037125155 -0.0050743376 0.007714315 0.006516577 -0.01887476 -0.020809175 0.04695891
-0.00022546703 0.08816781 -0.012222955 -0.06463173 -0.00271691 0.00067736837 0.0009883943 0.022082759 -0.00623931 0.04994908 0.0032847603 -0.14500472 -0.81880254 -0.7654334 0.008893949 0.008751879 0.011391639 -0.050303057 -0.0013974641 0.028722756 -0.008621922 -0.0028702242 -0.5036288 -0.22625826 0.002440539 -0.009543864 -0.004569585 -0.09540879 -0.09305294 -0.22072642
-0.0005177588 -0.00029293317 -0.0009312637 -0.017001154 0.0003573995 0.00045415838 0.0001469596 -0.12329069 1.0416887 0.030943565 0.0003436377 -0.0026909795 -0.0015439998 -0.0033595616 0.0014254501 0.0025294556 -0.00045446004 -0.083681196 0.9766196 -0.08653175 -0.0027122388 0.0011781269 0.001968064 0.020664254 0.0018120742 9.813334e-05 0.0026850405 -0.020609088 -0.068220705 -0.0017102878
0.04752793 0.06552422 -0.017733334 -0.04980823 -0.011885113 -0.18700476 0.0075930343 -0.005419078 0.036465276 0.016875643 -0.10333392 -0.121614054 -0.2798385 0.42454112 0.32472467 0.37110627 -0.06899938 -0.036970384 0.006195167 -0.021783268 0.035563495 -0.035588637 0.21383862 0.07223394 0.13941549 0.25150463 0.036301557 -0.049578 -0.21502039 -0.18077087
-0.017564561 -0.032814164 0.0027746016 0.016571777 -0.0013563035 0.020031277 2.5243195e-05 -0.0021962447 -0.023690507 0.025369173 0.02912235 0.04152756 -0.013062298 -0.0088621825 -0.0013460944 -0.45941105 0.62756735 0.00041489617 0.026676448 -0.11221926 0.010384673 0.0023894517 0.014749907 -0.045346785 -0.097910136 -0.048581637 -0.6602826 -0.11898379 -0.16100891 -0.16908553
-0.0014419967 -0.097233 -0.030739952 0.0066012903 -0.0030262996 -0.0016560002 -0.0026472097 -0.018286144 -0.018927913 0.04919221 0.023112062 -0.4151967 0.5405969 -0.46352917 0.020644942 0.008651051 0.027213216 0.016616348 -0.013626502 -0.05304611 0.026606465 0.07612047 0.5026277 -0.31185803 -0.014555558 -0.012165095 0.01224707 -0.32317573 -0.3122961 -0.20865871
-0.002691469 -0.16622558 0.0042947596 0.16778843 -0.010129772 0.020371921 0.0051959516 -0.015932793 0.024562009 0.018546754 -0.01033339 -0.16686165 -0.12015687 0.036232416 0.009613548 0.039724026 -0.0063353856 0.002889263 -0.01683153 0.1446782 -0.003974096 0.4231881 0.65410376 0.42613474 -0.0031706498 0.01286031 -0.011297776 0.074631 0.09181725 0.24163824
0.0048821494 -0.4763117 -0.0171157 0.19628723 0.0035154223 0.0147668505 0.0042589726 0.037552483 0.02055217 0.18511757 -0.012412303 -0.0546727 -0.037436143 0.2919535 0.0017453925 0.01546488 -0.01586956 -0.05930576 -0.012199952 0.13462856 -0.0054851137 -0.38558245 0.7158942 0.31442958 -0.008549169 0.0097285705 -0.005164673 -0.055754952 -0.023688328 -0.0677137
0.0033995628 0.0020786466 -0.0052467897 0.033389382 -0.00081683794 -0.015237086 -0.0034860135 0.30839783 -0.9038998 -0.037722524 -0.44134945 -0.029496072 -0.09166098 -0.0042254888 0.0054615377 0.00033166088 0.0059240875 0.08167509 -0.85368705 -0.023582464 -0.68523556 -7.3777854e-05 -0.0010506196 -0.0492731 -0.0018656658 -0.027998114 0.007454986 -0.025850523 -0.17167895 -0.0686367
0.016185837 0.00690058 0.02674421 0.059960958 0.0037755335 0.005273699 0.001851635 0.11457698 -0.526656 -0.012703463 0.28633893 0.0028022556 0.37054536 -0.10878831 -0.0015042529 -0.017351734 0.01066562 0.08208264 -0.4957955 -0.024140576 0.5253124 -0.090213284 0.07107308 -0.13376167 0.006818495 4.0139716e-05 -0.003754832 -0.1514974 -0.062016126 -0.14701352
0.0006676173 -0.0072226 -0.00041082018 -0.00728423 0.0023168602 -0.0027282874 -0.0006541281 -0.6547111 0.03186733 0.5489572 -0.0035537644 0.008413012 0.00030921653 -0.011725536 -0.0044622663 0.0005561433 -0.0022629183 -0.5460869 -0.05469143 0.40330344 -0.004143196 0.031411145 0.0018436529 0.0022492693 0.002893766 -0.0072851377 0.00025264858 -0.03438707 0.02138767 -0.364426
0.051838633 0.012251596 0.005390978 0.020058487 0.00045305508 0.0007467795 0.0043791346 -0.73142594 0.24926947 0.018905632 0.09515006 0.07263318 -0.038976666 -0.011256931 0.0070986655 0.0027416772 0.00023457829 -0.7177691 0.14339 -0.02818484 0.60291487 0.027496174 0.015865797 -0.018337213 -0.0015632852 0.00048576196 0.0021348905 -0.068474405 -0.09969183 -0.059054263
-0.0150765525 0.45668188 0.0007763054 0.2383587 -0.0006004597 -0.005402827 -0.00037720628 -0.013249351 0.028052881 0.1691942 0.024798054 -0.00078683975 0.22625346 0.20810722 0.0066882963 0.013099069 -0.00012573946 0.008234235 -0.015220904 0.02702238 0.001244974 -0.5064362 -0.73266304 0.19573838 -0.010986835 -0.027247729 -0.012656703 -0.18253615 -0.11582527 -0.13611493
0.018199319 0.36478117 0.010813056 0.23216198 -0.004047071 -0.022651149 -0.005075557 -0.012605929 0.045567464 0.20041507 -0.035656877 0.13303366 -0.509533 0.40305486 0.005547763 -0.012788867 0.020208657 -0.0036417302 -0.02846459 0.12318324 -0.010057298 -0.44183427 -0.5208901 0.19617264 0.009004517 -0.023398837 0.008781498 -0.07412509 -0.048611723 -0.11508711
-0.01770207 -0.020747865 0.0002176138 0.038469147 -0.001412864 -0.0035358733 0.002246998 -0.88853914 -0.18879671 -0.013638701 -0.6770345 0.020764073 0.03643519 0.0030667686 0.0020849626 -0.001155409 9.082078e-05 -0.85060555 -0.26943418 -0.03758764 0.23873405 0.008287549 0.0046303514 -0.04349969 -0.0015965396 -0.0064319344 0.0013972711 -0.100818224 -0.13220592 -0.025248138
0.005826742 -0.19578864 0.008461917 0.58577824 0.0021916842 0.016029788 0.0014332862 -0.016923277 0.03110561 -0.08925538 -0.036432907 0.3031795 0.020208051 0.835916 0.046666272 0.079938464 0.01668511 0.01856512 -0.06320774 -0.33842048 -0.0056908745 0.33038592 0.07293755 0.18520768 -0.020693617 -0.009481413 -0.010018613 0.06425702 0.048217546 0.24165961
-0.0010795795 0.00738239 -0.00095566484 -0.02527437 0.0004087552 0.006827882 0.0005328778 -0.7629681 -0.7824865 0.013754049 0.0024580185 -0.013428937 0.0035912083 -0.005719796 0.0035813386 0.007522156 -0.0005422584 -0.70153505 -0.7281552 -0.09789669 0.0029071008 0.0027178244 4.806076e-06 0.034351643 0.000545166 0.008349014 -0.00015234182 -0.026808014 -0.067889206 -0.012370971
0.000770161 -0.0036363497 -0.00066804345 -0.020646721 0.0014351541 0.00640519 -0.0008696411 -0.8398961 -0.08228494 0.27566475 -0.0012172593 0.008235495 -0.00085689645 -0.002204469 -0.0036657301 0.0062796967 -0.003467998 -0.78715724 -0.11238686 0.082336895 -0.0011249069 0.0005217755 0.0009021964 0.03223321 0.0012139431 0.006915094 -0.0010780838 -0.030531455 -0.042162612 -0.15037124
0.008212777 0.0074473484 -0.0003094263 -0.013032446 -0.0018544829 0.013075728 -0.003067336 -0.8256182 -0.21483938 0.012513935 -0.39003438 -0.049683843 0.012119229 -0.016606053 0.011722258 0.016432168 0.012256342 -0.77592415 -0.21134527 -0.046529718 -0.5207684 -0.06458514 0.0006396388 0.032535687 -0.0056673978 0.008983847 0.0006262319 -0.060801644 -0.11669262 -0.03466374
-0.021357967 0.13702534 -0.022976069 0.031076342 0.009382836 -0.032204527 0.0007939895 0.14355044 0.04188898 -0.07182555 -0.19900759 0.19619945 -0.59242654 -0.052090563 0.012181676 0.0013542158 -0.0019190174 0.20570779 -0.11627081 0.009144332 0.10944567 -0.12397459 -0.010438262 -0.14933166 -0.009776586 -0.044994503 -0.0122017935 -0.18656553 -0.07375091 -0.040731527
-0.0014571369 -0.122685306 6.2533865e-05 -0.18440181 -0.0036233028 0.01796643 -0.005572129 -0.01177609 -0.05551931 -0.09034318 0.006350773 -0.39817294 0.0026211187 0.6204019 -0.0023880487 0.08843844 0.04599699 0.018565673 0.05941086 -0.25242633 0.0018983088 -0.3238464 -0.031977892 -0.28857353 0.03464994 -0.05092549 -0.007471069 -0.21565522 -0.20737688 -0.0954639
-0.0033923073 -0.04267106 0.007836226 -0.04495157 0.06585584 -0.040307768 0.004826821 0.004668979 -0.0037324768 0.017492665 -0.0007751331 0.034071043 -0.71589065 -0.5940505 0.005155199 -0.014613713 0.00570745 -0.017905667 -0.04163333 0.055047944 -0.008306295 0.0017177202 0.1987876 -0.15606734 -0.113964856 -0.05761168 0.011677365 -0.08649763 -0.101892024 -0.18639043
-0.0016289834 0.0036513505 7.6357166e-05 0.031143384 0.00067537423 -0.0029000172 0.0019492162 -0.14129543 0.89482284 -0.04067603 0.084679484 0.0044709607 -0.07292315 -0.018483065 0.002261158 0.0017941218 -0.0015227376 -0.038103793 0.8609697 -0.026089441 0.83180875 -0.008300775 0.004654198 -0.040446855 -0.006268682 -0.002942018 0.0010890008 -0.050495494 -0.17968592 -0.04954328
-0.005489446 -0.01451893 -0.013934135 0.11916219 0.00038507546 0.057800222 -0.0013184971 -0.0007318472 0.018181566 -0.041501123 0.012193801 0.042273104 0.055786345 -0.5018678 0.018332351 0.23041001 0.0056222435 0.0019478013 -0.015255097 0.064556435 -0.02072815 0.052227102 0.013376571 0.9576228 -0.025834452 -0.12559971 0.003744272 0.17520864 0.17048438 0.24184124
-0.0016210527 0.030777192 0.0005864574 0.01782233 0.0063889953 0.002651014 -0.012773219 -0.056688383 0.01841627 -0.06535053 0.012072304 -0.044761274 -0.01591839 0.045913346 -0.45841005 0.014032378 -0.00765832 0.04803205 -0.028022576 0.006574628 0.008957282 0.014409094 -0.0038185425 -0.050425768 0.011797195 0.04965432 -1.0067496 -0.15991104 -0.13922982 -0.13482258
-0.012028789 -0.25442144 0.00237063 0.095169745 -0.00079857995 -0.017153915 0.002125051 0.54443437 0.10732478 0.037069783 0.16934046 -0.3183136 -0.002786833 -0.03564896 0.007244412 -0.008605687 -0.010428023 0.57647103 0.16729629 0.04335134 0.70426744 0.17562164 -0.026058914 -0.058592536 0.003281456 -0.026182499 -0.0006131406 -0.18524325 -0.12423726 -0.20758434
-0.0041850936 -0.27116093 -0.0006044103 0.08630826 0.0034884983 -0.027692413 0.006242855 -0.40850863 0.47931525 0.07244456 0.60082054 -0.32137585 -0.004008757 -0.04691671 -0.007933641 -0.005334544 -0.012626227 -0.38930425 0.46372956 0.043788444 -0.49634796 0.08809439 -0.02372982 -0.042185817 0.007040563 -0.037843976 -0.00765058 -0.13277237 -0.15207316 -0.2280695
-0.008832826 0.24180965 0.026040634 0.0021800543 0.007895482 -0.017483545 -0.0062595643 0.0056299134 0.014134902 0.05627215 0.02678042 0.33250174 -0.26198068 -0.568627 -0.013336967 0.0057704803 0.010901277 -0.010534008 -0.0064880666 0.07433869 -0.002573184 0.31380367 0.7585507 -0.35600707 0.0040391344 -0.031013712 -0.0014332143 -0.2571697 -0.2377827 -0.21868357
-0.0063041775 0.23347838 -0.0028038924 0.046253443 -0.0044846395 -0.018068466 0.0009667093 0.18673931 -0.56694824 0.08116194 0.66219825 0.26854965 0.011512081 -0.010407765 0.01644515 -8.1154496e-05 -0.008406228 0.20236056 -0.54726756 0.043440804 -0.24281661 0.21443501 0.044515572 -0.0010879647 -0.0015333779 -0.022226695 0.0036220287 -0.14911398 -0.09319492 -0.20879517
-0.0063234754 0.28043312 0.0021751856 0.054583218 -0.0026778302 -0.0062279287 0.0014434857 0.5144025 0.008494976 0.075935766 0.015421514 0.22000599 -0.015171466 -0.03517472 0.0043543307 0.007855945 -0.0049566934 0.5608365 -0.020981278 0.017975524 -0.70485187 0.17561872 0.045597307 -0.02033852 -0.001479239 -0.009198409 -0.0055443244 -0.11805857 -0.114010744 -0.22251491
-0.0027619542 0.32370666 -0.009683952 -0.0027440134 9.249362e-05 0.01709129 -0.0033942307 0.24829608 0.28336608 0.49352747 -0.22506171 0.30650786 0.025210422 -0.07534229 0.00014185392 -0.0028263754 0.0032865186 0.29095426 0.2105282 0.44631243 -0.26498088 -0.23879236 0.16383064 0.008204519 0.008357322 0.022031143 -0.0067548878 -0.093642965 -0.039262332 -0.39701486
0.09710071 0.16614516 0.08069508 0.030697564 0.13076425 0.0940111 0.09161781 -0.019858908 -0.060935568 -0.040821783 -0.13468733 0.019627154 0.15699264 1.090918 -0.10246983 -0.35655951 -0.51128936 0.09453439 -0.14528379 -0.04805791 0.14295562 -0.005151305 0.083463125 -0.20430106 0.25866213 0.30069578 0.2233526 -0.29284784 -0.25202042 -0.25800443
0.0061461213 -0.04996581 -0.10682014 0.07058408 0.0030212197 -0.0065243524 -0.011941485 -0.010324446 -0.020772964 0.028640488 0.0070956824 0.045858286 0.89064425 -0.61479324 -0.0010261486 0.0134392595 0.023138745 -0.014924379 0.01000717 0.007821183 0.0113572655 -0.06443964 -0.397121 -0.30388138 -0.021121986 -0.016839128 0.0024969645 -0.19026437 -0.16004884 -0.2816755
-0.011628092 0.22153619 -0.0005400431 0.06510044 -0.005209513 -0.01473519 -0.00052550796 -0.5465787 -0.1393652 0.04085228 0.07691888 0.2263054 0.013236884 -0.009345121 0.008841566 -0.006379013 0.002776884 -0.56753254 -0.1747544 -0.010019805 0.70937353 0.24065216 0.056831937 -0.048117355 -0.005236249 -0.019228594 0.00089098647 -0.111124 -0.09994067 -0.19946578
-0.001630633 -0.23089112 -0.002064208 0.091382004 -0.002207285 -0.029910743 -0.00011228857 -0.2872056 -0.5436667 0.02492038 -0.6805795 -0.34870014 -0.008714718 -0.028419914 0.004228237 -0.016560795 -0.00055210735 -0.27864498 -0.5329715 0.016371908 -0.34395805 0.14715946 -0.02658783 -0.04031764 0.0031761401 -0.038819127 -0.0053903 -0.07464877 -0.15226966 -0.23764753
-0.006019996 -0.23527466 0.0009683669 0.075990446 -0.0031431192 -0.011600286 0.0028623631 0.5422574 -0.26357743 0.059581295 -0.350885 -0.27289283 -0.0017817065 -0.037059776 0.011714394 0.0018659319 0.0041177003 0.55889386 -0.26780194 0.013652236 0.7058394 0.16682717 -0.038817927 -0.024498785 -0.00050762855 -0.016960077 -0.002809568 -0.11660881 -0.1496239 -0.20801413
-0.0017248545 0.09366871 0.0204193 0.1771145 -0.0014951222 -0.00095737143 -0.0028606365 0.029147524 -0.010412876 -0.0702942 -0.007200852 0.21876924 -0.09957504 -0.021480791 -0.0035341068 0.020333424 0.0058860346 -0.03426804 0.0095629785 -0.027223442 0.0028107613 0.56862885 -0.55219257 0.44989702 0.0036790771 -0.016081959 -0.006623068 0.1325345 0.1105701 0.1801995
0.009074361 0.03199581 0.019019386 -0.17865098 -0.02835339 0.03693682 -0.02735687 -0.01605991 -0.0030192807 0.037538774 -0.026364755 0.010405293 -0.061215557 0.70186627 0.13814192 0.1565777 0.06608354 0.0020062882 0.009080084 -0.12088377 -0.006680672 0.09105038 -0.00049628963 -0.18188578 -0.23091535 -0.20087934 0.028576473 -0.13574521 -0.14533564 -0.12107969
-0.0008448143 -0.0071113748 0.0032168897 0.028253786 0.0036321254 0.008369923 0.0002449364 0.13580668 0.72390175 -0.04264162 -0.3905439 0.032798767 -0.16347592 -0.020578409 -0.007906246 0.005850909 0.008020472 0.105567224 0.70538944 0.011975361 0.6585821 -0.017569568 -0.0020404153 -0.03664696 -0.004333678 0.012300179 0.003309898 -0.14929633 -0.12464588 -0.012498527
0.014937791 -0.0057346146 -0.0031939452 0.013156674 0.0041514104 0.007706264 0.00015292584 -0.7315812 -0.62991214 0.0011111489 -0.47019443 0.00637843 0.03397225 0.012018795 -0.0018860718 -0.008370592 0.0036474243 -0.625876 -0.56489533 -0.045231257 0.47052237 0.004642249 -0.0022228842 -0.017410692 -0.010324111 0.009336686 -0.00329173 -0.13768034 -0.14337115 -0.01529696
0.0013086002 -0.35010737 0.0049606035 0.048936725 -0.0028075834 -0.019028824 0.007918792 -0.22053343 0.053201403 0.43350664 0.077932484 -0.34500948 -0.0060812896 -0.08531542 0.0073018568 0.0032041539 -0.016706424 -0.18072492 0.07716307 0.47952107 -0.24242102 -0.25004572 -0.25239864 -0.077503234 -0.00024236132 -0.030621314 0.008001866 -0.050290104 -0.045101866 -0.372433
-0.00059813645 0.00895503 -0.00080536254 0.004261154 0.0004346397 -0.01615627 -0.0022621911 0.02914023 0.021892197 0.76572543 0.00068069197 -0.024675151 0.002838224 0.05969786 -0.0005008172 -0.008584926 0.0044139302 0.0038890932 0.022780268 0.6190497 0.0018114808 0.17825127 -0.004682234 -0.04396818 -0.0015266516 -0.026994096 0.002236913 0.059209436 0.06663324 -0.46703324
0.01101839 -0.2596094 -0.0022546204 0.026328208 -0.0037570589 0.0019369747 -0.004276961 0.12072891 0.60894763 0.15741152 0.6355231 -0.19005716 -0.0013585672 -0.007180839 0.009559351 0.0075026755 0.007840061 0.032685205 0.6410118 0.022847017 0.036252018 0.23900396 -0.067307405 0.01623825 0.007236363 -0.000706115 0.0011706689 -0.17887321 -0.08712524 -0.22727391
0.00070703984 -0.015259962 -0.000104340856 -0.017948795 9.195018e-05 0.006988967 0.0027597933 0.007929862 0.01321136 0.6237082 -0.006500108 0.009478981 -0.0064589507 -0.005194678 0.0015144465 -0.0009783749 -0.0054995753 0.0012594217 -0.0021919145 0.47233945 0.0017124219 -0.70948434 0.011725896 0.07708781 0.0014759747 0.012548599 0.001329886 0.04029316 0.044214863 -0.5555864
-0.0013169391 0.062410977 -0.024751581 0.026969269 -0.003906913 -0.04026351 -0.0031292406 0.23146324 0.39796382 -0.034230515 -0.48984432 -0.087322116 -0.26154307 -0.06345287 0.01736005 -0.025569545 -0.0067306287 0.29616806 0.47149274 0.018069552 0.10566507 0.0032036833 0.07449543 -0.05074966 -0.010325952 -0.04572127 -0.016225748 -0.048983473 -0.09152809 -0.09925259
0.010767414 0.2993015 0.001990334 0.0648023 0.0004317504 -0.03811158 -0.0003383322 -0.23700127 -0.45714346 0.051349126 0.56564456 0.29474556 -0.015588734 -0.02772327 0.008586744 -0.02774562 -0.0030401705 -0.1897189 -0.48821193 0.014567791 0.40962783 0.022736238 -0.033118207 -0.006854128 0.0046631377 -0.042741377 0.010815527 -0.16646743 -0.09208027 -0.25830504
0.07042925 0.09887246 0.021713214 0.026215924 -0.0062972805 0.01713768 -0.008898743 0.43303448 0.03673961 -0.037349556 -0.5978985 -0.10784298 -0.22627729 -0.011006777 0.01224875 -0.010220428 0.029446153 0.39948368 0.07206026 -0.04918079 -0.10843587 -0.038492084 -0.025959345 -0.07371078 0.0029291722 0.035448458 0.0025917103 -0.15154596 0.026087146 -0.12609954
-0.005687768 0.03633673 0.00019003355 -0.03741978 -0.0033700787 0.040325824 -0.002123932 -0.54025453 0.5025982 0.16620353 -0.2160032 -0.016512716 0.02207186 0.0058581587 0.0040744226 0.02939489 0.0009173704 -0.43074977 0.45242098 -0.0076456424 0.06177778 0.012923639 -0.004940355 0.03751577 -0.0009939495 0.06001019 -0.004420285 -0.09164219 -0.08711139 -0.16821964
0.0006369077 -0.010493491 -0.004417979 0.005890664 0.010127992 0.18549873 -0.0058546574 0.016129224 0.006343177 -0.05550776 0.005652875 0.02117023 0.008925907 -0.015233812 0.019748291 -0.6513301 0.0121859 -0.028144285 -0.0022439694 -0.003694777 0.005421266 0.018809468 -0.011327746 -0.04937729 -0.77774537 -0.15911995 0.025421647 -0.12471818 -0.14034425 -0.16220035
-0.0032329336 0.26309633 0.0046185404 0.19014281 0.0015067081 0.011457564 0.009276256 -0.04080145 -0.030054905 0.25515613 0.018735845 0.4032678 0.2418496 0.25639522 -0.02113381 -0.0040608067 -0.007855996 0.00803039 0.003653578 0.25264856 0.02728943 -0.4664936 0.64892995 0.16497166 -0.020213367 0.02134448 -0.0027067054 0.017200332 0.11775947 0.049697585
-0.005298694 -0.31349966 0.0033574242 -0.04139234 0.0025001948 0.02067391 -0.007866797 -0.2202135 0.05340746 0.48629168 0.10701374 -0.46140072 0.0046517192 -0.09012279 -0.0026379148 0.011454282 0.017657334 -0.20943563 0.08942716 0.42968768 -0.2806342 -0.18127522 -0.2951584 0.08214098 0.005564944 0.029330762 -0.0057779266 -0.13865903 -0.114979796 -0.26545626
-0.0077199745 -0.02463555 -0.012878355 0.01898503 0.005262914 0.064922184 0.0038055228 -0.042843413 0.10892786 -0.030110639 -0.011473665 0.046393536 0.19512136 0.019417599 0.76360005 -0.34597617 -0.087045565 0.04493164 -0.0839601 -0.048249166 -0.0065819817 -0.03783823 0.059186365 -0.023730304 -0.04244779 -0.23366463 -0.0018137929 -0.19003788 -0.22566392 -0.25391683
-0.004256365 -0.24057114 -0.0009835733 0.016147476 0.004438136 0.004720489 -0.0012251249 0.61209464 0.13846712 0.13088283 0.13865572 -0.19834812 -0.0014579204 0.007524161 -0.0054169483 -0.00030343898 0.0032131402 0.61819315 0.09175033 -0.008019336 0.6315389 0.2620157 -0.033853833 0.03224477 -0.0059271986 0.002153355 0.010868754 -0.08243647 -0.20184684 -0.20670182
-0.0018814786 0.22106424 0.0032447865 0.065469384 -0.0013649262 -0.0059192143 -0.003971534 0.48576775 -0.46092933 0.012071615 0.45907217 0.2430117 -0.021694938 -0.0065107564 -0.0024123448 -0.011991087 0.010121968 0.4955493 -0.43767497 0.0044196467 -0.590335 0.26372117 0.054928444 -0.041644532 -0.0075570615 -0.013337622 0.0044977013 -0.10922651 -0.15503678 -0.16684338
0.0028804766 0.14156911 -0.0019508188 0.0105350865 0.0037502567 -0.0051740645 -0.0027505553 -0.6851182 0.4746417 -0.43995413 0.31916687 0.093558274 0.002226128 -0.00012148638 0.00024644734 0.020735072 0.005770592 -0.6985583 0.5442139 -0.47112983 -0.40686327 0.10702743 0.008035806 -0.020089041 -0.0022151594 -0.008956934 -0.003650284 -0.033991482 0.049867325 0.029322026
-0.0011524569 -0.0051495284 0.00022899648 -0.011975687 -0.0009569728 0.009400615 -0.0005940782 -0.37787896 0.57451427 0.5520547 -0.0004375443 0.0061758608 -0.0003641504 -0.020053513 0.0030991863 0.00859547 -0.0014928582 -0.32394734 0.46283823 0.38579884 0.0021158224 0.012134299 -0.0043131956 0.017894099 0.00010189275 0.0095187165 0.0022110401 -0.0063822535 -0.03203841 -0.33131278
0.0039409967 -0.018313061 0.0037208842 0.01785118 0.0010391844 0.0044194306 0.0023888461 -0.63902795 -0.711162 -0.11094239 -0.5059664 0.041062504 0.0048714974 0.0019403665 5.9004265e-05 -0.004060794 0.0007304089 -0.49451384 -0.71694654 -0.11071938 -0.2638076 0.06553753 -0.017093256 -0.035895556 0.0016857892 0.0024343845 -0.0020774882 -0.040377107 -0.082797684 -0.026313536
-0.003956434 0.004062585 0.0045077526 0.025127333 -0.0069744512 -0.006941669 -0.16151385 -0.035597146 -0.011566221 -0.084010474 -0.006033575 -0.016924301 -0.011410435 0.01939394 -0.4452319 0.0060781394 0.23409082 0.01480376 0.020366346 0.027748639 -0.0066718133 0.0035740968 -0.0006433117 -0.06602956 0.019173674 0.032717604 0.9822137 -0.12643561 -0.10414847 -0.1545893
-0.0016552802 0.22742067 0.002685929 0.08804294 0.0007942232 -0.01535502 0.0013319214 -0.061434228 0.4608643 0.04452948 -0.61466724 0.34632975 -0.0015258068 -0.02659579 0.0009704256 -0.011329329 0.0056862617 0.103195325 0.46266332 -0.0055221883 -0.0070249494 0.015899198 -0.06019231 -0.02410381 0.012333919 -0.028356683 5.0174487e-05 -0.08777232 -0.1419271 -0.26827198
-0.0037789936 0.39860955 -0.0035433054 0.43085825 0.0043584406 -0.013317699 0.0032367571 -0.016617464 0.05292847 0.40848768 -0.011325143 0.009414405 0.15386756 0.25823566 0.015237068 0.0131297335 0.0012582303 0.011368974 -0.04078329 0.39617583 0.00952296 0.018070208 -0.5082669 -0.11794066 -0.0071057025 -0.0010601758 -0.0045843422 -0.005876542 0.011412035 -0.5193775
0.0014501844 -0.26601017 -0.0028977592 0.022889905 0.0059053986 -0.002530156 0.0013115327 -0.31049645 -0.6024814 0.1308713 -0.619164 -0.19219714 0.004567969 -0.013738073 -0.0058051962 0.010987094 -0.0065455358 -0.27502236 -0.5849689 0.013511218 -0.27894965 0.26295432 -0.04622465 0.023564612 -0.0024855118 -0.006334263 0.0010132818 -0.17017426 -0.13734522 -0.19862016
